2.076211551006603706e-01,4.550746306612912304e+04,-3.643084131293479466e-02
1.977126688083414852e-01,1.641207688426032473e+04,1.954935725638545004e-03
1.912999023049161140e-01,3.058385219173641963e+04,-2.636394704673126078e-03
2.196672441548354893e-01,2.096522940825753903e+04,-2.231836739035117714e-02
2.123985241646141331e-01,1.540426921769209366e+04,3.939078306355387610e-02
2.118656495137790918e-01,4.302052977505783201e+04,1.419277292479339918e-02
2.200072445787792097e-01,2.424088891339342081e+04,9.097987237186480614e-03
2.071896331347017894e-01,1.763382840643505915e+04,1.045410886084289885e-02
1.992439545715808114e-01,3.292791479029106267e+04,-5.452824584225123700e-02
2.078319920513074237e-01,1.605327175657456974e+04,4.617469115664488144e-02
2.172326622140724750e-01,3.549184903710159415e+04,-2.526174942529706494e-02
2.013245237345619443e-01,2.144155784318835504e+04,-5.802962135107238295e-02
2.226297605324378814e-01,3.878144399950007210e+04,-5.858403887834567891e-02
2.124453887574316302e-01,2.737307730875753623e+04,-5.459039853720082380e-02
2.097056357140228422e-01,2.831260059676953097e+04,-6.829089148280484411e-02
2.204282497506373228e-01,2.808209466746517137e+04,-2.147773372061091961e-03
1.936676499406285168e-01,2.162891540363604872e+04,-3.009532920169247922e-02
2.002204971417762269e-01,2.718913119480585374e+04,-2.348664142348640127e-02
2.081960421856282051e-01,3.099385241857726942e+04,-3.276074214513174931e-02
1.967100200621406114e-01,2.684306700760652166e+04,-4.248974708935233935e-02
2.149410256031362154e-01,6.556905017302448687e+04,-4.387636862717030073e-02
1.954550673077322387e-01,5.091115346246153058e+04,1.446501359621054639e-01
2.110453749485106112e-01,3.634845653734599910e+04,-5.036795906992545119e-02
2.001565671131434188e-01,3.458255120625157724e+04,6.321973236849340316e-02
2.039748064135125938e-01,3.825439154609183606e+04,-6.900283384073933879e-02
2.061249050422464257e-01,2.880504550804750761e+04,5.054729431413346880e-02
2.077550938996105823e-01,5.118686197296451428e+04,2.628850312885241611e-02
2.056852339097748894e-01,3.561495788027132949e+04,-3.400961981451098431e-02
2.028478045429477628e-01,3.641058531592101644e+04,6.249887229289821655e-02
2.186257770125265565e-01,3.623910372410556010e+04,-9.276478239393833036e-02
2.212461785507353895e-01,2.773028924967750936e+04,3.811538337949205851e-02
2.168964195761107772e-01,3.130468713217844561e+04,-3.345909956522152146e-02
2.106593698838244710e-01,3.451108620167188928e+04,2.261287868778055418e-02
2.152519764534756297e-01,5.160833120772613620e+04,1.611419478066399846e-01
2.031503442284714744e-01,2.683840564996279136e+04,2.709957030345857415e-02
2.238812596716650283e-01,3.683205539053911343e+04,-3.936164265231162362e-02
1.932000353206629328e-01,2.949583656211648486e+04,2.555290447921766683e-02
2.131364712580298415e-01,2.147564543500036962e+04,-4.778931829035720780e-02
2.153457465067605825e-01,3.888420170389962732e+04,4.342356084905581171e-02
2.011194133182629407e-01,2.199915395086752687e+04,-8.814889537870218214e-03
2.167011516508967617e-01,4.746288822823991359e+04,-7.971085036077922570e-02
2.130059783423522146e-01,3.299072322086265194e+04,-3.390611339806560293e-02
2.028840436396977809e-01,3.310617020052252337e+04,-2.872929364718513831e-02
2.033532773698519536e-01,3.462412693170634157e+04,-2.352667826862905529e-02
2.060287436522378335e-01,3.681244828330380551e+04,-5.538872459273237042e-02
1.851225234529547681e-01,5.161645438990731782e+04,9.330030019674406816e-02
1.975336790558804567e-01,2.229391726360148823e+04,-7.501565770115747878e-02
1.987946297631112413e-01,8.473848866972395626e+04,-3.330330347460903201e-02
2.140961779214464178e-01,3.285799233938966063e+04,1.544895766939612526e-04
1.890132706102966575e-01,2.727314035352514475e+04,-9.590555884148019294e-02
1.932483034266754274e-01,2.178294045472299331e+04,-2.945573210809868114e-02
2.060064940353304730e-01,4.913535971064475598e+04,2.782582903882444177e-03
2.061030084832526088e-01,2.068214779425774032e+04,5.421700188387654218e-02
2.027778452326326197e-01,1.732832812816925434e+04,2.858393664645691654e-02
1.997366843521233004e-01,4.149997690387594776e+04,-4.213553558792548781e-02
2.073331671937841958e-01,3.911274147672820254e+04,1.504003068076047514e-02
2.145035863480236060e-01,3.994021916446024261e+04,-2.835730538772738424e-02
2.020414248401223301e-01,2.588731426924634070e+04,3.262106453664684325e-02
2.152793365902593847e-01,4.150211351021459268e+04,-1.518563887534533918e-02
2.081103468936905121e-01,3.395097487726931286e+04,-7.733118259205479239e-02
1.950090510527699161e-01,7.223026182022695139e+04,-3.190312519818831738e-02
1.803910884539840775e-01,3.224674186140060192e+04,-3.542968332765109724e-02
1.989593362945094868e-01,2.231808676272207958e+04,-1.712631220989733333e-02
2.085296059898950338e-01,2.173624465928885911e+04,-9.496361411812266617e-02
2.080091489688285500e-01,1.508891049051948539e+04,1.248989994722263068e-02
2.151350243489720815e-01,4.541643785292610119e+04,3.376989881748424654e-02
2.061587416420808949e-01,2.447817424686124286e+04,1.035831449450035600e-02
2.162707695787856044e-01,5.802719961082750524e+04,5.178873007006921936e-02
1.965884034222888932e-01,1.683407178316057980e+04,1.519616469932667628e-02
1.987364417929456950e-01,2.512592196226052329e+04,-1.226878480866375881e-02
2.139571725549333781e-01,2.768115943828706804e+04,7.817773790793651478e-02
2.069598274508983871e-01,3.251600154444876171e+04,-1.793505645978915597e-02
2.128077331712040776e-01,1.767138591531242491e+04,-5.665822177309146751e-02
2.086559195104887021e-01,3.443130752408812259e+04,-5.731538925967959858e-02
2.151912669010513646e-01,4.244710461574826331e+04,8.072794559078982218e-03
2.092217785759631354e-01,2.340583757766521740e+04,5.616588108685470482e-02
2.148719120636097824e-01,1.872830375349051610e+04,2.200392348397049030e-02
2.118964800756031885e-01,4.387336573265962943e+04,-4.934180191561408912e-02
1.990090709940992852e-01,1.570054309785826445e+04,2.515548645745557463e-02
2.122513266806149990e-01,2.949530520729675118e+04,-2.513082376557976283e-02
2.039837460535083580e-01,3.734592941979138413e+04,-2.824877413928193748e-02
2.112942863359613954e-01,3.242106673337250322e+04,-4.509242448962978017e-02
2.045571395920166569e-01,5.566233285262901336e+04,-3.072908825142649236e-02
2.153178615149395903e-01,3.786235093045279064e+04,-1.054628477401766372e-02
2.059187025635555446e-01,3.019383999897807007e+04,-5.620941921977859468e-03
2.058863478096367439e-01,3.654054466606274946e+04,5.894819989739369408e-05
1.990293513671270442e-01,3.575413843488588464e+04,-8.503868375953990699e-02
2.076422919070485817e-01,3.265848474350483957e+04,-2.014742296179173470e-02
1.803022249855869286e-01,4.358045462826901348e+04,1.042645955236929343e-02
2.096798441696249016e-01,3.007799051453611901e+04,6.734889711635347331e-02
2.178351580003961840e-01,2.749489549192533741e+04,3.963893871104847560e-02
2.147988798180496539e-01,1.969202930884538000e+04,-2.914741161022166294e-02
2.109403294413098318e-01,3.990159973633363552e+04,4.509164405637327427e-02
2.095372279547827177e-01,4.546643121394650370e+04,-2.119359792897936370e-02
1.836384278032138495e-01,2.185719062215797749e+04,2.432416961505652619e-01
1.963334122075304222e-01,1.852300899717377615e+04,-1.479062604384288361e-02
1.887308516624313370e-01,5.290297566631452355e+04,1.517232959692289829e-01
2.068328775876591974e-01,3.639043216329374991e+04,-5.997450933718407803e-03
2.168995011622613100e-01,4.829743050195596879e+04,-4.192277215171377747e-02
2.120495425622549168e-01,3.355481361309217755e+04,-1.299136552952491648e-02
2.094591140913446281e-01,2.057753051609175600e+04,5.288972278668529342e-02
1.990594545151518902e-01,5.186213341707650397e+04,-5.678065716205406288e-02
1.394117979865955315e-01,5.070932829415533342e+04,-5.851002174607799339e-02
2.198464376307780743e-01,1.883557725083650439e+04,4.735706130253928420e-03
2.105638382793120211e-01,2.982110613626363192e+04,1.779849606696001438e-02
1.961498852142739835e-01,3.319361961207077547e+04,8.127846529773442852e-02
2.045117476735099915e-01,1.957970100650551103e+04,-3.856163516983183992e-02
2.133646516502895052e-01,2.835784382343719335e+04,-5.242988039278317913e-02
1.935305365386671694e-01,3.697861076008625969e+04,5.145326538964263563e-02
1.981172002376443142e-01,4.148301718172287656e+04,-6.729819756890294963e-03
2.052593634569663816e-01,2.021636456172394537e+04,6.087101928476966461e-02
2.052302438473156965e-01,2.415563480203472136e+04,4.068484504989038769e-02
2.210729712240225298e-01,6.221052869771218684e+04,-1.264877743276085660e-02
2.204556914632789799e-01,2.622309163064388122e+04,2.820010436765827203e-02
1.956675171205223829e-01,3.280585282939906756e+04,1.705366287247158941e-01
2.114415861621928017e-01,7.883120064574514981e+04,-6.905250350272656990e-02
1.919985262601821285e-01,3.562498237207766215e+04,-5.520382281436347210e-02
2.138094868016068573e-01,3.346048923072587058e+04,1.839247727935435645e-02
1.962975102008946704e-01,2.294620036650021211e+04,-2.419833659355524400e-02
2.170482190932950251e-01,6.527067940366722178e+04,1.887130959173145828e-02
2.041628476458273445e-01,3.128599049418707000e+04,-5.698199014245664690e-02
2.215691030285675267e-01,1.649450044948619325e+04,3.963665628300676314e-02
2.201171383622063660e-01,3.205339363101762137e+04,-8.959655017203296476e-03
2.035610441525476377e-01,3.753729402269015554e+04,-2.642823445403012436e-02
1.910733345476546552e-01,2.605083157596196907e+04,-6.668353980997696051e-02
2.118969810543043231e-01,2.205518126015863527e+04,4.753343998353709208e-04
2.045274740128536772e-01,2.590856980852329798e+04,-2.182099549158759543e-03
1.888345542572942848e-01,5.444209602067679225e+04,2.427704792706520884e-02
2.160087264707385157e-01,2.363330063395980324e+04,-2.186895132596101965e-02
1.969080351240111992e-01,2.301908485805107921e+04,1.936549320755419079e-01
2.146462661376624670e-01,1.680575288241064118e+04,8.797840712713457176e-03
2.001825942461942787e-01,2.413596962447008991e+04,-7.388574737554103912e-03
1.998762814846806735e-01,1.671557691347929358e+04,-5.052280010979238317e-02
2.076398706397671601e-01,2.771465139014026136e+04,-8.655076156589780467e-02
2.139880786758672215e-01,3.506498172673444788e+04,1.533901074205030676e-02
2.026901720928272477e-01,3.921112033905330463e+04,-3.279855958213294398e-02
2.183013497703785999e-01,2.422684115767041658e+04,5.422059232145023944e-02
2.049069775993858089e-01,3.214300686277819113e+04,1.361216013440630368e-02
2.040272186531621457e-01,3.538057323827248183e+04,-4.357607123953233241e-02
2.084938339292683462e-01,2.072011012745926200e+04,8.640687549018349206e-03
2.157994502995743691e-01,1.538656204635831455e+04,1.353585110013489079e-01
2.038717341016906270e-01,1.737003132958544666e+04,-2.989340824828413522e-03
1.947492500734700760e-01,3.310140102372140973e+04,-4.101809949895682955e-02
2.060809609968228817e-01,4.141632268711068900e+04,-2.190525571173043695e-02
1.842010156953826083e-01,3.101073754051475407e+04,1.184182193612377809e-01
2.032163780152144161e-01,5.436288274254134740e+04,-1.535820230260164648e-02
1.985072562069643276e-01,2.702450402528904669e+04,-1.544518407208235380e-03
1.993654164927762262e-01,7.296121239890846482e+04,-8.064938159966004994e-02
2.156303013874359964e-01,4.869368878993687395e+04,3.891138444489163940e-03
2.021719644224821699e-01,2.046202091965895670e+04,-4.290555592848496053e-02
2.024219397645314888e-01,3.885124418788072944e+04,-6.585895872555701247e-02
2.043347578236999473e-01,5.090956742337248579e+04,-7.192603682329030967e-02
2.105627059516357868e-01,2.774019130971115374e+04,2.341047016554267945e-02
2.048635265329253885e-01,6.260461493847800011e+04,-7.473756097191848989e-03
2.154898102770718693e-01,2.965802500167343533e+04,-4.026627432936073780e-02
2.111750548059134203e-01,1.559987635323252107e+04,3.196740654010591515e-02
2.044897812574531792e-01,2.867677445283623456e+04,1.018354080981747137e-02
1.394117979865955315e-01,5.070932829415533342e+04,-5.851002174607799339e-02
2.037312153130817483e-01,3.754388680650314200e+04,8.175788443498419045e-02
2.250648207578606064e-01,5.776855716884163849e+04,-6.456526107688124669e-03
2.145853358049250870e-01,5.142588988144084578e+04,1.380020363582761256e-01
2.189293252129302647e-01,1.927710070651394926e+04,4.079962685682460982e-02
2.146197504660115329e-01,4.948770344572166505e+04,-5.470780214623202631e-03
1.954550673077322387e-01,5.091115346246153058e+04,1.446501359621054639e-01
2.091407585707764638e-01,1.725947196340921801e+04,-7.505482859598654188e-02
2.155959444897265209e-01,1.501871556717628300e+04,1.310556815397432850e-01
2.069433677666049909e-01,2.507465720669457733e+04,-9.892380705713571878e-03
2.114125981197000903e-01,3.394151915156817995e+04,-4.695088927328593120e-02
2.041006612077372329e-01,4.309649648959776096e+04,-3.531498099485621406e-02
2.041300081775025699e-01,2.711707898203518562e+04,1.173672060669983357e-02
1.987339226088610245e-01,2.404692862480608892e+04,4.365855661546906574e-02
2.103926660301783103e-01,1.955033053666200067e+04,6.413892216154297617e-03
2.152891534003762430e-01,3.501668368678510888e+04,-4.167999180059822617e-02
2.092418268251032554e-01,1.528152740376527254e+04,9.025230608500023344e-02
2.236885380252352784e-01,3.574287767259075918e+04,-3.926676813101864782e-02
1.889486335248908022e-01,3.359228317314066226e+04,1.138563129640527138e-01
2.000075731627406483e-01,1.810169064451853774e+04,3.104190573283987283e-03
2.153490162848049894e-01,2.108532144063356827e+04,-2.151775510832863725e-02
2.199794553860344726e-01,3.746862843572531710e+04,-1.668381356161482282e-02
2.133062646373293514e-01,2.550177407972770743e+04,-4.108872009911744561e-03
2.099692206838512654e-01,3.397128098990405124e+04,3.931499462074509316e-02
2.103352166371779408e-01,5.867188206419542257e+04,-2.775374225563846404e-03
2.134114257915719626e-01,1.972204956744117226e+04,2.301384765039725042e-02
2.015529647225125787e-01,1.722343624297322094e+04,-5.569659369465708269e-03
2.196778213545190761e-01,4.100416943945031380e+04,-6.478387945185182240e-02
2.145584711735981365e-01,2.044175213606128818e+04,1.893584480140371451e-02
2.129297548389031680e-01,3.408188779560529656e+04,-6.349075208593359110e-02
2.032772559877885354e-01,2.037126334468666391e+04,-3.640846743446427697e-02
2.129179979913617959e-01,3.084080680718991789e+04,-6.827772162678087545e-04
2.028623808987665977e-01,4.978755085995330592e+04,-2.045379050319488801e-02
2.138540750147030212e-01,5.422993459015501139e+04,-3.858260618248943868e-02
2.084610453784894735e-01,5.116077987779479008e+04,7.764738751162493513e-02
2.054055929095135458e-01,6.031573576390833477e+04,-5.591078416159760145e-02
2.117831916847164875e-01,4.369529078503398341e+04,-1.954490270921750011e-02
1.929175485316294569e-01,1.912047359604915619e+04,-5.163594862844560207e-02
2.196619536024156105e-01,1.992273348063767480e+04,-1.277308265195360205e-02
2.096953990236617160e-01,6.252802968878322281e+04,2.245781771822196737e-01
2.032256898847298321e-01,4.046658554481997999e+04,-9.155827742985869766e-02
1.143397802620916698e-01,5.056523355023916520e+04,4.377151105063299685e-02
2.079305224473824154e-01,2.388303288498207985e+04,-5.396982770646280986e-02
2.170829560293376648e-01,3.614518173698372993e+04,2.391964432455852621e-02
2.064301763850412696e-01,2.483047038701057681e+04,2.525240891007545646e-02
2.159506429174973263e-01,2.005442676657002448e+04,-6.861986218015417305e-02
2.188019933608743028e-01,2.443496038593789854e+04,-5.399503882530420212e-03
2.183075687530427744e-01,4.191319782446439058e+04,-1.675781977018568625e-02
2.146741413257924891e-01,1.957590366552679188e+04,1.870060220321545508e-02
2.066378802081886568e-01,1.732573148468026193e+04,-2.280127303403509109e-02
2.051639499957313706e-01,2.211464119136512454e+04,-4.330570653369883102e-03
2.136623460850041734e-01,1.805034232145610440e+04,-6.704307632899635973e-03
2.266368007424560960e-01,1.993599791251764327e+04,-1.417620752464283582e-02
2.092258779919187461e-01,1.533387941093304835e+04,6.804432955725504828e-02
2.105446039773384570e-01,5.157878692106562085e+04,3.865065616996188943e-03
2.038179346795494229e-01,7.520746394182318181e+04,1.428476309945865032e-02
2.003277330968343539e-01,3.320546868653736601e+04,-4.491485904376354282e-02
2.022899881791124788e-01,3.357224347935950209e+04,-3.560996649789498984e-03
2.013099993314678426e-01,2.299858393472278112e+04,-6.187182125617227135e-02
2.063875399591963977e-01,9.493483573124105169e+04,-4.668972736500912046e-02
2.177166720294045066e-01,3.540499520423793001e+04,-1.478808995265808515e-02
2.027663598053260352e-01,3.028798104649522429e+04,-1.818917517768982653e-02
2.113147960107262802e-01,2.900975290284604853e+04,2.517366264469328083e-02
2.140260418509096763e-01,1.928731238507270609e+04,5.569571267202174519e-02
2.097312346345483192e-01,3.944112578108957678e+04,-5.219627047186987251e-02
2.002511402183981548e-01,7.758682461037948087e+04,1.406187072972947885e-02
2.108485914893639124e-01,2.191392410665162970e+04,-6.202058506702547158e-02
1.935469215925446074e-01,3.584343757149871089e+04,-8.538687763759605920e-02
2.100115815147009513e-01,1.440961608465292557e+04,7.480032724957225154e-02
2.190095585946713053e-01,5.350684516836724652e+04,-4.896707978947469758e-02
1.999733444889510159e-01,1.816873846014433730e+04,-3.756864833741642429e-02
2.080594113397814526e-01,3.492940543733593950e+04,-8.337336718560101056e-03
2.071899776375046576e-01,3.449048283808284032e+04,-5.851265697024175816e-02
2.174036198124912611e-01,1.866266539248696063e+04,4.927538237903853618e-02
2.079156632750119582e-01,3.488902627394856245e+04,-4.507672972632362218e-02
1.945623100762662872e-01,4.933079266126299626e+04,1.029267406942380031e-01
2.455221571416617288e-01,5.152174082128125883e+04,4.773226110254553956e-02
1.974040614693732543e-01,5.329541340263311577e+04,-2.750093936359285576e-02
2.027823221795213293e-01,2.451996313870338781e+04,-1.620922703982982660e-02
2.151357620457940711e-01,3.484971222879791458e+04,-8.671317229355099410e-02
2.063691327722185498e-01,3.692895265123494028e+04,-2.691412457238709713e-02
2.082955995055766063e-01,4.547724423086419119e+04,-1.881317973872168731e-02
2.213552374656977684e-01,2.449002010858359426e+04,1.079925775209403388e-01
2.023079556194881390e-01,3.425981523489260871e+04,-3.050786646963197721e-02
2.164360735133051827e-01,2.956475679429282536e+04,-1.123761731759400501e-03
2.202496168994871051e-01,3.773815314374001173e+04,-1.766317496069018389e-02
2.114876225339293869e-01,1.958288826849873294e+04,3.808608757121709903e-02
1.898484365999508761e-01,4.625378866217681207e+04,-5.080142964141725476e-02
2.040568885874402827e-01,1.925165640250781507e+04,-2.672271425603105904e-02
1.977625692534099866e-01,2.106417283457688609e+04,-3.474966486010430677e-02
2.092754440692890794e-01,4.724501133327514981e+04,-1.233586337595364221e-02
1.942462115681216628e-01,6.871373829291852599e+04,-1.190669473603587006e-02
1.950068518212501323e-01,3.038602428666261039e+04,-2.637455803287358860e-02
1.917703882052157471e-01,2.637344664453690712e+04,-6.019327533618901854e-02
2.086651737119881445e-01,3.008268618305622294e+04,-3.541704278090520436e-02
2.167194443942515036e-01,2.298590209131616211e+04,-3.982392225341708364e-02
2.200306880317096647e-01,3.765180164778512699e+04,-3.099221284165519768e-03
2.046221278572043500e-01,3.872837729958868294e+04,6.086450676451570646e-02
2.002122579080680420e-01,2.989448964936053744e+04,-2.378153679486013500e-02
2.031311725789525791e-01,2.494747347142970830e+04,-4.488010277229898676e-02
2.030477074225500167e-01,2.022634208175000822e+04,5.518114042846056222e-02
2.231642563006035196e-01,3.745686031483495026e+04,-3.483491323277495416e-02
2.073546866842405911e-01,2.932478784070460097e+04,-3.421588649748759370e-02
2.103016877929589357e-01,2.428146275139592035e+04,3.275437833086227574e-02
1.975113164617218198e-01,2.762042477859445717e+04,-7.867724644179202587e-02
1.911506987248308698e-01,3.201813882387477133e+04,2.816176918183518341e-01
2.001833637448640069e-01,2.555234508120970713e+04,2.206373814636581471e-02
2.235301949211732087e-01,2.794876184630956050e+04,-2.799084931313615063e-03
2.000791935423119616e-01,5.062063957204193866e+04,-1.936810688291487267e-02
2.115428870263856842e-01,2.270804175105436661e+04,5.486903505277600365e-04
1.855104011831176791e-01,6.790759233475642395e+04,2.010711384688231181e-04
1.968092243961845900e-01,3.464901085387606872e+04,-9.107826543933757180e-02
2.173497900234445390e-01,2.600225822120950761e+04,-2.456450048552652823e-02
2.176757852747817912e-01,2.514610365263727726e+04,-3.654658567196115981e-02
2.132625481715358651e-01,1.889753026324217717e+04,2.446141588019597884e-02
2.197208807190267899e-01,1.792702668595797149e+04,-5.809259725528336839e-03
2.190396427161210025e-01,5.092210159024542372e+04,3.299129152910792312e-02
2.143533984072614473e-01,3.508269332157003373e+04,-2.639274763742783733e-02
2.081605090489282717e-01,4.749289398477892973e+04,-2.861144700893740803e-02
2.134159503204125508e-01,2.888876166290310357e+04,-6.033851662736593700e-03
2.104482427843244463e-01,5.196941174032851995e+04,8.841848971928477352e-02
2.118335250468130482e-01,2.584218411641402781e+04,-4.973415282673664117e-02
2.123354207366873192e-01,3.694204939987893158e+04,3.339513377077780033e-04
2.179809087261702638e-01,2.779027759401267394e+04,9.993925742641882048e-02
2.104150210647710295e-01,2.651283145812318980e+04,-1.655247715535494019e-02
2.115796079887288794e-01,3.491357209046970820e+04,-3.995550847117694537e-02
2.027108840863641459e-01,5.332313923559235991e+04,-3.525101307401374423e-02
1.933211039938829978e-01,3.455475814374022593e+04,-1.270616466765164473e-02
1.954158177009641117e-01,4.551742146843969385e+04,1.240742586762276778e-01
2.011411686213508965e-01,3.379670058030818473e+04,-2.242599916033001517e-02
2.115361096367364691e-01,7.374871383783644706e+04,-4.585776474165537825e-02
2.089795881845436520e-01,2.869320158445087145e+04,-6.064437873969729526e-02
2.167221140616161223e-01,5.059348282863940403e+04,-5.254846728601332562e-02
1.308055015153503919e-01,5.058527107043872820e+04,2.137131726148899444e-02
2.159725713632125177e-01,1.809814683583633814e+04,7.581233296477360439e-02
2.043769765593580479e-01,5.015927987516782014e+04,-4.087624234597051626e-02
2.088267154188623298e-01,1.695027178098907098e+04,1.850997466838031182e-03
1.889237754940227831e-01,3.327812313012644881e+04,-2.442487264704473748e-02
2.045008153380860894e-01,1.905492738340386859e+04,4.006107319002796818e-02
1.895250739466320389e-01,2.827111635923296126e+04,-5.055005703754115315e-03
2.076024513278227901e-01,1.631547669185637824e+04,4.594741866163095517e-03
2.014092211210211647e-01,1.732156905559515508e+04,2.903249721406501310e-02
2.231496045991866184e-01,3.812884358350680850e+04,-3.754218694287118907e-02
2.112377460538763518e-01,3.286271798463115556e+04,-3.813011239773363148e-02
2.099520402727250434e-01,1.716883766927422403e+04,-2.203237749393271994e-02
2.092298347176838047e-01,2.175915276167217598e+04,2.346066988029568007e-02
2.264668340569289950e-01,7.872152191704575671e+04,-2.927418571954952531e-02
2.087899313059690676e-01,2.002310723738828892e+04,1.641827596747779533e-02
2.055738403819053484e-01,2.815018347422716033e+04,8.214705934275055854e-03
2.044778395453889230e-01,1.924973993121480817e+04,5.211796116693270114e-02
2.149355893842117282e-01,3.242862278508422605e+04,-2.333326232091968711e-02
2.066909508680980501e-01,3.729843416667818383e+04,-3.858164200085290735e-02
2.083036739351451783e-01,2.711143319647147291e+04,2.762406603350720663e-02
1.981069753567323288e-01,7.728748426093992020e+04,-7.117720267661503675e-02
2.053507573077872905e-01,3.613469337436177739e+04,-2.679589370350309377e-02
1.974062466965052498e-01,6.587835012997729063e+04,2.678103270739366770e-02
2.099074597935597919e-01,2.097150577364219862e+04,1.373766289591776650e-02
2.079586074250338867e-01,2.490084453807911996e+04,-4.016867260591650002e-02
2.102477598539854442e-01,3.570308330528513761e+04,2.327289960824766024e-02
2.113064305607789406e-01,3.830725687336840201e+04,8.594298658427310111e-02
2.186616069447545330e-01,1.783015856133738998e+04,7.109945871322370659e-02
2.095684291455692794e-01,2.934859439020674472e+04,-4.569027983102709467e-02
2.184375569408263384e-01,1.900300700060718373e+04,3.666166351012411367e-02
2.086353460142514604e-01,9.445159917705488624e+04,7.327875870933622804e-02
2.247150702810253864e-01,4.636055261194730701e+04,-5.931292469236794374e-02
2.100922328764836255e-01,3.397969430326797010e+04,-5.331876771686358540e-02
2.114035406086848812e-01,3.358410445154445915e+04,-4.135576603959915248e-02
2.014303691881433878e-01,2.483570811672905256e+04,2.099979414476014009e-02
2.075845342480461542e-01,1.584958681592623543e+04,-2.366157904552905131e-02
2.102034567088248429e-01,3.704079014114363963e+04,-9.284605562821254474e-03
2.082421860569586280e-01,6.610935389627736004e+04,7.370753958886629154e-02
1.927715770851691768e-01,2.794556636758380773e+04,-3.501986618479614038e-02
2.155687749430224287e-01,3.771204099079195294e+04,-3.725815467551998883e-02
2.181463581066772073e-01,3.087814497473674783e+04,-2.223422703663633163e-02
2.148918920646208097e-01,3.874282007939901087e+04,-7.849305271120994576e-02
2.036194431528731419e-01,2.036743521401499675e+04,-6.040123858383157629e-03
2.007202198558072359e-01,4.538411464485395118e+04,3.415152304412877315e-02
2.137977270350611136e-01,3.451185394575320242e+04,-6.784110852527484858e-02
2.284465148782310606e-01,5.384877572383383813e+04,-1.672058889822053418e-02
2.211022792783328417e-01,4.337961184219391725e+04,1.504868351918716395e-02
2.131407957684756937e-01,2.418786337782813644e+04,3.275921196934308919e-03
2.163704742777981249e-01,7.978905030173236446e+04,4.946849745182340871e-03
1.995747277958033750e-01,2.592599328261529445e+04,-6.513833201919286275e-02
6.262162606181261026e-02,4.921027789726776246e+04,-2.508901098305644714e-02
2.046103095293497487e-01,5.960214048169327725e+04,-1.138300073743941584e-03
2.112705724744833313e-01,2.815082051688632419e+04,3.640381497493319629e-02
2.089720220851961630e-01,2.410834133944891801e+04,3.123352256996514073e-02
2.101862919911514360e-01,2.049793940542129712e+04,-5.122402345934233547e-02
2.006876493362879654e-01,1.995542836904702926e+04,1.194207985153613455e-02
2.174644760752940109e-01,4.157510067872380750e+04,-1.409487241643600335e-02
2.163791832789830338e-01,6.264436791480508691e+04,1.430399690489656678e-02
2.208738943615487227e-01,4.493276279714206612e+04,7.618545602996465438e-02
2.131312118548246703e-01,5.860676250327668095e+04,-1.407250714919548555e-03
2.204866611104859819e-01,2.121532540393994714e+04,-7.189798052917018012e-02
2.214028156956804050e-01,2.665303020895108057e+04,-5.542327657968161569e-02
2.046675889789314196e-01,7.662085643029608764e+04,-1.069180835183446976e-01
2.109067951576981959e-01,2.691166599497715652e+04,-4.860084131358743259e-02
2.229191587527405705e-01,2.773980640568023227e+04,-6.792666909008221454e-02
2.158776672260638296e-01,3.960581361290487257e+04,-2.422557491981185140e-02
2.000373033841646442e-01,1.618076805791138577e+04,-1.064859700629981754e-02
2.089345703110977726e-01,4.707434585174720269e+04,4.335976789121030739e-02
2.118354070531898448e-01,2.156648494393406872e+04,2.276298264807681548e-02
2.132488546939342033e-01,2.134543338399348795e+04,-5.006560982703248596e-04
2.011242511923712617e-01,4.035823167123034364e+04,-7.081768792509601784e-02
2.088564043343600352e-01,5.694606959070466110e+04,1.355518250269487426e-02
1.862778533049112561e-01,3.187546098375432484e+04,-2.548330585228015741e-02
2.147321528741320262e-01,2.513844971044395425e+04,8.180397152090731344e-03
2.077902489664420482e-01,3.073464135205262573e+04,1.444264230934425366e-02
2.050832488348400540e-01,4.101733486046812322e+04,4.225402750766455579e-03
1.956755944629010036e-01,2.218541342292015179e+04,-8.827409327474673717e-02
2.164683910069633288e-01,4.389069737428635563e+04,2.087652830348523877e-02
1.925514747516731962e-01,2.581580527928117226e+04,-4.634744404993283717e-02
1.928479147512982828e-01,1.937958117799862157e+04,-3.930076953087711933e-02
2.178625455994665505e-01,3.643997301227270509e+04,-5.060478504460669269e-02
1.902145417371275682e-01,3.037615130750971730e+04,-7.167167948425529067e-02
2.125251139626060937e-01,2.709721591052498115e+04,-8.937343176255897748e-02
2.153313212285294098e-01,4.283394764334145293e+04,-3.936583694783905851e-02
2.051586235037649586e-01,3.980842246345675812e+04,-7.163783247245722116e-03
2.022048466607889450e-01,2.430455554132798716e+04,3.500354864639953351e-02
2.007474956704194957e-01,2.043878009198396467e+04,4.577491795070686743e-03
2.131700304732690177e-01,2.308881453419968602e+04,2.003512185122760178e-02
2.074569941572139975e-01,2.775250054981806898e+04,2.060323107659079583e-02
1.976381992632938178e-01,2.587080416470539785e+04,4.235125759533448463e-03
2.095898911008891585e-01,1.690354413324268171e+04,-8.335998777268411805e-03
2.174443506318288477e-01,3.264135224327357355e+04,-3.285128968291189944e-02
2.063749460568093386e-01,3.051148731336276251e+04,-1.983250893003461052e-02
1.981066201194471577e-01,4.791935437401177478e+04,-1.280525599059095625e-02
2.310028306116098940e-01,5.210214450855775794e+04,7.566551125754578111e-02
2.104482427843244463e-01,5.196941174032851995e+04,8.841848971928477352e-02
2.145086209182627823e-01,3.290761412632427528e+04,-4.117816383830024025e-03
2.059402590863516347e-01,1.792478068308296133e+04,-5.607476717184708970e-02
2.180677359617321232e-01,5.332443158278077317e+04,2.131881315736863444e-02
1.950482003297231981e-01,2.799763855673692524e+04,3.039021077586646566e-02
2.285074761687777289e-01,5.214010981610488670e+04,8.032613543144870305e-02
2.112396862158232025e-01,2.407598393089931415e+04,1.910919148942374218e-02
2.240101742833324194e-01,3.394472984771851043e+04,-4.267156213458874608e-02
2.068801211834886689e-01,3.613710123846271745e+04,1.069851189731447876e-02
2.030863226779650865e-01,5.277242672587223933e+04,1.167307293996987759e-02
2.092783638336439267e-01,1.589618455506470491e+04,2.251235142928883354e-02
2.139508986837966031e-01,3.933246844412517385e+04,2.411276454533409913e-02
2.094329738103395955e-01,1.776372589858088759e+04,1.874263444333490805e-02
2.137721863359551278e-01,2.401091596095178829e+04,-5.013063541009372959e-02
2.119708587672639588e-01,2.155106548536763876e+04,4.788402658869778117e-02
2.187640342124863579e-01,1.571691380517676225e+04,8.548335289039767082e-02
1.954550673077322387e-01,5.091115346246153058e+04,1.446501359621054639e-01
2.140282254734872103e-01,2.019373937596622272e+04,-7.923147050270834546e-03
2.084610453784894735e-01,5.116077987779479008e+04,7.764738751162493513e-02
2.097592049274268344e-01,4.171518273501111253e+04,-2.078485891413238071e-03
2.015649215441063236e-01,2.111933512786448409e+04,-5.664889177365119849e-02
2.043196202728073119e-01,3.038648424570601856e+04,8.601315305033356215e-03
2.105629182890234319e-01,4.157241568211508275e+04,-3.174240915499774562e-03
2.125116637987823631e-01,4.837441964679863304e+04,-9.188176530161818682e-04
2.060025050701686233e-01,2.611178728577695438e+04,-1.429129990733831075e-02
2.010276707627176584e-01,2.280848293842846761e+04,-9.714822044204114715e-02
2.081992789166724200e-01,2.186362541968615551e+04,3.251174546194659370e-02
2.086197844857775596e-01,4.811509078067031805e+04,-8.034888173944872147e-02
2.152519764534756297e-01,5.160833120772613620e+04,1.611419478066399846e-01
2.066583512679010803e-01,2.373305893095187639e+04,7.020047600388226727e-02
2.098911691619448350e-01,2.389530900548425052e+04,1.605326618279658002e-02
1.968404000928002107e-01,2.872945355272996676e+04,-3.919030375973266145e-02
2.066062447925559320e-01,3.220345781378255924e+04,-5.654282420002416931e-02
2.059607561091923167e-01,6.057327583738607063e+04,6.493082969915531244e-02
1.971125645981578745e-01,2.749581013806566625e+04,-7.378466447624440483e-02
2.210113613947981281e-01,3.257578701330522745e+04,-1.522945278791854561e-02
2.064988426005486266e-01,2.407353944822020276e+04,7.611795911777070878e-02
2.013355041871939255e-01,1.909934465547553555e+04,1.069273208792710476e-02
2.049756863022865749e-01,3.248339423058027023e+04,-1.218598861230153763e-02
2.166464520068036581e-01,2.174337665767087310e+04,2.720473642646306298e-02
2.228734921306846084e-01,1.843879279557962582e+04,6.929969943063382654e-02
2.039075067842982814e-01,6.866956982447337941e+04,2.349505314547142842e-02
2.083391907445948099e-01,3.667698334372021782e+04,7.831094372576221860e-04
2.139334022032133298e-01,1.933679061725435531e+04,-2.318246730241952866e-02
1.885449853974785484e-01,3.370210432840717840e+04,1.338776154351603853e-01
1.979760240141894279e-01,2.812461423676481354e+04,-3.803143493174700185e-02
2.059069571954339761e-01,2.651734063026880904e+04,-3.315430462736631417e-02
2.117105184367952531e-01,4.417728059924137779e+04,1.529406272723433588e-02
2.122106346659024811e-01,1.847830145812931733e+04,3.887002205541754268e-02
2.154486431126059476e-01,2.894561407547804993e+04,-5.800075990298603906e-02
2.041680531209463245e-01,2.131824646405949898e+04,-6.334573767863315927e-03
2.198233146389922954e-01,1.993520351879241935e+04,-6.350680844496268962e-04
2.035456813109895735e-01,2.003307166640342621e+04,-9.455574337965937798e-03
2.148693680185622956e-01,3.933375056009661057e+04,-7.680029787694643562e-02
2.053844950526947100e-01,2.843353949719578668e+04,-2.369875629204175327e-02
1.983905413122134809e-01,1.887962895571991976e+04,-3.007068867415677721e-02
1.983678510168756515e-01,3.975037172622721118e+04,-6.589627222314238530e-02
2.092690970513650939e-01,4.389406103427124617e+04,3.082792498653677809e-03
2.024953077215430053e-01,5.762945270315487869e+04,-8.479034123542444901e-02
2.096566201878039271e-01,1.764027565290334314e+04,-2.179060645173288083e-02
2.207917972353798663e-01,5.496987911693839123e+04,-1.206294030350799247e-02
2.087078524392784740e-01,1.429221232083742507e+04,-4.455747437284154552e-03
1.991322336396829096e-01,3.209186752253092709e+04,1.245065222540564162e-03
2.064174506112521901e-01,4.562321640791320533e+04,1.242218049193012999e-02
2.116375834657621691e-01,2.489056546622473979e+04,-3.504149980368303271e-03
2.003462944099717313e-01,3.059318077700510912e+04,-1.174470940542161369e-02
2.039523155581668412e-01,3.177748344446093688e+04,6.739093407267147777e-03
1.976380344305811998e-01,2.787844386590344220e+04,-3.210068911919997797e-02
2.046748933019197636e-01,2.106419098979348200e+04,-4.360150928512056268e-02
2.210750423465366044e-01,3.003324534146783117e+04,1.432811876571013325e-02
2.078315328800277584e-01,2.747401767595410638e+04,1.740828627814236616e-03
2.032569267679695535e-01,2.388058446644741707e+04,-4.707395171348395524e-02
2.065386988172589200e-01,2.783828600858003847e+04,-9.569727667278149497e-03
2.042811997058613660e-01,2.257427799372163281e+04,-2.776798908941646715e-02
2.124145584906470818e-01,2.910663098435936990e+04,3.478138804004374252e-02
2.048607154132889296e-01,2.867346795893198214e+04,-4.136028545645505095e-02
2.264313904813345657e-01,5.168746261205145856e+04,5.243745272191102647e-02
2.061914682910826468e-01,3.761199287498281046e+04,-9.707134250238444451e-02
2.121639375469596689e-01,3.786644583917192358e+04,1.052669511973779448e-01
2.096408481797505108e-01,3.344384670583083062e+04,3.220318236550446123e-03
2.042322056086321169e-01,3.820871854027755035e+04,1.062354658727791140e-02
2.161554326679333282e-01,1.755861938626798292e+04,3.057626616242051579e-02
2.069323271379783225e-01,5.551613092604929989e+04,-4.298105298590001316e-02
2.120411919865735073e-01,2.619946279177808901e+04,5.570722974288288241e-03
2.060790274884781170e-01,2.217476668644744495e+04,2.719408887208313308e-02
2.012682016347010772e-01,1.962754223615123919e+04,1.074533106717145622e-02
2.094769418943179529e-01,1.816827088063012343e+04,4.948663713904591366e-02
2.029881619592737163e-01,1.840265292990791568e+04,-1.430184052430639660e-02
2.092520989042264412e-01,3.243596389938283755e+04,-1.060298161471481641e-02
2.199993883090336222e-01,2.289632864063083980e+04,-4.374068505650023750e-04
2.104482427843244463e-01,5.196941174032851995e+04,8.841848971928477352e-02
2.165571311454041747e-01,6.511059597103716806e+04,1.289284592357034000e-02
2.016907156997762018e-01,5.006279955880173657e+04,-6.239682540155323809e-02
2.093820967382829246e-01,3.065557127200461036e+04,-2.449064702166595109e-02
2.069827611410854085e-01,3.070846770846062645e+04,-5.156732804452238833e-02
1.995013058582179311e-01,2.989210269537196291e+04,-5.822088806359928398e-02
1.954550673077322387e-01,5.091115346246153058e+04,1.446501359621054639e-01
2.105372854055061471e-01,3.940575929174588236e+04,-8.275624530390127132e-02
2.192203503298210954e-01,1.731681913292669924e+04,1.175193541881336401e-02
2.288924336246930258e-01,1.584520866459395620e+04,-7.779540568100316855e-02
2.067793725995664411e-01,2.350119406733057986e+04,-7.536170010505892358e-02
2.050477975868403302e-01,5.496477004871581448e+04,-2.050681768141646502e-02
1.961263893138735226e-01,5.030253969080059323e+04,1.307942445857441550e-02
2.080370230710541501e-01,2.143779844623886675e+04,5.421181364454324275e-02
2.010573810061912492e-01,1.583090576817370311e+04,-1.114355629789867859e-02
2.029518785005491321e-01,2.193156022931546613e+04,1.155525521995285146e-02
1.939858771765315681e-01,4.039537575485151319e+04,-7.427401064683993026e-02
2.155517244669427346e-01,1.495002891797081429e+04,2.617986209159178096e-02
2.164050365499549100e-01,4.862290308586962055e+04,4.214684382300316196e-03
2.151165411807957339e-01,2.989947906868601422e+04,2.060155201320903670e-02
2.117819150059951916e-01,2.281388253688300028e+04,-3.078914063787213662e-02
2.188944440155049520e-01,1.806975699130100111e+04,-2.004686459886493091e-02
2.144860687333388916e-01,4.406867187222678331e+04,-2.140255698738972173e-02
2.038956225019470103e-01,2.002194065859764305e+04,-4.101836151051733298e-02
2.089739719453046762e-01,8.908455110532222898e+04,-1.478279907824640166e-02
2.040702529669707055e-01,5.150116362937858503e+04,9.738764479610581559e-02
1.925971205302543510e-01,4.224585887003882090e+04,4.225234913250618595e-04
2.230305735587534421e-01,3.192545440129928465e+04,3.195540852926843922e-02
1.851225234529547681e-01,5.161645438990731782e+04,9.330030019674406816e-02
1.814020237103741717e-01,2.843799000301617343e+04,8.296182675222338321e-02
1.983941750257078862e-01,2.066217304807515393e+04,4.442419242907660187e-02
1.913955446110000569e-01,2.927837685088404396e+04,-1.586022248536176835e-02
2.110868513853902950e-01,2.158424857903763041e+04,9.619180635335778523e-03
1.916134933466526746e-01,4.263161526377222617e+04,-3.003497081128917237e-02
2.028430631616008339e-01,2.435874881376685880e+04,-1.006324857004071566e-01
2.152954193157749496e-01,4.214409674501403060e+04,-4.923865691082857793e-02
1.143397802620916698e-01,5.056523355023916520e+04,4.377151105063299685e-02
2.088448217202099610e-01,3.824416896702998201e+04,-3.470642410975045139e-02
2.087884487212647855e-01,4.080020131842764386e+04,4.600148297106227725e-03
2.083169172375822220e-01,2.012967552645522665e+04,-2.433278424966175621e-02
2.113615639419780257e-01,2.939434515438947710e+04,5.260949106043889129e-02
2.066580091230927618e-01,4.983464782024174929e+04,4.660244183019621872e-02
2.059624626378466217e-01,2.852485239889677905e+04,-9.175232976276438690e-02
1.839841937575076025e-01,3.375456924142286152e+04,1.438400015326560255e-01
2.208837085087658747e-01,3.449309711181415332e+04,-3.051298556835331868e-02
2.159373263284397604e-01,2.490095367540413281e+04,1.344063320182092153e-02
1.755816378928902188e-01,5.109179175571202359e+04,8.261981957524915099e-02
2.124488723426262438e-01,2.427846983600654130e+04,3.709200762460038853e-02
2.067181919592550876e-01,2.452461797126160673e+04,-5.485724884797028161e-02
2.253073049181167631e-01,3.681181592440458917e+04,6.754222670808084257e-03
2.016883479812033031e-01,1.558574237621458997e+04,3.849014437130951483e-02
2.105911518844861829e-01,2.690151696945927688e+04,-5.967142640647999513e-02
1.900710600144677465e-01,1.734907301121637283e+04,2.311103694024094213e-02
2.092869132242070052e-01,8.405205647283776489e+04,-4.860059042631807713e-02
1.907411677082207491e-01,3.444789614226650883e+04,-5.386581384180431226e-02
2.165970324313143125e-01,3.011169845793863351e+04,-8.334580566986897476e-02
2.019779603963177683e-01,2.160187029161235841e+04,-5.432411136783581868e-02
1.918865357464860366e-01,3.683106162605465215e+04,1.747128719269246469e-02
1.873243979709222906e-01,2.751161233082657418e+04,2.922789156389716259e-01
2.095513602470175929e-01,1.921427708948616782e+04,1.237356431592237342e-02
2.132244267891634515e-01,3.709404262116904283e+04,-1.105400902378860656e-02
2.049318128924723370e-01,3.515854866866105294e+04,1.204354694812638099e-01
2.077393474869980716e-01,3.725692130727597396e+04,-6.855758557631858041e-02
2.038708525678913364e-01,1.848808612071412063e+04,1.372208481228359873e-02
2.035952212300700392e-01,2.397108985900468178e+04,-2.366313705764004627e-02
2.185855893578871612e-01,3.559763417272757943e+04,5.919630948381833513e-02
2.057607448178671306e-01,2.278386052916140034e+04,-3.198882681582287946e-02
2.003159823960440067e-01,3.434441789886211336e+04,1.650588171506406701e-02
2.177707432885144512e-01,2.987785574780219031e+04,-4.871123049107486253e-02
2.065362953032388593e-01,1.589951269811700331e+04,3.629270300573329139e-02
2.028109619721098766e-01,3.857123083789195516e+04,-1.095828811344310913e-02
2.160440818690335940e-01,5.589052962470977218e+04,-3.362606348296613007e-02
2.098238260446819159e-01,5.095341066854147357e+04,-2.325066819799500445e-02
2.091910928547180692e-01,3.487837081709630729e+04,-2.470706232942486424e-02
2.010802435881265948e-01,4.613904742348840227e+04,-5.324722885718264492e-02
2.016537172349397167e-01,1.625128331956333022e+04,2.839726869018429495e-02
2.079360152215337654e-01,2.486395198468070521e+04,4.191772218461172622e-02
2.009660949919977735e-01,3.078219814359752127e+04,2.907174275689932558e-02
2.132076917565234042e-01,3.934996123371845169e+04,-8.179998539190823023e-03
2.062180668400682149e-01,4.654559012964852445e+04,5.318446724210669496e-02
2.083070086843447632e-01,1.687352601710481031e+04,4.718209284049880436e-02
2.079247715355513892e-01,2.126553783359364388e+04,2.419924243855465368e-02
2.032439429559695643e-01,3.621762080145880464e+04,1.859814687999779758e-03
1.879794202078523824e-01,3.286543249466182897e+04,-1.837971356878609352e-02
2.178108873360369013e-01,1.714065438686472407e+04,8.731223921274795796e-03
2.058845486166422656e-01,2.493593286768474718e+04,-2.422015371759390912e-02
2.150924232148052617e-01,2.279028904242271528e+04,4.182457154036893499e-02
2.055825885037082523e-01,3.278570810290206282e+04,-5.584323582563904820e-02
2.066028777298443142e-01,3.612239406314606458e+04,2.985101955387858830e-02
2.200496328778906441e-01,1.670647016327048914e+04,-4.510993750211381333e-03
2.142983627339889452e-01,7.490537800009024795e+04,-3.023176425017121485e-02
2.128696719166081330e-01,2.834207112112776304e+04,-5.764847671539402238e-03
1.982012136368422328e-01,3.234805097629633383e+04,-6.077307000940903453e-02
2.169782208208924645e-01,1.615611174024982756e+04,-4.845446732654110772e-02
1.966119597810834785e-01,2.002736202010765555e+04,2.801991075351499549e-02
2.069570385304203008e-01,2.473974172236704180e+04,-3.234510357132419460e-03
2.025229962370200809e-01,1.854769753114634659e+04,-2.764897778208274745e-02
2.185281458243115149e-01,2.566337063295938060e+04,-3.582879762191633777e-03
2.054734567015317204e-01,3.620310300853232911e+04,1.024148608703423780e-01
1.978651154898905806e-01,2.221162689662419143e+04,3.625983134994337914e-02
2.108253175851287353e-01,4.826870709999525570e+04,-8.623750582274052057e-02
2.091631981942445317e-01,2.536125478832978479e+04,-3.839006301731175130e-02
1.993907735481618981e-01,3.119138846535055563e+04,-3.267815603432974725e-02
2.069009936497634428e-01,3.579780530001095758e+04,-7.353025432846722886e-02
2.017792566806825838e-01,2.666726342259511148e+04,-2.213903535658249752e-02
2.108645439049756098e-01,2.893298994135791872e+04,-8.022860274806223324e-02
2.099699306301043289e-01,3.885147842240429600e+04,-7.084522624547680281e-02
2.146999611066294222e-01,2.697740370173210249e+04,-4.635576045906121545e-02
1.960202955472601372e-01,3.974635950421525195e+04,-9.918571678426242599e-02
1.143397802620916698e-01,5.056523355023916520e+04,4.377151105063299685e-02
2.052978504533141679e-01,3.085628451846266398e+04,-1.366676405417804711e-02
2.175154903139409346e-01,3.307802022028272040e+04,4.729681412834396345e-04
2.070287181567330159e-01,2.306502365563013882e+04,1.636227703301067898e-02
2.040598656598656135e-01,1.616151224841838848e+04,-2.592119856470768285e-02
2.113222448642806672e-01,2.920376447317898419e+04,6.641640334614238098e-03
2.077907439658376876e-01,2.744006281363068047e+04,-1.676784171535522852e-02
1.916854370532640739e-01,3.391254995092652098e+04,-8.120637655093162002e-03
2.215522832815375598e-01,4.267231948549071240e+04,-5.767894620646472209e-02
2.127003081112126825e-01,6.939597321550171182e+04,-3.417928688195172315e-02
2.184562972993557561e-01,4.345004317208126304e+04,-1.476898100975610958e-02
2.088253272225407686e-01,2.236440333490665580e+04,-1.370132657620010651e-02
2.098867007500865023e-01,2.374628358051956820e+04,-9.174272258527522983e-03
2.207349544363289007e-01,4.092963567047400284e+04,-3.451669882479940082e-02
2.143757961074303497e-01,2.119938502335220983e+04,8.368328299138395876e-03
1.866261070565449764e-01,3.025204283011248481e+04,5.110503328618538621e-01
2.082261099107427238e-01,8.726572584530059248e+04,-5.899145063281887452e-02
2.188178622819066665e-01,4.135476171107331174e+04,-2.487700216297388661e-02
2.147989105199100135e-01,3.992056106265627750e+04,-2.781497399951984167e-02
2.066051451232105429e-01,4.120357692815863993e+04,1.330653380251670299e-02
2.027199951795679300e-01,3.562644033169903560e+04,5.147646898190076648e-02
2.079113173847681184e-01,3.350069983563685673e+04,-2.624124771220276778e-02
2.085320907073529573e-01,4.197429937670169602e+04,-1.295357301321269430e-02
2.112972648308596713e-01,2.826566963254409711e+04,7.677973199631519044e-03
2.133463356056773397e-01,4.027314868563051277e+04,2.225313943237251443e-02
2.005711146113378640e-01,4.199260641528229462e+04,-6.927104337206602125e-02
2.136228762464395525e-01,5.382243526040857250e+04,-8.548432323826819779e-02
2.205145477223036943e-01,2.169534587100210774e+04,-3.836380817885559624e-02
2.083332512987927099e-01,1.717353826152883994e+04,1.995462005466092786e-02
2.147495545939101802e-01,3.323771618823052268e+04,-7.934718185111575006e-02
2.086494135435340846e-01,2.027824804059597955e+04,8.401490395242648679e-03
1.901423971539233926e-01,7.032220833280900843e+04,1.673747801819150047e-02
1.866237984145038276e-01,3.023362185979758942e+04,-3.303887624255352068e-02
2.110940342751051746e-01,3.327107259706513287e+04,1.853905443989893251e-02
2.099938199609723832e-01,3.786751930000699940e+04,-2.699480679432597965e-02
2.209620329501323088e-01,1.887686733804232063e+04,-4.232905604256005649e-02
1.934531807059710617e-01,2.024837743681194843e+04,2.107852775293588780e-03
2.063142875846201707e-01,2.691870289079593931e+04,-5.865917090407436058e-02
2.097198527780971544e-01,3.764531136779009830e+04,2.469269840103051686e-02
1.989809613490967910e-01,3.482695262412713782e+04,-9.303688177248727043e-02
1.983489550362610432e-01,1.964608941215760569e+04,7.999677752784730561e-03
2.062416200839741753e-01,3.517965551410643093e+04,6.697834815914588402e-02
2.077181818502522870e-01,4.748369529068100383e+04,-5.201182750813771599e-02
2.161696347913234506e-01,3.978598589668542263e+04,1.374699790685467854e-02
2.267626298206186497e-01,5.199457112912434968e+04,7.128765114882282261e-02
2.045730628864105560e-01,3.985132691264339519e+04,1.490997483976788662e-02
2.052312213318009948e-01,2.694161493657976825e+04,3.439733734459908196e-03
2.269012947968724880e-01,5.187971872035106935e+04,6.980082420134332832e-02
2.122604336378313972e-01,3.678652196234162693e+04,2.585447160373779280e-02
1.974688150383483720e-01,2.907929098496283405e+04,1.706669588922479081e-02
1.956962338913398880e-01,1.403684625805413089e+04,2.737677869384863225e-02
2.112845159502171888e-01,2.915438699840458139e+04,-6.380197261741177295e-02
2.155669958759021398e-01,4.494010047684476012e+04,4.104861338012801703e-02
2.149990860733083375e-01,3.201318704494531630e+04,-3.197162825453462448e-02
2.191696432001262740e-01,4.120750473101137322e+04,2.324243055115827322e-02
2.137838327723211307e-01,4.874203692738206882e+04,-3.743682765824433989e-02
2.076037179532007892e-01,3.100640796686146132e+04,-6.014609652321367683e-02
2.145723739514729111e-01,1.621061173352258629e+04,2.511651449897102026e-02
2.013412261630607158e-01,1.768011652663473069e+04,-1.530611108110522568e-02
2.225029298016704127e-01,2.643579317306057055e+04,4.796939369771831274e-02
1.900692409069595634e-01,4.024163688851693587e+04,-4.580845457854347547e-02
1.900679493080003613e-01,2.993659910096076055e+04,-4.841420448728928766e-02
2.093609150336839531e-01,3.617497355101774883e+04,-3.132059713679448409e-02
2.040945601953907396e-01,3.202074019325447080e+04,3.198600654321068801e-04
2.142856517699548435e-01,3.868644140898586193e+04,-8.105815202943983389e-02
1.980435424157583058e-01,3.518979505334712303e+04,1.553999340463283439e-02
2.017434785306723988e-01,3.103651964500174654e+04,-1.160675090437101459e-02
2.124190755611212456e-01,2.378570985559804831e+04,-3.381602903453286013e-02
2.099015405187132643e-01,2.410992296617819375e+04,3.793642882239057351e-02
1.998012567616063440e-01,1.475689210497878776e+04,4.149869486491889609e-02
1.958376605021291683e-01,2.423417505888752930e+04,1.075987857099500004e-02
1.954164938036785926e-01,6.217486447536271589e+04,-1.063331604488304272e-01
1.988364778399913657e-01,3.081365986266008622e+04,-3.041509139974617800e-03
2.187225446774881399e-01,2.208167596571694594e+04,-3.051005451531194762e-02
2.036377107240654183e-01,3.405421337517381471e+04,1.643435601705109037e-02
2.052766396351801137e-01,4.175201311998601886e+04,-5.532598220548366335e-05
1.926483105643344851e-01,4.436376525209726969e+04,1.327430471607605189e-01
2.145263653658703307e-01,2.742154553813192251e+04,-3.961137901539479866e-02
2.152285356893116897e-01,4.376883667710800364e+04,-9.866013488727164507e-03
2.126602304951832889e-01,4.820135132142048678e+04,-4.681433031971148420e-03
2.070052773638739740e-01,2.198623700525439199e+04,5.553805622109524165e-02
2.236441237705854290e-01,1.587020955998919271e+04,8.293058236540261363e-02
1.205030793263668770e-01,5.080241388109089166e+04,4.398100424529509909e-03
2.174645484780800830e-01,1.962559801662195605e+04,2.639961451034408824e-02
2.175633427713040691e-01,2.404837431329889660e+04,-2.975611692508758205e-02
2.006918915841538753e-01,1.517908368125715788e+04,-1.290642012413584401e-02
2.016252364145957043e-01,2.098042961590163759e+04,1.093015699939139333e-03
2.116385415266796022e-01,2.291872631686014211e+04,-5.344463035572722537e-03
2.176915350204610133e-01,4.466851776378965587e+04,4.154857174920659202e-02
2.103517771049972784e-01,2.985505489896990184e+04,-3.372015245353559426e-02
1.915406375011070583e-01,3.225666392209214973e+04,5.348080708962981572e-02
1.989208863977790509e-01,4.339437814883414103e+04,-6.497689943997589368e-02
1.974274068789226289e-01,2.742701586554522146e+04,-3.608025771621892197e-02
2.072334897579579949e-01,3.505301615840564773e+04,-2.007468892892764686e-02
2.074496747745018244e-01,1.842254123137774877e+04,-2.413365304542228543e-02
1.984453365251049872e-01,3.314809614005108597e+04,-3.254368199901055275e-02
1.991296923822909459e-01,4.391653003668073507e+04,2.376476619396463222e-02
2.212281857659709472e-01,2.703976664425024865e+04,-7.792098162484089457e-03
1.981787425685476445e-01,3.477232272614409885e+04,2.427142578347278937e-02
2.109506535691205165e-01,3.086891377460021249e+04,-4.212525620530224724e-02
2.054075911832595469e-01,2.536641571123824542e+04,7.423014379750568492e-02
1.841560039251882996e-01,4.543564727907525958e+04,-1.089597433891302258e-01
2.134519284191983834e-01,2.543614150759269978e+04,-6.175603304468963578e-02
2.109518253160556633e-01,3.776692202393020852e+04,2.042001403799698425e-02
2.108276150913553915e-01,2.451535972525060060e+04,-3.037885670943352243e-03
2.124805989614382551e-01,1.813011725171871149e+04,-2.584160362567272662e-02
2.054464838361126366e-01,2.389120153513370315e+04,-3.595171246277355237e-02
1.958926610436672600e-01,4.261217892534887505e+04,1.409573031837752996e-02
2.063566117938300526e-01,2.401313750143544894e+04,-8.165197364791721910e-03
2.136695775269313036e-01,3.781711111822526436e+04,2.345140184172274725e-02
1.984291106758073187e-01,2.660275129322623980e+04,-8.515506431331690274e-02
2.064467696149342724e-01,2.381111148451119152e+04,-2.266357212167752905e-02
2.088803658459069124e-01,2.364684039624097204e+04,-3.839832676007209206e-02
2.110311700047364514e-01,1.705118287879891432e+04,4.572705892089569402e-02
1.998051496719189246e-01,3.374992220368402195e+04,-4.505865223033816286e-02
2.101833520513107234e-01,2.164790159042704545e+04,4.025229397539685505e-02
1.958141055996285851e-01,2.425627312960087147e+04,6.355466335761413184e-03
2.095070934631356740e-01,4.038364582816593611e+04,-3.007185118304859725e-02
1.910798210268431496e-01,2.961185161409573629e+04,-5.281904229394521200e-03
2.058997173423604277e-01,1.752477208303266525e+04,-1.937289742415894758e-02
2.116463787760803350e-01,4.027268204446135496e+04,-1.868400457340503584e-02
1.977619348037517877e-01,1.783453158058354529e+04,3.865992815027141649e-02
2.124214121222511853e-01,3.146204646403827064e+04,2.747989439875967929e-02
2.085464577561821908e-01,1.662376072184412260e+04,2.093750164026847438e-02
2.071763004948063980e-01,2.616703070193594249e+04,-3.515322370006842417e-02
2.193412915046528411e-01,2.140523717352451058e+04,-2.464525286916878846e-02
1.874771282217292390e-01,3.654698247668915428e+04,1.810932435313078737e-01
2.151234920209647850e-01,1.694482055146839048e+04,-5.552135174065493499e-03
2.047261071925354503e-01,2.701440606021207350e+04,-1.620985323235827821e-02
2.170731205376799644e-01,1.809764547270873663e+04,-2.455101699214943395e-02
1.999575607887672801e-01,3.604658551566385722e+04,7.109181388527916444e-03
2.031932954822014692e-01,4.050908234438022191e+04,-6.509813417458918706e-03
2.074774930127083750e-01,1.797875704542983294e+04,7.652130810144470649e-03
1.986638026488369291e-01,3.775234283484655316e+04,-3.628939221974909757e-02
2.112071726597981869e-01,1.585795469226708519e+04,-3.135103261582811163e-02
2.062486303510810970e-01,2.428181032414358924e+04,-1.544100501050251623e-02
2.250447404033998899e-01,3.226663706545129025e+04,-2.416006056508459079e-02
1.874032785561138004e-01,2.716430963967282514e+04,4.555156709426983613e-02
2.109641107265646243e-01,1.968898961734901241e+04,-4.423902756749544603e-04
2.107267161810029710e-01,2.463317793858970981e+04,-1.086792358653509809e-02
2.091459165268407250e-01,2.470551676461678289e+04,-2.671631860791687588e-02
1.909834965155740860e-01,3.215598388623556821e+04,-3.384262699409924108e-02
2.079966659103883175e-01,4.115378202371019142e+04,-1.070607947972661983e-02
2.100066546592140038e-01,2.396357618476468633e+04,-1.240285508518687227e-02
2.052476108250486098e-01,4.063295216986787273e+04,3.980651242719835531e-02
2.173915391110354256e-01,2.172885910287786828e+04,-4.613494579261230577e-02
2.081374374688206574e-01,1.881380406086994117e+04,5.126753576465347545e-02
2.111834142953401550e-01,7.727552493101172149e+04,-4.899896236919051851e-02
2.150171371203755954e-01,1.633577029915495223e+04,2.741562810291724508e-02
2.083328665135625590e-01,3.713660931804562279e+04,-1.387842733469765201e-02
2.119353434908836376e-01,2.052111283295612884e+04,-3.359204318210875367e-02
2.078118140548819437e-01,3.679713316585637222e+04,-2.459243371937328004e-02
2.024304503948609057e-01,3.728393690590493497e+04,4.943590620573177358e-03
2.024164315253996205e-01,1.554884832796966839e+04,3.135732705097497158e-02
2.205016125879680211e-01,4.971691491497631068e+04,1.830000860836767870e-02
2.063549285144715972e-01,4.684166533310525119e+04,-7.178401881208319735e-02
1.919781073802917792e-01,1.748570330390579329e+04,3.601155092056009671e-02
1.967119564068109117e-01,2.831761655824514673e+04,-5.386198200334264136e-02
2.052854349933424805e-01,2.386439495843193436e+04,-3.064238727689054531e-02
1.950206594224017098e-01,3.850841747086335090e+04,-1.039268908011757933e-02
2.087110478430137805e-01,2.850577271676439705e+04,-1.331395400207785289e-03
1.916494191434032490e-01,3.295589140494924504e+04,-4.382744046843560504e-02
1.966878742385654300e-01,3.245134587621053652e+04,-8.771181618763988774e-02
1.933452227271190427e-01,7.811385882962793403e+04,-2.178320128198778932e-02
1.968264075920393152e-01,2.192327942450023693e+04,4.242179712412241788e-02
2.054703539087700814e-01,3.230330808665637596e+04,4.430837842600486576e-02
2.143640356869336017e-01,3.323954754848001176e+04,-1.502849741346191405e-02
2.161403347244574280e-01,3.731479895471770578e+04,2.520338645923351009e-02
2.128984369804179377e-01,7.856760567448663642e+04,-7.560238781627538762e-02
2.096950128167485161e-01,2.721724695051447634e+04,-1.792535639674280867e-02
2.108822366744078358e-01,2.607085674400339849e+04,4.542928302136430008e-02
2.256139843641090381e-01,1.961293285305820973e+04,1.079460309674458267e-02
2.151472747936826468e-01,4.614851409361226251e+04,2.242004187832147555e-01
1.890988306860307278e-01,2.865819598730270081e+04,-1.306645385536953780e-02
2.029013446525183284e-01,2.113596497261434706e+04,-2.546253756063269688e-02
1.943113426464144755e-01,7.327087429601827171e+04,2.933826321457048969e-02
1.954482252549315513e-01,3.507910313256109657e+04,1.256639800897230708e-01
2.203914875994795741e-01,4.219310393239547557e+04,7.984259134029001500e-04
2.093511938186255195e-01,3.905310369969606836e+04,1.052275728353839479e-02
2.267626298206186497e-01,5.199457112912434968e+04,7.128765114882282261e-02
1.910973344483866687e-01,2.942302968922122818e+04,1.660218747860863486e-01
2.039554468839521462e-01,2.450387745105679642e+04,-4.414555872329049141e-02
2.106144801661833377e-01,4.661865620130408206e+04,-3.334470525432114973e-02
2.152966702449664593e-01,1.550742862717442040e+04,2.166162235339405898e-02
2.108760817327612613e-01,2.040104774457079839e+04,1.717950233652060926e-02
2.052359246985709929e-01,5.279546484329615487e+04,-2.114319448296842624e-02
2.014590244202976443e-01,1.720994229944201652e+04,-3.118905700574921974e-02
2.073805179853691061e-01,3.321347054951420432e+04,-6.956429254586805064e-04
2.099547228371979879e-01,2.419783198923994496e+04,5.775946569010991655e-02
2.103091764532439012e-01,2.893446633051805111e+04,6.253554430082251814e-02
1.394117979865955315e-01,5.070932829415533342e+04,-5.851002174607799339e-02
2.068688877783010360e-01,3.850695061146459921e+04,-2.619299352136097991e-02
1.943017466948251948e-01,5.168094576903796406e+04,1.255473817670072767e-01
2.034394049714969288e-01,4.359432765463278338e+04,-1.362083518869500534e-02
2.162587260974365433e-01,3.568453481672868656e+04,-2.959210120819972048e-02
1.958897150390816744e-01,1.791968932497672358e+04,-4.080639855966813889e-02
2.176565344126881185e-01,3.015507494851001684e+04,7.782940923465707372e-02
2.039419401123011011e-01,3.850928551366800093e+04,-1.185852789444001402e-02
1.988670364129233592e-01,3.124292903171431681e+04,-8.169270699525334190e-02
1.872195181089064964e-01,2.201256454005156775e+04,-3.301032962171915330e-02
2.150265133805268625e-01,2.862737240194704646e+04,-1.388633411557761016e-02
2.102868352536473862e-01,3.137990060963097494e+04,1.511749362609055292e-01
2.188756308298935027e-01,1.775060219487491486e+04,1.849480924254481504e-02
2.035241619400851854e-01,5.103481798278764472e+04,-7.353782582723039640e-02
2.120180964404460300e-01,1.613214621720638388e+04,5.933812388581623243e-02
2.043093164848068521e-01,3.568598968776914990e+04,-3.089682031726474157e-03
2.251179041497068656e-01,2.579909816588153626e+04,-9.570465571429974394e-02
2.152519764534756297e-01,5.160833120772613620e+04,1.611419478066399846e-01
1.973675059333716841e-01,3.983296683271744405e+04,1.036121236101122250e-02
2.187954084055827864e-01,5.155728217292921909e+04,1.847527221576085107e-02
2.031445282503262229e-01,2.568952727048107408e+04,9.515167653098418818e-03
1.903435704354649316e-01,5.447952789756964194e+04,5.544152360815357561e-02
2.154728356620053686e-01,2.459352158934753243e+04,-5.811646048825606058e-03
2.110412874683907924e-01,4.644972662985540956e+04,-1.462138077654704174e-02
2.119765153650095824e-01,1.894858697993503301e+04,1.714645706489493744e-03
2.193239699922075736e-01,3.870114157912820519e+04,-2.717662677691079151e-02
2.147759255693027503e-01,2.445418399558540114e+04,-4.126949874253612455e-02
2.061745177070305468e-01,2.508055492302532730e+04,-2.846267180912988130e-03
2.133183697313997262e-01,3.169006740856677789e+04,-5.400017746677164554e-03
2.185345308053176505e-01,3.851198800785870117e+04,1.019811312839807166e-02
1.942079293498785164e-01,3.393716678219777532e+04,-8.130164139938236834e-02
2.033721342237312379e-01,2.402830787032872468e+04,-5.668962306393555105e-03
2.061519597906674717e-01,2.039946483703159902e+04,-1.945678744249836056e-02
2.065488558257016216e-01,2.918792937127497862e+04,-3.139861624130293322e-02
2.165782914996067510e-01,3.728039041632981389e+04,2.188867733313122968e-02
2.117242187449425717e-01,4.412304833042001701e+04,-3.610681972903302672e-02
1.851225234529547681e-01,5.161645438990731782e+04,9.330030019674406816e-02
2.062137785235534648e-01,3.337573052897930756e+04,-1.163686941731512450e-02
2.054140879119063512e-01,3.503167556879924086e+04,-1.456094556540526996e-02
2.078501512693033959e-01,2.946101660427905153e+04,1.736581482900546522e-02
1.948927890769804327e-01,1.769049405130066589e+04,5.644777506481886507e-04
2.086884614856731046e-01,3.788521040998809622e+04,3.110770167161289873e-02
1.149591386799788395e-01,5.050121991742411046e+04,-6.115224938833240149e-03
2.032079182107468240e-01,4.847775231608515605e+04,-6.494382243809837529e-02
2.049185612742837059e-01,2.503628856298122992e+04,3.105363037287459885e-03
1.947698038409299004e-01,4.497753472525518737e+04,3.564181271555420111e-02
2.113033836808840271e-01,2.748361727018239253e+04,-3.562935063486205589e-02
1.884444629479876676e-01,2.798482671365438000e+04,1.029118223416034244e-03
2.115634035535920998e-01,3.633183906835909875e+04,5.903969108718027867e-03
1.856538674854118220e-01,2.598739017635913842e+04,-3.991582175304478862e-03
1.861468849393602409e-01,2.816056633114648139e+04,1.014719621615212675e-01
2.004585661776168426e-01,2.183628523257475899e+04,3.022678815285489637e-02
2.223946610239927735e-01,2.025693284256724291e+04,7.595759537864882338e-02
2.024490288867737409e-01,3.675406189091717533e+04,-6.013669703314079157e-02
2.084256747193486969e-01,1.995464201663783388e+04,-1.701437927418629481e-02
1.917857962898252555e-01,3.132282639680787543e+04,-3.712331553317779319e-03
2.083333489325304155e-01,2.995089996870072355e+04,-1.054717911337097955e-03
2.060382795541346179e-01,4.369311348107773665e+04,-4.410022623166759415e-02
1.982283886432633091e-01,5.655192316936173302e+04,4.890979220898402507e-02
2.150921968230619929e-01,3.787422738741365902e+04,3.548774270210275361e-02
2.093408130458546401e-01,2.887298638698858122e+04,-8.168930612334369956e-02
1.970601770600207969e-01,3.008299644178526432e+04,-1.236096210526112411e-02
2.068109045720367134e-01,2.842500475135634770e+04,2.327908798807887258e-02
2.083750549006931629e-01,4.421936754989451583e+04,-2.726865413505467559e-02
2.074953416385176552e-01,2.442104493616677064e+04,1.193680864781332613e-03
2.119263820896533368e-01,2.909973375024509733e+04,1.443697268643823368e-02
1.979687225420269092e-01,1.860595124575340742e+04,3.938471270034678978e-02
2.115889838634851250e-01,2.091255977297944628e+04,1.941242577008324508e-03
1.921450946481008948e-01,3.947680759618044249e+04,-1.328692078653086368e-02
2.051074528050148282e-01,3.872781860045769281e+04,-4.688195129471523642e-02
2.105719655771403909e-01,1.910269118460335085e+04,-1.792576049370936744e-02
2.145853358049250870e-01,5.142588988144084578e+04,1.380020363582761256e-01
2.105523519797870835e-01,3.266615990875514399e+04,-2.404869166846475281e-02
2.150101093228241333e-01,2.864516410837802323e+04,-3.901680150890806525e-02
1.954977671541193729e-01,4.498943793574560550e+04,-3.283458552897204619e-02
2.204519214871079602e-01,1.544975078390679300e+04,4.091988959790641284e-02
2.065641025881610193e-01,4.194241472122055711e+04,-2.006393667905466416e-02
2.085528030773061980e-01,2.356832649267999659e+04,3.521484400236260526e-02
2.135795910023415012e-01,4.450297395889177278e+04,-4.106955468591687829e-03
2.124553378197851505e-01,4.678024563571956242e+04,-1.383616785632918456e-02
2.156811932577052948e-01,2.269576313458039658e+04,-7.932815014434308962e-03
1.871732060774567719e-01,2.323481661298462132e+04,-1.341830139930003801e-02
1.929545517484292372e-01,2.482343661193061416e+04,1.841652460303218608e-01
2.056336000991167978e-01,3.503144961593403423e+04,9.544116900583583894e-04
2.203804628101836416e-01,2.283186561987636742e+04,-5.659518108834939859e-02
2.081555904095224174e-01,2.318970813780838580e+04,-3.960264934121550395e-02
2.178456725418364270e-01,4.961224444485745335e+04,1.304902474731900811e-02
2.141870458668865829e-01,1.498057686759429816e+04,-3.084889950576624740e-02
2.062939558580295651e-01,3.359623927373893093e+04,-2.127852734015518027e-02
2.046283336205156345e-01,3.601725938554796448e+04,-8.496315027169669409e-02
2.074482601260570491e-01,2.768649778848795540e+04,3.685618453234769387e-02
2.183176259809826991e-01,2.370825589031769414e+04,-4.718561374269477499e-02
2.102486039100301685e-01,2.060306903006206630e+04,3.377874952433386480e-02
2.043868998876361698e-01,2.732383081648399093e+04,-4.162787677482671089e-02
2.159894304918580921e-01,2.378735924492704362e+04,-7.767693141724016370e-02
1.874595580389750715e-01,2.857318254219997470e+04,2.282130894476607774e-01
2.029932289283931379e-01,7.655339905498232110e+04,-7.406316863156950370e-02
2.091580064119749061e-01,2.101681603372579048e+04,7.100530870933036143e-02
2.119505263776611526e-01,3.840648170300039783e+04,-1.566089488861128684e-02
2.075562288220508256e-01,1.844850922040826481e+04,-3.267106622737153687e-02
2.156541222512109168e-01,2.067112381377297061e+04,2.101827017988304805e-02
2.089209594226417999e-01,4.669115513695252594e+04,-1.585077313722776937e-02
2.154623192842393953e-01,5.495146344301615318e+04,-3.368023843797504028e-03
2.243995626619701422e-01,1.828667301366658648e+04,2.665863039899433323e-02
2.048758630892187904e-01,2.986091340607039456e+04,-3.016117378089150369e-02
2.207770636407816456e-01,1.633102955828836093e+04,2.095214719052000685e-02
2.076870104089234836e-01,6.275292008466419065e+04,-1.422411158721831326e-01
1.952896417852237332e-01,9.257362953263393138e+04,-7.509035480585178612e-02
2.027248137624507451e-01,2.344832456882624319e+04,1.957760959486830321e-01
2.058194509874965994e-01,3.974931328223255696e+04,4.110850785490571119e-02
1.985296773279451032e-01,3.908398567902321520e+04,-8.132767599902825106e-02
2.049801879841428032e-01,2.078926000878871127e+04,-1.183167007271032634e-02
2.089258630459873423e-01,3.091347914385786498e+04,-1.606252414040178905e-02
2.109895971981071150e-01,3.473658514413963712e+04,-5.694970912460427248e-02
2.098960130544405556e-01,1.957681682656103294e+04,4.107936572224731020e-02
1.921634472244644343e-01,1.757149489788373103e+04,-1.336394075320185629e-02
2.286642095278736408e-01,3.521569642152301094e+04,-1.455843569137388500e-02
1.958578613412046698e-01,2.093932522790881558e+04,8.640312216257365133e-03
2.061447303791143215e-01,3.694194647369848099e+04,-8.182866428261502401e-02
1.842723857484216410e-01,2.762478144368555513e+04,-6.428244061129362308e-02
2.096650895570739137e-01,2.636870787911736261e+04,3.258219116619569256e-02
2.100731705906790647e-01,2.427977182739427371e+04,1.880853610896157657e-02
2.023933206855512978e-01,3.810622154961352499e+04,-5.755693224516186812e-02
2.101662137696049260e-01,3.612264595925757021e+04,7.682131537000747024e-02
1.901688064260271260e-01,2.268065151401107869e+04,-8.050822811463834508e-03
2.138567103364326094e-01,3.113740655085321850e+04,-2.222395498287919012e-03
2.073685411590990568e-01,1.835378170913921349e+04,8.448642699845555770e-02
2.019125332326426603e-01,2.457483688402832922e+04,4.341761530673522891e-03
2.005907252416589959e-01,2.595207753929447063e+04,1.224255052471524136e-01
2.204080238387186030e-01,4.294108365188819880e+04,-5.186888214566807639e-03
2.010704705428065509e-01,3.221904595667552712e+04,2.206571108948314139e-02
2.019660987788768070e-01,3.598683614965337620e+04,-2.868228410303293174e-02
2.075156122748892662e-01,4.390507295141172654e+04,-4.203110307576466559e-02
1.909334092130427485e-01,3.152252537981205387e+04,-5.054502061879034835e-02
1.885348558566891375e-01,1.725948493673872144e+04,-3.185709840565612017e-02
2.036217659846356887e-01,2.347406985694553441e+04,-1.101191581973351569e-01
2.087837234546229825e-01,1.785014594986182783e+04,1.836154966704083014e-02
2.072696631611200269e-01,2.071549421527577215e+04,-2.484200127645747047e-03
2.106561642491609765e-01,3.347639681119898160e+04,4.307230209021152383e-03
2.174303119052251876e-01,2.220317509946758946e+04,5.682580142674706347e-02
2.132510447016776889e-01,3.107712017883392400e+04,-4.256121297792401365e-02
2.214712741883051728e-01,6.216657017503005045e+04,-4.940241504690729563e-02
2.013415237984075290e-01,2.960117418959000497e+04,-5.768192671406595362e-02
1.998807085844978015e-01,2.103475340686646086e+04,2.947702133714189335e-02
2.089415506855701044e-01,5.965795618181633472e+04,-2.649081970506273614e-02
2.095459309880133569e-01,4.630318146940746374e+04,1.723339362914123180e-02
2.009866233827539428e-01,2.678614358406045358e+04,-3.942351603030029572e-02
2.064236285058868858e-01,8.256545227941201301e+04,5.793227286067807735e-02
2.096356317922439538e-01,1.937453995848107297e+04,1.724447346005369974e-02
1.988530367140695643e-01,2.725512525329093842e+04,2.041718786978938618e-02
2.143822289759835520e-01,1.628822773772033361e+04,7.526899733878296417e-02
1.925201947699028138e-01,4.023556121722799435e+04,-5.848896338035176889e-02
2.127676817637994267e-01,2.752149376403637871e+04,-6.832817009509888073e-02
2.067061238982881299e-01,2.065547875004621528e+04,-1.451587849331571582e-02
2.047472386778889653e-01,6.444024445134130656e+04,-4.549144450014514646e-02
2.067855381750124955e-01,3.019729178391139794e+04,-1.006536589267533477e-01
2.006288528088097101e-01,3.055584770447897245e+04,-1.156747167913888333e-02
2.113619157608053745e-01,4.089175798441216466e+04,-4.718889579581720534e-02
2.159548853374488597e-01,3.707719930646191642e+04,2.427787095622305907e-02
2.199349892114845495e-01,2.940601787587684885e+04,7.119143629637805781e-02
2.152639743747415957e-01,2.706318391840778349e+04,3.217040197952707615e-03
2.072686088797596471e-01,1.756618008279032438e+04,-2.389329040577016072e-03
2.222247777116216072e-01,3.644725460261445551e+04,1.080865636702944693e-01
1.971643868646190401e-01,1.978367223514480793e+04,-8.218433237859914739e-03
1.994102427386860166e-01,2.407448140099511511e+04,-2.720678608607980664e-02
2.019702163467543277e-01,5.932269874291433371e+04,1.179419720487412393e-02
2.052253312043385569e-01,2.400417219574654519e+04,6.763552623697256100e-03
1.975606718256150973e-01,2.539910285554652364e+04,-4.391720184646522029e-02
2.030833710777099899e-01,1.635950116325236195e+04,9.028642905601512447e-02
1.972707010084169821e-01,2.853313408029797574e+04,-3.579705576433186293e-02
1.149591386799788395e-01,5.050121991742411046e+04,-6.115224938833240149e-03
2.105923787833861027e-01,3.202114880969769729e+04,-6.386679729735451026e-03
2.111861433800545085e-01,1.932167348591791597e+04,5.597825081772044020e-02
2.112084751440651276e-01,2.170199119967102160e+04,-3.250975759873845489e-02
2.002001741743016927e-01,2.824773115998996946e+04,2.336721823407965359e-02
1.983548703998743723e-01,2.477612895300655146e+04,1.536208233734574942e-02
2.065804403231330522e-01,2.977766637507871928e+04,-4.088005981903145708e-02
2.095114656165901201e-01,3.276555930774877925e+04,5.770699367800754924e-03
2.189942273023237351e-01,2.106758255573565839e+04,-4.346129927007461036e-02
2.024360620021290746e-01,4.123884029970742995e+04,-4.460263214901965395e-02
2.050511850451822715e-01,2.587305462571723183e+04,-4.598425879178584530e-02
2.102604934518947644e-01,3.117909368249577892e+04,-4.094985474170058891e-03
2.248686685579714406e-01,4.419031327435981075e+04,-4.700026509504588029e-02
1.974167733961782745e-01,3.072431926126910184e+04,-2.282563895126875700e-02
2.108106833774159583e-01,3.862133373257426138e+04,-1.613459803678442273e-02
2.019513206288957030e-01,3.286831612103963562e+04,6.304813210319878090e-03
2.014313350826634208e-01,3.817431012646523595e+04,2.191993282440026988e-02
2.015155759528987067e-01,2.584339580321965332e+04,3.935841801266098255e-02
2.203262557785400089e-01,3.367878188078968378e+04,-2.565600079580683535e-02
2.123240965785503365e-01,1.761296383000808783e+04,1.140580131377032409e-02
1.871765174116520880e-01,5.433748051802349801e+04,2.574728665713325038e-01
2.183001815651277044e-01,5.665155146349132701e+04,-3.806589072820575764e-02
7.661917233884367462e-02,4.919527782081239275e+04,5.134315070377865747e-02
2.094626513342845997e-01,3.477705007429097168e+04,-5.771768797962791714e-02
2.197533395240344745e-01,3.667544488067325437e+04,-4.381833860886466189e-03
2.111268977049793882e-01,3.271181230203694940e+04,1.063110237823661208e-02
2.008447711868844021e-01,3.066275014229698354e+04,2.266508151145579103e-02
2.158118761440989131e-01,4.202495177939464338e+04,4.267314828836810126e-02
2.178765519618081625e-01,3.968913646722325211e+04,-3.503788141212568069e-02
1.936292409259264546e-01,1.897074393763978151e+04,-2.563855781681151705e-02
2.027981437210716331e-01,3.237855102088185231e+04,1.489112424087979218e-02
2.169155102159134318e-01,1.841047810130543439e+04,2.920258638386128910e-02
1.745356306646171918e-01,3.034057427410859236e+04,2.331885055842380094e-01
2.058754039313480944e-01,3.204561366024773088e+04,-3.194009868500856386e-02
2.102981462934766788e-01,2.300952171742240171e+04,2.206761740205491484e-02
2.111437575068582650e-01,2.797774242840366787e+04,-4.250927570736074551e-03
1.942042715497861727e-01,3.095672147540223159e+04,-3.273775880222196816e-02
2.035154473505087491e-01,5.148284737466329534e+04,6.002325915570929510e-02
2.108237756699829213e-01,2.031708029854288907e+04,-1.805549583439627209e-02
2.074203404988327060e-01,2.827137502828777360e+04,-2.804288154973293840e-02
2.212892505108217112e-01,2.012336615757062827e+04,-5.614065669882712349e-03
2.090439328682038023e-01,3.603579634452606115e+04,-5.703016111028595160e-03
2.050348142395063411e-01,2.325396397940719908e+04,-1.895914296274043773e-02
2.182146022827126108e-01,4.531982472687549307e+04,-4.918447241804500825e-02
2.069110469814484377e-01,4.293719395525542495e+04,-2.346793977518990201e-02
1.909749009860796098e-01,2.951815791901771445e+04,3.130819637247057863e-02
2.015120693752068814e-01,4.149158529873911175e+04,1.924029668083938882e-02
2.051707128143621384e-01,6.453241081912831578e+04,-5.161414283179439899e-02
2.064615690795569281e-01,2.532304289736584542e+04,-4.675687626255117801e-02
2.048052987989349427e-01,1.911638410371661666e+04,-1.171873583212366780e-02
2.169398505438071556e-01,1.862211640886223904e+04,-3.986915367316485465e-02
2.121920868360263612e-01,3.481559657063418126e+04,-4.840752481638347510e-02
2.059698796339410054e-01,3.117938047294354692e+04,3.430732935957127999e-02
2.065161179534097946e-01,3.291320848225551163e+04,-5.774594068850662926e-02
2.127399198762305044e-01,3.370099258237348113e+04,-1.910276216253206996e-02
2.066443313887742217e-01,2.530381531855116918e+04,-5.728113753943694236e-02
2.166231362890050638e-01,4.992529883872746723e+04,-2.226880667205953165e-02
2.018146069876558257e-01,1.949814951777950046e+04,-4.146893535452753771e-02
2.009441729189848647e-01,2.378086882680962299e+04,5.090092207663284192e-03
2.185993075338199809e-01,3.112112304141235654e+04,-2.960696470112953588e-02
2.059474621251399795e-01,2.224028921408970928e+04,-3.386999621497567559e-02
2.012464718653352580e-01,3.190254626771299809e+04,-3.196110442826403247e-02
2.139929802644987278e-01,3.808378277984125452e+04,1.859915322907110084e-03
2.029155718738630265e-01,2.053951492472218160e+04,-2.773279620205890833e-02
1.987551208867867070e-01,4.029150440653112310e+04,1.687773566676716366e-02
1.970823545983360348e-01,2.702006447136981660e+04,8.099819549282500850e-03
2.153292783588142967e-01,1.775080602792694845e+04,3.920713532582080496e-02
2.138247691118615457e-01,2.054027984799142723e+04,-5.283759589515923949e-02
1.997682978991150438e-01,2.907249330717530393e+04,-3.811333214108889034e-02
2.170120042272606631e-01,5.361159230573655805e+04,2.860979035215930819e-02
2.120480556802533945e-01,2.856583967456908431e+04,-2.757698032749355578e-03
1.924333145931914624e-01,2.511830966219466427e+04,-2.433302444593499550e-02
2.103193686828349618e-01,2.829698007988461904e+04,-3.712755684923958049e-02
1.917190244643167396e-01,2.665077485135580355e+04,-3.096798737791353617e-02
2.179253628731381287e-01,3.990440422305767424e+04,-5.463240525624465244e-02
2.005984230390229772e-01,3.548290323242606246e+04,-5.230432002392870067e-02
2.122978902877523111e-01,3.054733634533762961e+04,4.261469402056136148e-03
2.126739083092801241e-01,1.953369652856953689e+04,-1.807847364129684317e-02
2.096138011118875710e-01,2.768684366989250702e+04,-1.063822140530700511e-01
2.025093730960823291e-01,2.543762162386392083e+04,1.539599505687496220e-02
2.176541331297759674e-01,3.503352779790518252e+04,-3.259762020331685717e-02
2.158700096784261779e-01,2.146660014773962030e+04,1.236413997972489291e-02
2.052808785361514288e-01,2.551812550351127720e+04,1.333118304630486091e-02
2.090032791252781075e-01,3.053276023185539452e+04,1.767270917654812853e-02
1.969595443870654772e-01,2.024813915995493153e+04,-4.031186492631921164e-02
2.107173213373578213e-01,2.478450944988362608e+04,-8.848134019828032132e-03
1.967266653200961946e-01,2.983153822427451814e+04,-5.794144742178920782e-02
2.212665311037732840e-01,4.111651090885419399e+04,-3.136773413827882717e-02
2.084487947334962843e-01,2.097619121961076235e+04,1.271048512824771159e-02
2.091638374157102909e-01,3.713751276694268745e+04,-7.999429333292944200e-03
2.092526775393912797e-01,3.507548826621679473e+04,-5.446969388698677528e-02
2.134867191159463551e-01,2.655493101139754435e+04,-6.272848749432231863e-02
2.014503927796316429e-01,4.095107016294596542e+04,-3.943884414136049343e-02
2.028870532013629102e-01,2.376620232988256612e+04,-3.471620966462030111e-02
2.230691552490071672e-01,1.722879183601077966e+04,2.018827632063545027e-02
1.976183152017082778e-01,2.021249817277388865e+04,-8.245216821735452950e-02
2.142249656261382418e-01,2.158046729639735713e+04,3.914496512207432666e-02
2.008685694924743081e-01,3.508439867242111359e+04,-1.603231690006531179e-02
2.285074761687777289e-01,5.214010981610488670e+04,8.032613543144870305e-02
2.084838746028915557e-01,2.349583846714999163e+04,3.701819636553488335e-02
2.093277317164392304e-01,5.859823670679153292e+04,-6.250482296456087716e-02
2.056235140398350869e-01,2.368388816482207403e+04,-1.290096008055892189e-02
2.054014598777039458e-01,3.549195542337508959e+04,3.269001045038361086e-02
2.045855633581081801e-01,3.795658429242144484e+04,-7.769391748476124626e-02
1.982847251225899887e-01,2.355682566260280510e+04,-3.219722921762866591e-02
2.081444977020545650e-01,3.825826507169207616e+04,7.159913420713311105e-02
2.173159868050719146e-01,2.963549974877161731e+04,-6.691477894394128045e-02
2.061320032908500466e-01,4.370319280457318382e+04,1.671298895542140759e-03
2.016155851086919581e-01,5.296219806430218159e+04,-4.099046308370965508e-02
2.016637614286368174e-01,2.092685940833164568e+04,-8.576560930921552084e-03
2.201099937770089610e-01,1.925487597526151876e+04,-2.029169324524953202e-02
2.147461042519803187e-01,3.714603146643762011e+04,-5.397090251954087675e-02
2.109080568182274684e-01,5.902938720139354700e+04,-3.787790357119700385e-02
2.176570796196027058e-01,2.948322429076921253e+04,1.536060063471625901e-02
2.088841400308207030e-01,2.752870771793581662e+04,-4.792585412810631412e-02
2.138157719706644255e-01,4.050996148113804520e+04,1.692921074360778828e-03
1.943228533950832615e-01,2.519884329395166424e+04,4.587092800164264267e-02
2.176511442819768494e-01,3.907119000867212890e+04,-3.660447562194426435e-02
2.191688185986803150e-01,1.519475154446132910e+04,-2.721760256895724636e-02
2.103249594617972451e-01,5.709856587516883155e+04,1.620713354414303822e-02
2.162507984839542596e-01,5.192868775470418041e+04,8.276150028740245079e-02
2.147492669625581108e-01,3.461339836537226802e+04,-6.344712184511386299e-02
2.150344854786564730e-01,4.349533126528936555e+04,1.545490313096438244e-02
1.996678439457992282e-01,3.648835596063420235e+04,-7.077149510349839238e-03
2.004426237860076343e-01,3.286328117290019145e+04,-2.754403801691565970e-02
2.146793034645553822e-01,3.290591917552224913e+04,-4.738966395872876158e-02
2.023917921839050171e-01,5.297889492170861922e+04,-5.320195304655740698e-02
2.115751784813399428e-01,2.926916234820580939e+04,-6.643815236189452855e-02
2.222444675081957921e-01,3.851676017890255025e+04,-4.620797327538312543e-02
2.064983632386016288e-01,4.500544866472064314e+04,-7.441614540162728997e-02
2.110412568411811629e-01,3.434589918606543506e+04,-5.654381290633628265e-02
2.001801770776658884e-01,4.948683644293017278e+04,-1.091217118051290846e-01
2.098065716193177888e-01,2.994798247195150179e+04,-3.351814753585578149e-02
2.069361752691592782e-01,2.490481905191721307e+04,1.626751745373949259e-02
1.904154017225969941e-01,1.653123307893702076e+04,1.012697463456250883e-02
2.091719424921240911e-01,6.487673382283592946e+04,-1.169583893355823773e-01
2.133992040041850780e-01,3.089594784023375178e+04,1.414151885583956637e-02
2.001422313825833577e-01,4.926206241449955269e+04,6.800888965059953550e-02
2.109745485151672262e-01,5.134410334073730337e+04,-3.055967830016360215e-02
2.036722621438833980e-01,3.132841633557765817e+04,-3.582603305633168256e-02
2.132477196602239056e-01,2.032132334270708088e+04,2.638908378454877818e-03
2.108520686882280892e-01,2.691722424261989363e+04,1.972452608571918439e-02
1.920894032737444357e-01,4.115996839194207860e+04,-8.813965368324463978e-02
2.072092520112646108e-01,5.241300125041912543e+04,-4.930181831444462037e-02
2.102676013639028785e-01,3.929989111141140165e+04,-2.871359912351147819e-02
1.976231352131024299e-01,1.594624172515691316e+04,6.824240707418216534e-02
2.006825559564671124e-01,2.022993646952337440e+04,-1.742414949881446531e-02
1.974950480078929149e-01,8.806108862508914899e+04,2.235816200313357066e-02
2.075899157872109491e-01,3.880380969960306538e+04,-3.259076761326381438e-02
2.036047868659427162e-01,1.772848201360568055e+04,-3.141722779766719081e-03
1.989665099358913780e-01,2.065369182237513087e+04,8.962636560421451820e-03
2.091079797226910453e-01,2.154149074396649303e+04,3.058816063167186725e-02
2.072607368477652756e-01,1.643816998206582866e+04,-3.889389698736614182e-03
2.246994076951992214e-01,4.441814669861005677e+04,-1.458552163474512858e-02
2.054811773520610896e-01,2.995938434948895156e+04,-1.290412813886309892e-02
2.021032956236633593e-01,3.166481917342855741e+04,4.056142975169363396e-02
2.030228063130269101e-01,2.907689900515391855e+04,-6.716105797577413827e-02
2.060135493582803123e-01,3.238548744120551783e+04,-3.177954970864568102e-02
1.756589637350766953e-01,3.136981641244471393e+04,-8.848631234811561719e-02
2.058346511061697470e-01,5.785403523940187006e+04,2.491343663308550477e-02
2.192824413629517466e-01,1.781260270385972763e+04,-1.374951037302773148e-02
2.214925182950625848e-01,1.805293127972574439e+04,-1.365745727449786673e-02
2.034386517574219566e-01,2.156890441852668300e+04,1.275623555044390692e-02
2.151747245242591755e-01,4.852502529701225285e+04,-2.711605277331335592e-02
1.959871049027779311e-01,1.510801298552502703e+04,8.263778943178537451e-02
2.192952846699040559e-01,3.686279265710851178e+04,-5.342310978953479506e-02
2.171862520026482946e-01,3.837242477400177449e+04,-4.331871086452140918e-02
2.032471518443746683e-01,3.113290282679114171e+04,5.868225060861111814e-02
2.201303169478281696e-01,1.962887955690668241e+04,5.297475316414566870e-02
2.085556701848006733e-01,2.692011343781420874e+04,1.951272929153807095e-02
2.240326318979782849e-01,4.475096040728623484e+04,-9.163675208298463146e-03
2.015766251762079464e-01,6.772258388142181502e+04,4.673091799784354766e-02
2.056065373879040481e-01,8.892640306621031777e+04,1.442870321351910970e-02
2.079862296965948876e-01,2.603024326040390588e+04,9.908311667759341686e-04
2.211517530565091649e-01,5.156578859319514595e+04,1.535222561089913396e-01
2.095933205318662174e-01,2.354163436124615328e+04,3.864974630123736710e-02
2.061583927294171892e-01,4.536627126603601209e+04,-1.763831256154137911e-02
2.005645259874632158e-01,2.173049720912078556e+04,1.204809857559897557e-01
2.072315227057126563e-01,7.053038103203066566e+04,3.305500737868068833e-02
2.156501725533350733e-01,5.186958637514062866e+04,-1.044778383574430369e-01
2.048793870917285653e-01,2.833451032717799535e+04,1.332556876739527177e-02
1.694825012324719382e-01,1.777288879689837631e+04,-1.157321218706974519e-01
2.121482124669277491e-01,1.824387406171071416e+04,3.329919851031678396e-02
2.120951839517275783e-01,1.979834399347626822e+04,5.270834001160602106e-02
1.868330543132913080e-01,2.383442663336119585e+04,-5.346212868677641811e-02
2.113982661084992110e-01,3.982558187394187553e+04,-1.408812662007840472e-02
1.926671636395217990e-01,2.592386132160868874e+04,-3.539586361257011232e-02
1.755816378928902188e-01,5.109179175571202359e+04,8.261981957524915099e-02
1.985184887813272181e-01,4.475918091177436872e+04,-4.695167525262408659e-02
1.906180541352064384e-01,3.066020115752979109e+04,-3.748629105602776374e-03
2.032206269334678461e-01,3.587842482754193770e+04,1.479115596306327662e-01
2.104623335615007085e-01,2.360664601729239439e+04,-3.079559420625357230e-02
2.105668616570028073e-01,3.389753698694297782e+04,8.890523819787314597e-02
2.167716001577288110e-01,4.682354225454592961e+04,-1.462736056246470399e-02
2.016313997958634474e-01,3.210161316766893651e+04,-1.797472556382666634e-02
1.971265195376731560e-01,1.683902316571617121e+04,5.941746593393873455e-03
1.759646656580298452e-01,7.475389260078483494e+04,-2.526906265530791743e-02
2.073924806298995671e-01,6.163887914277725213e+04,-5.716425166707419375e-02
2.094732829445678790e-01,4.079379076259922294e+04,-4.842042900373082909e-02
1.956877945557121135e-01,3.840128821942905779e+04,5.349106895660814959e-02
2.141406437670180241e-01,4.331805502535189589e+04,1.093685152182627060e-02
2.053702699225362360e-01,2.027017044152114977e+04,4.295980959906776052e-03
2.154858665714183552e-01,1.771153680704392536e+04,3.172709711974974062e-02
2.123500970682954403e-01,5.800811308452933736e+04,-2.181487922744245952e-02
1.847174026245480827e-01,1.764331940357906933e+04,-3.558017961088487391e-02
2.065240470490856683e-01,3.859187814453301689e+04,-2.960670747219731544e-02
1.934757869408389452e-01,3.999203843504890392e+04,-9.319939350364406239e-02
2.074416744309076632e-01,3.559092613991656981e+04,-3.755591551001753042e-02
2.138446877974552185e-01,2.135374906102708701e+04,7.127812716711518122e-03
2.038984340525530625e-01,1.893246591060317587e+04,-3.571690109674981184e-02
2.141663539740631950e-01,3.360949580252195301e+04,-6.549111861720478822e-02
2.050788630451739758e-01,2.307705977710170191e+04,5.073324584014211186e-02
2.180669690537719863e-01,6.142426463801607315e+04,8.840624724616381880e-02
2.136684337806654121e-01,4.853961622071944294e+04,-2.330806794982563223e-03
1.934241613305398566e-01,3.029192232646845514e+04,1.520828422132326600e-02
2.035951286443276331e-01,2.834054430532417973e+04,-7.940104720100708835e-02
2.156127033022812722e-01,3.168372209805633611e+04,-2.134815685822562606e-02
2.211253244783633054e-01,4.253067332600663940e+04,7.254711357666914807e-03
2.090738421735860164e-01,1.515007156039678921e+04,1.203592561451051306e-02
2.078124171456004199e-01,2.541163783491318463e+04,3.565556234392822533e-03
2.084654533291019352e-01,1.740603074436421593e+04,-2.038236198933943838e-02
2.285074761687777289e-01,5.214010981610488670e+04,8.032613543144870305e-02
2.108954278818342964e-01,2.404447646989148052e+04,-1.138825883903574372e-02
2.007412797873437127e-01,2.247715633716699085e+04,-1.912413957052244012e-02
2.131177729756096872e-01,6.280345951623961446e+04,-4.016190325443525638e-02
2.034588983735388101e-01,2.059375375309800438e+04,2.183755931036368558e-02
2.190440794746065789e-01,4.315881062699755421e+04,-2.439540803096999430e-02
2.100304152346504361e-01,3.828513325094450556e+04,-2.083859512323489593e-03
2.171742735548086167e-01,1.974815675918664783e+04,5.834380315064515571e-02
1.917092488627640812e-01,1.794142582711647628e+04,-5.452051849371769392e-03
1.901777771131361872e-01,3.880884882822405052e+04,6.820373704459310737e-02
2.079798915762648692e-01,2.891796124448764022e+04,-3.673729871207435244e-02
2.146701836453444034e-01,1.492488326210397099e+04,3.272500323254707438e-02
2.207346706387390833e-01,2.016294522832881557e+04,-2.581261786909900061e-02
1.994916897512404586e-01,3.387664430461349548e+04,-5.052004673759796782e-02
