9.184032125719969741e-01,2.857712352301621794e-01,-5.405809507308283191e-03
8.741007231053077309e-01,2.252211654883606168e-02,2.900841510058912998e-04
8.454281779668463281e-01,1.507454484724282950e-01,-3.912028229417149894e-04
9.722632793564763842e-01,6.371811173761465774e-02,-3.311722662642034576e-03
9.397636238790570973e-01,1.340367837564905573e-02,5.845021992471936823e-03
9.373810527264900827e-01,2.632699701497989708e-01,2.106002042262890284e-03
9.737834777758972438e-01,9.335561070178009790e-02,1.350009595910979521e-03
9.164738061230679467e-01,3.357627508275828204e-02,1.551238414291424006e-03
8.809473563240458605e-01,1.719540486726864048e-01,-8.091202370057816451e-03
9.193458996292996899e-01,1.927572095019382259e-02,6.851655752866940563e-03
9.613778587579679957e-01,1.951520026922948237e-01,-3.748477949632761375e-03
8.902499269396144665e-01,6.802783424532049539e-02,-8.610755811324095899e-03
9.855091825894825019e-01,2.249155868309228867e-01,-8.693023346887616964e-03
9.399731632646307622e-01,1.216950123330018674e-01,-8.100424930295550829e-03
9.277232719324864929e-01,1.301956273791038121e-01,-1.013337976161825943e-02
9.756658618900201363e-01,1.281100567542324820e-01,-3.186984902315767587e-04
8.560147712764867300e-01,6.972300723109353671e-02,-4.465711219853139846e-03
8.853136405024267797e-01,1.200307054191857292e-01,-3.485077617781308368e-03
9.209736283020028003e-01,1.544550468843667868e-01,-4.861219917412347435e-03
8.696177138739392687e-01,1.168995872508981071e-01,-6.304863418696876609e-03
9.511315704933128723e-01,4.672843827865232891e-01,-6.510617982836676421e-03
8.640066114771515204e-01,3.346627235771260089e-01,2.146398627840102186e-02
9.337134687771867503e-01,2.029024126055915256e-01,-7.473876035372799265e-03
8.850277987162493698e-01,1.869248614165664180e-01,9.380893132813962476e-03
9.020997813981083135e-01,2.201469237517914013e-01,-1.023902170179754462e-02
9.117132298141055191e-01,1.346511684770189954e-01,7.500486765719335813e-03
9.190020752089945733e-01,3.371572779353040339e-01,3.900833312520786411e-03
9.097473870869245971e-01,1.962658663909490342e-01,-5.046535285390417458e-03
8.970607686744046516e-01,2.034645411197960607e-01,9.273927932422459941e-03
9.676067066226762270e-01,2.019130106594916596e-01,-1.376495090045221775e-02
9.793229575332705883e-01,1.249269931027992830e-01,5.655771141435013416e-03
9.598744620243925274e-01,1.572674159623913825e-01,-4.964846049464559374e-03
9.319875759608841070e-01,1.862782606340724900e-01,3.355423852052979994e-03
9.525218834397514156e-01,3.409706455912188683e-01,2.391113242852324627e-02
8.984134739046233387e-01,1.168574122378599756e-01,4.021183940610552343e-03
9.911048432986427903e-01,2.072779163745609443e-01,-5.840698001188714128e-03
8.539239885712056610e-01,1.409013050120661026e-01,3.791681121090385853e-03
9.430631080150312373e-01,6.833625182212769988e-02,-7.091243070859572228e-03
9.529411449369559195e-01,2.258453175776402588e-01,6.443427839271605173e-03
8.893328441693996167e-01,7.307285007735478399e-02,-1.308002019242214542e-03
9.590013866681009747e-01,3.034635231879600492e-01,-1.182793634922877507e-02
9.424796524950121990e-01,1.725223265395061101e-01,-5.031176431499466417e-03
8.972227997006063660e-01,1.735668672601520246e-01,-4.263011317643755627e-03
8.993208217167124596e-01,1.873010300989854104e-01,-3.491018506046193043e-03
9.112832762528576547e-01,2.071005152681683059e-01,-8.218884960749010815e-03
8.178080901505145883e-01,3.410441424864557036e-01,1.384441396656573009e-02
8.733004301655882262e-01,7.573980839891705785e-02,-1.113123772391167582e-02
8.789383504065853003e-01,6.407255517171737136e-01,-4.941728164847607185e-03
9.473541160552889639e-01,1.713214046011908853e-01,2.292400490270379843e-05
8.352042675150946893e-01,1.207908031493129530e-01,-1.423099666088476628e-02
8.541398032976036392e-01,7.111659447204074502e-02,-4.370804269666454800e-03
9.111837945167381436e-01,3.185957039746543096e-01,4.128950116312687935e-04
9.116153266586122239e-01,6.115684704311911968e-02,8.045018248131759198e-03
8.967479689674771048e-01,3.081217088741718471e-02,4.241442418931914982e-03
8.831504330875803443e-01,2.495123179658786938e-01,-6.252303559281975620e-03
9.171155707632975274e-01,2.279130988198168895e-01,2.231722828749012344e-03
9.491757068608460690e-01,2.353999481320169507e-01,-4.207813644664944175e-03
8.934553109650601455e-01,1.082521314488723574e-01,4.840493758297238769e-03
9.526442151598456531e-01,2.495316495441605720e-01,-2.253329000993016529e-03
9.205904704051848242e-01,1.812104876342319204e-01,-1.147482809928631470e-02
8.620123986524581561e-01,5.275536668755788083e-01,-4.733961976940044558e-03
7.966530576843832145e-01,1.657909349721459202e-01,-5.257252154577930769e-03
8.796747806903938427e-01,7.595848909635456725e-02,-2.541296831578450377e-03
9.224650475247810899e-01,7.069410044094866230e-02,-1.409122569908130562e-02
9.201379976592999332e-01,1.055037694573410928e-02,1.853320342368861007e-03
9.519989711376077857e-01,2.849476576703494080e-01,5.010964135596103486e-03
9.118645188771904442e-01,9.550251999251621604e-02,1.537023916999773199e-03
9.570770768740674006e-01,3.990472574459480448e-01,7.684697861467984503e-03
8.690739456587900369e-01,2.634024030664115779e-02,2.254890856982612324e-03
8.786781823184136586e-01,1.013632091801704438e-01,-1.820510080486489879e-03
9.467325999524175417e-01,1.244824765918765841e-01,1.160044462990953568e-02
9.154463067063328685e-01,1.682271416550808196e-01,-2.661302771266159384e-03
9.415932653771917904e-01,3.391608776130570352e-02,-8.407259965678280655e-03
9.230298162745688151e-01,1.855564394342364976e-01,-8.504774107844691178e-03
9.522504409380962986e-01,2.580817362877575460e-01,1.197885842680330992e-03
9.255598662285405842e-01,8.580023656754361128e-02,8.334203710807397414e-03
9.508225523681882452e-01,4.347886474868730561e-02,3.265063714752811097e-03
9.375189012938864863e-01,2.709862559146644645e-01,-7.321609167834794429e-03
8.798971528004924103e-01,1.608430400318047737e-02,3.732710039494727128e-03
9.391054794569922981e-01,1.408964974220541511e-01,-3.729050476948152226e-03
9.021397520147155236e-01,2.119273437603428900e-01,-4.191709178442255823e-03
9.348263929711906339e-01,1.673681908512734129e-01,-6.691063069780685268e-03
9.047034898502034350e-01,3.776504254533049609e-01,-4.559751888839773393e-03
9.528164665027347713e-01,2.165998202382255489e-01,-1.564916009434404176e-03
9.107912642513849022e-01,1.472166977152863376e-01,-8.340664271069379854e-04
9.106466007677409547e-01,2.046403868080216570e-01,8.747047597519597151e-06
8.799878297198457933e-01,1.975251436561084595e-01,-1.261850970242833075e-02
9.184977187472842530e-01,1.695163005734038608e-01,-2.989585935000482753e-03
7.962557343439159441e-01,2.683360559963401393e-01,1.547135657152150234e-03
9.276079536497225941e-01,1.461685152134835353e-01,9.993601409575857131e-03
9.640717175815930462e-01,1.227971984032547592e-01,5.881844698377276803e-03
9.504960130569148902e-01,5.219845697241713017e-02,-4.325053970882057619e-03
9.332437928510169955e-01,2.350505274247351728e-01,6.690947240860174727e-03
9.269702928436797107e-01,2.853999874021588279e-01,-3.144823156201008441e-03
8.111724517744313134e-01,7.178839483987298209e-02,3.609354664594125600e-02
8.679338375461419508e-01,4.162139967389970330e-02,-2.194714814815500181e-03
8.339415254479541906e-01,3.526843245435689611e-01,2.251354083576562887e-02
9.148786927627871046e-01,2.032821995060908327e-01,-8.899349142842613580e-04
9.598882403083752735e-01,3.110142914329597774e-01,-6.220732545210237718e-03
9.382032691178486816e-01,1.776261013333104710e-01,-1.927730599728220973e-03
9.266210327740713737e-01,6.021029125231826262e-02,7.848069243168082076e-03
8.801224258992157434e-01,3.432669962054785695e-01,-8.425427605084002958e-03
6.134278373304677956e-01,3.328366506268579106e-01,-8.682040275895815118e-03
9.730644831777501835e-01,4.444945346875705389e-02,7.027102259440157206e-04
9.315604382752893375e-01,1.438442777635825232e-01,2.641039161831039428e-03
8.671132578485246656e-01,1.743580916960601745e-01,1.206054768990395126e-02
9.045005350363007901e-01,5.118213340794877664e-02,-5.721988471315671287e-03
9.440833404830748510e-01,1.306049788643225684e-01,-7.779835312294723637e-03
8.554017144616589130e-01,2.086039194607597347e-01,7.634919758919479771e-03
8.759094503777596907e-01,2.493588698596405084e-01,-9.986078462210015716e-04
9.078432494928352359e-01,5.694253537546813126e-02,9.032378110040338581e-03
9.077130508770462347e-01,9.258424889414329506e-02,6.037042059019833568e-03
9.785485187803807383e-01,4.368971656201387499e-01,-1.876895485310413336e-03
9.757885583493367543e-01,1.112901765158296197e-01,4.184487264931292805e-03
8.649565099092290099e-01,1.708496569513159591e-01,2.530516708384313723e-02
9.354849949823899058e-01,5.872776147697600369e-01,-1.024639196064210112e-02
8.485518418148089159e-01,1.963565659478049286e-01,-8.191448213389067312e-03
9.460722723970168557e-01,1.767726735639425506e-01,2.729177375561477048e-03
8.677733137058812884e-01,8.164153284744202210e-02,-3.590682878859503824e-03
9.605531829019010592e-01,4.645847849333585300e-01,2.800229159369942156e-03
9.029405450090329799e-01,1.570982525959810361e-01,-8.455302504975496791e-03
9.807668065588058814e-01,2.326786815249768520e-02,5.881506019095227022e-03
9.742748311510853743e-01,1.640415596269019227e-01,-1.329483120819173469e-03
9.002497815426990790e-01,2.136587716487720612e-01,-3.921567442415528626e-03
8.444151558579749972e-01,1.097316026823168533e-01,-9.894872040627201992e-03
9.375211412529453892e-01,7.357977374218524491e-02,7.053273226017425790e-05
9.045708501139594349e-01,1.084444472320958142e-01,-3.237919980234940653e-04
8.344051969898066412e-01,3.666099715275175086e-01,3.602362477442215549e-03
9.559054385741715398e-01,8.785827589817207794e-02,-3.245035824219248688e-03
8.705030721349249490e-01,8.230097685847420630e-02,2.873558865156678604e-02
9.498136519203740358e-01,2.608401666974401872e-02,1.305472196457192757e-03
8.851441703550463336e-01,9.240632237925733294e-02,-1.096357549528435837e-03
8.837745950748151502e-01,2.526812289885449134e-02,-7.496852204283969978e-03
9.184868928587410775e-01,1.247855049398475802e-01,-1.284288016077431843e-02
9.468707863571551586e-01,1.912897943495147635e-01,2.276087141951578519e-03
8.963559677840319262e-01,2.288032106967334278e-01,-4.866831477636134051e-03
9.661561384880551495e-01,9.322850947375667385e-02,8.045551017094233759e-03
9.062676737405858107e-01,1.648523618666692947e-01,2.019847508843423955e-03
9.023341252349463826e-01,1.941452019648798044e-01,-6.466058197473034674e-03
9.223051046947300380e-01,6.150032248956686931e-02,1.282152941839122262e-03
9.549697300214113893e-01,1.324346750170431880e-02,2.008524363535841434e-02
9.016389279565144577e-01,3.118949294632988867e-02,-4.435749180929718372e-04
8.608507852829377915e-01,1.735237167213731224e-01,-6.086492219151175276e-03
9.115167486814617082e-01,2.487554316781429575e-01,-3.250422869542447801e-03
8.136878757687314723e-01,1.546078200230728561e-01,1.757154957555235458e-02
8.987087219430540674e-01,3.658932659465478077e-01,-2.278934915651939508e-03
8.776534554621301387e-01,1.185411923735294470e-01,-2.291841858787155295e-04
8.814904327663612982e-01,5.341671585967310287e-01,-1.196720079934786990e-02
9.542134371147823479e-01,3.145995555854649295e-01,5.773886069357428430e-04
8.940389751395735329e-01,5.916518398788474242e-02,-6.366563431373616078e-03
8.951566564514663593e-01,2.255471246960723819e-01,-9.772516143941985256e-03
9.037091839938112825e-01,3.346483734190022208e-01,-1.067278270951520919e-02
9.315553754500031092e-01,1.250165849219520564e-01,3.473774881798855074e-03
9.060733967988422455e-01,4.404627775325417050e-01,-1.108997230253920552e-03
9.535852780041526033e-01,1.423687529265493246e-01,-5.974932247045879052e-03
9.342932889784907324e-01,1.517349183393837397e-02,4.743500373652127788e-03
9.044023195382653313e-01,1.334905981369101102e-01,1.511090032133378946e-03
6.134278373304677956e-01,3.328366506268579106e-01,-8.682040275895815118e-03
9.010106450918510257e-01,2.137184218117764989e-01,1.213168655002892088e-02
9.963967416782176789e-01,3.967071133942154382e-01,-9.580550247479877046e-04
9.495412222732347862e-01,3.393199536892297918e-01,2.047750453191349990e-02
9.689639210905857114e-01,4.844426762443413553e-02,6.054074017642151195e-03
9.496950959442781448e-01,3.217836382111032290e-01,-8.117846034048012416e-04
8.640066114771515204e-01,3.346627235771260089e-01,2.146398627840102186e-02
9.251976123160376986e-01,3.018917435540514199e-02,-1.113705011768510722e-02
9.540598217134004244e-01,9.915267599169851065e-03,1.944676602896428658e-02
9.153727127214879022e-01,1.008993761298788150e-01,-1.467886111301656971e-03
9.353553846252369297e-01,1.811249341570670135e-01,-6.966832341424970820e-03
9.026624991060382408e-01,2.639573014856591571e-01,-5.240231988767461713e-03
9.027937142866977460e-01,1.193787916967709306e-01,1.741559430900374572e-03
8.786669186275649635e-01,9.160069757876371233e-02,6.478297809320639200e-03
9.307950986925809245e-01,5.091639538841429696e-02,9.517287484698336297e-04
9.526881077498909889e-01,1.908528035369088660e-01,-6.184707455477320148e-03
9.256495052834025072e-01,1.229313548271029205e-02,1.339213576169274306e-02
9.902431527781062615e-01,1.974232585760705705e-01,-5.826619995587180301e-03
8.349152643605391999e-01,1.779651182687958522e-01,1.689462870219245877e-02
8.843616219942372902e-01,3.780939716850328924e-02,4.606169343311442010e-04
9.529557646581824359e-01,6.480467994764033124e-02,-3.192923389271636048e-03
9.736592276752722430e-01,2.130374994257728249e-01,-2.475636437572821535e-03
9.438222824414782552e-01,1.047638424647495403e-01,-6.096971401595777107e-04
9.289018041527362657e-01,1.813942131988807438e-01,5.833776084636484172e-03
9.305382329057008128e-01,4.048802127680595220e-01,-4.118253720406042651e-04
9.442924754447981073e-01,5.247007414802459802e-02,3.414921841869734964e-03
8.912713245743155710e-01,2.986313050822863094e-02,-8.264568386559187352e-04
9.723105717746868271e-01,2.450263531730481337e-01,-9.612989942059217696e-03
9.494211060404141866e-01,5.898179616874818509e-02,2.809805250304373003e-03
9.421388445391811750e-01,1.823949610129501353e-01,-9.421108559652273395e-03
8.989809174791986157e-01,5.834402796418506482e-02,-5.402489547616858012e-03
9.420862777192858806e-01,1.530703214140146651e-01,-1.013142672978487036e-04
8.971259419845426519e-01,3.244965964458540464e-01,-3.035046443314225184e-03
9.462716337104156716e-01,3.646903781853321203e-01,-5.725100266027675910e-03
9.221585016332073392e-01,3.369212924589857217e-01,1.152174830819641810e-02
9.084970656853461612e-01,4.197534656950178134e-01,-8.296351043683154736e-03
9.370123700644042986e-01,2.693750701160416150e-01,-2.900180651314424735e-03
8.526609431749238022e-01,4.702713748105923769e-02,-7.662027331044783673e-03
9.722396244170699031e-01,5.428582125487758925e-02,-1.895340580455519286e-03
9.276775019880653117e-01,4.397698498167823544e-01,3.332415059524255346e-02
8.987503568597255965e-01,2.401624037621652996e-01,-1.358592302857352524e-02
5.013266779425257225e-01,3.315329107793977270e-01,6.495058612424407796e-03
9.197864454105099119e-01,9.011780235975540287e-02,-8.008341202101552925e-03
9.607084975178507014e-01,2.010632236802066264e-01,3.549328956434401328e-03
9.130781487381126604e-01,9.869002359976986050e-02,3.747091928460295762e-03
9.556457373514276599e-01,5.547735524041182142e-02,-1.018219425108190385e-02
9.683945992115358115e-01,9.511152979455907153e-02,-8.012082274844387064e-04
9.661839445934324866e-01,2.532510565578201533e-01,-2.486617887646140612e-03
9.499382865206630333e-01,5.114777584143526817e-02,2.774898653992947939e-03
9.140068270614919443e-01,3.078867698684705639e-02,-3.383378869852828041e-03
9.074166400454748427e-01,7.411775506984721873e-02,-6.425940096448853889e-04
9.454143817914190118e-01,3.734480801655130217e-02,-9.948222163221331904e-04
1.003425325525921563e+00,5.440583512856821125e-02,-2.103544000595806984e-03
9.255781953987927135e-01,1.276680576369468995e-02,1.009679351705714684e-02
9.314744385135251825e-01,3.407033349125829780e-01,5.735197767536073798e-04
9.013983817961416234e-01,5.544907843191267949e-01,2.119652052577296331e-03
8.857931102851216432e-01,1.744652997046091114e-01,-6.664714927966886027e-03
8.945666789765346349e-01,1.777838032075844954e-01,-5.284003674999801503e-04
8.901849859187457303e-01,8.211548868641166399e-02,-9.180882659386650768e-03
9.128875141899925882e-01,7.329800198632603347e-01,-6.928079694691981205e-03
9.635419471073806141e-01,1.943661669308260898e-01,-2.194338495594923277e-03
8.966966157125743075e-01,1.480684667083396466e-01,-2.699010310501195886e-03
9.349180951367314085e-01,1.365033192246123683e-01,3.735407122570980759e-03
9.470405260240247758e-01,4.853666080883958789e-02,8.264437523980032452e-03
9.278377289618934265e-01,2.308842530149030625e-01,-7.745170981657042986e-03
8.854506507923155523e-01,5.760187542559129792e-01,2.086578051393180033e-03
9.328336172167296381e-01,7.230170783387551703e-02,-9.202957055483254600e-03
8.554749747615070232e-01,1.983331040270547851e-01,-1.267017663364326807e-02
9.290912064698161332e-01,4.404259738293038462e-03,1.109928577799497440e-02
9.693226578788894932e-01,3.581480126080694992e-01,-7.266005828614578721e-03
8.842085799033176929e-01,3.841603212645406523e-02,-5.574643599389257631e-03
9.203627290757866453e-01,1.900631277407559827e-01,-1.237140093683558595e-03
9.164753464523720528e-01,1.860918456034286739e-01,-8.682431305015468614e-03
9.621422386016450501e-01,4.288498224862819647e-02,7.311753446142106594e-03
9.197200075805523900e-01,1.896977853078226639e-01,-6.688734194095963259e-03
8.600149454772710866e-01,3.203639414433016586e-01,1.527283838863006254e-02
1.087864893616061535e+00,3.401871934392039498e-01,7.082776586198546998e-03
8.727208883878109225e-01,3.562350211240303266e-01,-4.080741323029719869e-03
8.967679861412943820e-01,9.588061736092194642e-02,-2.405214667628184644e-03
9.520022695027385851e-01,1.893420798474100830e-01,-1.286697956177777769e-02
9.128052125968794117e-01,2.081546230221842098e-01,-3.993666502465971491e-03
9.214187656305737883e-01,2.854978213733622150e-01,-2.791603554565758039e-03
9.798105780727585090e-01,9.560969893281062726e-02,1.602453524307364402e-02
8.946470143894829086e-01,1.840048121862196129e-01,-4.526925778722525051e-03
9.578161782465477447e-01,1.415248812129910605e-01,-1.667499859151697073e-04
9.748671647153949182e-01,2.154761040005395700e-01,-2.620959492426848392e-03
9.356908312538217976e-01,5.121097110425833904e-02,5.651424067559165237e-03
8.389384334984776315e-01,2.925238369719223019e-01,-7.538196793468822376e-03
9.024667844436343733e-01,4.821405275245389810e-02,-3.965263982283230570e-03
8.743238362909963035e-01,6.461333167437943725e-02,-5.156347257617162338e-03
9.257998135709152310e-01,3.014922174894558160e-01,-1.830463568874944602e-03
8.586016164970039499e-01,4.957368793753336167e-01,-1.766781155151796179e-03
8.620025655227180339e-01,1.489555419444404949e-01,-3.913602638510184362e-03
8.475317986438419826e-01,1.126505580089380842e-01,-8.931810742691718985e-03
9.230711933479538445e-01,1.462110006643316806e-01,-5.255376480419370055e-03
9.590831765647492846e-01,8.200074595437922831e-02,-5.909293602253624933e-03
9.738882973513472985e-01,2.146948132809441967e-01,-4.598795876814484873e-04
9.049940631879460629e-01,2.244354501557923875e-01,9.031411746306790278e-03
8.852768015187715278e-01,1.445082368197622980e-01,-3.528835822128349037e-03
8.983277542723997477e-01,9.974864363883045870e-02,-6.659557600396763533e-03
8.979545676823121880e-01,5.703280994123841041e-02,8.188082451738055989e-03
9.878990020271402051e-01,2.129310238686669687e-01,-5.168996882106681456e-03
9.172117879826735543e-01,1.393536910748671420e-01,-5.077142275325970122e-03
9.303883198691359491e-01,9.372271451091712668e-02,4.860275595571873775e-03
8.732004432893961665e-01,1.239329617809181994e-01,-1.167456448960869225e-02
8.447610639556735190e-01,1.637225813238946115e-01,4.178798889042113079e-02
8.851476109115252733e-01,1.052213985696162646e-01,3.273939344803737661e-03
9.895351744358168444e-01,1.269036885884652632e-01,-4.153436975489963046e-04
8.846818486179566232e-01,3.320342131617771697e-01,-2.873946709903218294e-03
9.359379279871367086e-01,7.948672227951927849e-02,8.141769347715099858e-05
8.195423559654885226e-01,4.884430352005849629e-01,2.983603437761023214e-05
8.700612729438489401e-01,1.875261747504283760e-01,-1.351469619760494595e-02
9.619015566657891370e-01,1.092921208775367581e-01,-3.645016300014090882e-03
9.633591356301720587e-01,1.015458089976112588e-01,-5.422984294727629939e-03
9.436268188551948377e-01,4.500999168651782095e-02,3.629720012864219580e-03
9.725030973518805633e-01,3.622907330309559082e-02,-8.620100631550747794e-04
9.694571689872788500e-01,3.347617800038840685e-01,4.895430084749005650e-03
9.485041916094401060e-01,1.914500452464014679e-01,-3.916301712521989831e-03
9.208147537405485528e-01,3.037350091519162021e-01,-4.245524582419550608e-03
9.443127053654325476e-01,1.354086151679606553e-01,-8.953362555509589149e-04
9.310435915998235279e-01,3.442376285893615773e-01,1.312002395847210873e-02
9.372374188940962858e-01,1.078438030326486219e-01,-7.379828363560624049e-03
9.394814779620559442e-01,2.082731197321632532e-01,4.955353243425025811e-05
9.647233933071147627e-01,1.254697554046526609e-01,1.482953911706936384e-02
9.308950517686970239e-01,1.139116833676045992e-01,-2.456148016047064730e-03
9.361021135145141114e-01,1.899198708483312292e-01,-5.928819092189827056e-03
8.964485745504372494e-01,3.564858788045437432e-01,-5.230740075283568657e-03
8.544653067364470500e-01,1.866733954567804665e-01,-1.885410920257950262e-03
8.638311199601712564e-01,2.858613368227427287e-01,1.841082393576793513e-02
8.894301157462545238e-01,1.798146452674615481e-01,-3.327693659280699101e-03
9.359076251512959965e-01,5.412923109649526721e-01,-6.804628484480629291e-03
9.244769927251365038e-01,1.336392274726056206e-01,-8.998747957814516585e-03
9.590951130913600853e-01,3.317885044874778755e-01,-7.797431890642740615e-03
5.749476550386364293e-01,3.317142061744863257e-01,3.171194108642673426e-03
9.557437830777533172e-01,3.777733351048778027e-02,1.124945277681854011e-02
9.038979509796665202e-01,3.278599247423685803e-01,-6.065442671104530337e-03
9.237934731751734629e-01,2.739159418206024016e-02,2.746612179605825710e-04
8.348041199719612449e-01,1.751226622886131179e-01,-3.624297549969422716e-03
9.044516547471552759e-01,4.643408872054737707e-02,5.944483344440344708e-03
8.374926253174960200e-01,1.298202864607050366e-01,-7.500896845454504969e-04
9.183195848941985151e-01,2.164809771451544490e-02,6.817931696844262146e-04
8.906286230351395661e-01,3.075101617762530937e-02,4.308002314016005918e-03
9.878334918343073534e-01,2.190109913982507817e-01,-5.570717111481278405e-03
9.345735919703498373e-01,1.713641612752988264e-01,-5.657956738454240908e-03
9.288249876784032688e-01,2.936913375157189365e-02,-3.269285901866945954e-03
9.255958865774811528e-01,7.090136827803368569e-02,3.481223792801059480e-03
1.002665376218519366e+00,5.862852640070747023e-01,-4.343865413584738211e-03
9.236290052911880766e-01,5.519398252959539786e-02,2.436234478476094478e-03
9.092493281050069154e-01,1.287261103876200796e-01,1.218943436518009349e-03
9.043489261583551597e-01,4.819671291115711076e-02,7.733550990450109575e-03
9.511072642547477862e-01,1.674365564657178673e-01,-3.462318379203181695e-03
9.142441148047720789e-01,2.114976163992608460e-01,-5.724957195429848655e-03
9.214548677475226102e-01,1.193277097807372011e-01,4.099011514599605610e-03
8.758637332353488292e-01,5.733103838399592478e-01,-1.056166656191474124e-02
9.082518865937869723e-01,2.009683271148412498e-01,-3.976122752977283292e-03
8.727306589016049498e-01,4.700828656994854859e-01,3.973917572352915484e-03
9.286256609446953414e-01,6.377489901122930516e-02,2.038470301933575923e-03
9.199120180146261871e-01,9.932675456223033494e-02,-5.960449564122775878e-03
9.301471990886405194e-01,1.970632072587859551e-01,3.453361402502082289e-03
9.348806918192879012e-01,2.206252384484023166e-01,1.275269512743969907e-02
9.677669082062776429e-01,3.535263027273733566e-02,1.055013045920959874e-02
9.271097985547832598e-01,1.395690878781991051e-01,-6.779776148175119255e-03
9.667651433911276238e-01,4.596432368882075181e-02,5.440060156176658446e-03
9.229378287526149860e-01,7.286077941017964354e-01,1.087350703212481423e-02
9.948329491514041889e-01,2.934898154094772726e-01,-8.801179450684933070e-03
9.294518121163738433e-01,1.814703351418718857e-01,-7.911733324079080198e-03
9.353148869877060401e-01,1.778911188642620100e-01,-6.136597045882617729e-03
8.907231795590406787e-01,9.873741350975973052e-02,3.116065456111646176e-03
9.182394746518607320e-01,1.743282115916968550e-02,-3.511035828578812357e-03
9.299491123613731203e-01,2.091665058159016544e-01,-1.377701077959682385e-03
9.211799452219900930e-01,4.721729406519347139e-01,1.093713190781946121e-02
8.520082805705200268e-01,1.268747765488359991e-01,-5.196441222895857581e-03
9.539383421532372509e-01,2.152398465675747496e-01,-5.528570834522066046e-03
9.654631449927845166e-01,1.534081495369492842e-01,-3.299237452126402292e-03
9.509118862743189959e-01,2.245661254811725516e-01,-1.164723280629095109e-02
9.005108931817989992e-01,5.830939181881085454e-02,-8.962669585915947201e-04
8.875479838341409078e-01,2.846552038776841709e-01,5.067591646619764439e-03
9.460196925257677858e-01,1.862852070258995685e-01,-1.006663848156449242e-02
1.011516858286080955e+00,3.612417305197049844e-01,-2.481093365182866772e-03
9.786795599635711440e-01,2.665188714400918424e-01,2.233006784717168902e-03
9.430824436201704630e-01,9.287584647325561327e-02,4.860992729902070819e-04
9.575228731589354725e-01,5.959440430547017220e-01,7.340408819850735567e-04
8.824262983995213583e-01,1.086020912712714614e-01,-9.665585572166228434e-03
2.700862125375670941e-01,3.192735484438231630e-01,-3.722846065283599848e-03
9.049412214793494114e-01,4.132970011557937640e-01,-1.689072654155673869e-04
9.347203643541696083e-01,1.287318742196427723e-01,5.401799166046807044e-03
9.244431634371143014e-01,9.215634729258767588e-02,4.634602615837750406e-03
9.298723660550766157e-01,5.949016711965002951e-02,-7.600903598782245141e-03
8.874023556266269486e-01,5.458163793541063319e-02,1.772031770151547003e-03
9.624143370697926247e-01,2.501920225553657118e-01,-2.091475047906167506e-03
9.575618125510764189e-01,4.408224543526964023e-01,2.122506070884884466e-03
9.776584130323772159e-01,2.805714644358827115e-01,1.130481883854126540e-02
9.430395923489421905e-01,4.042910242653319774e-01,-2.088156473647531652e-04
9.759270287906026686e-01,6.598092928667850798e-02,-1.066861956159732144e-02
9.800233082487374014e-01,1.151801730643890187e-01,-8.224011975454185996e-03
9.051973274209519360e-01,5.672788712211374040e-01,-1.586509591087385124e-02
9.330938554940234608e-01,1.175202568943553572e-01,-7.211661340286501520e-03
9.868031301439720293e-01,1.250131023888011728e-01,-1.007933443084795683e-02
9.553194509030563664e-01,2.323743149206608793e-01,-3.594724652186957747e-03
8.844945507567768539e-01,2.042928147529730898e-02,-1.580097663681973019e-03
9.242757103288843368e-01,2.999480710285453156e-01,6.433961887763781085e-03
9.372458336574844839e-01,6.915814916759557840e-02,3.377697106927569914e-03
9.435655930403415992e-01,6.715811974802549100e-02,-7.429012968551002016e-05
8.893544751088188205e-01,2.391820400182410322e-01,-1.050831977695348279e-02
9.239262172520497085e-01,3.892654135756433154e-01,2.011392853078483589e-03
8.229737619884553990e-01,1.624316613329281900e-01,-3.781353716251829866e-03
9.501976657975209628e-01,1.014765576900590882e-01,1.213852509879431718e-03
9.191592593572139869e-01,1.521097580338073019e-01,2.143079041940137985e-03
9.070558117388233255e-01,2.451454712166562522e-01,6.269885913365372265e-04
8.649926250498358726e-01,7.475808778334053217e-02,-1.309859764023918460e-02
9.579606751333719084e-01,2.711430690724282444e-01,3.097774589604009032e-03
8.510241664461599687e-01,1.076051326955836662e-01,-6.877289805464766037e-03
8.523495989666728390e-01,4.937149002429346012e-02,-5.831665311138121977e-03
9.641941720901362478e-01,2.037304350012622833e-01,-7.509017581835579491e-03
8.405753504305870649e-01,1.488662132431642082e-01,-1.063503976235800202e-02
9.403296279110228140e-01,1.191990746778360255e-01,-1.326172355833062089e-02
9.528766471198285570e-01,2.615818130849985046e-01,-5.841320373930362908e-03
9.073928244143809607e-01,2.342074784680159560e-01,-1.063001746341128706e-03
8.941859970936085755e-01,9.393165336326678161e-02,5.194019912480283413e-03
8.876699385357881278e-01,5.895490572023697612e-02,6.792335088381187824e-04
9.432131568454763526e-01,8.293187674333271642e-02,2.972922051887684491e-03
9.176692217026234388e-01,1.251279564153403301e-01,3.057221237253250623e-03
8.737677573890790805e-01,1.081027513910662319e-01,6.284313450919190580e-04
9.272057585249989797e-01,2.696881195774476075e-02,-1.236941562563272090e-03
9.623243528662700497e-01,1.693612892063610931e-01,-4.874655861295928982e-03
9.128312047587245903e-01,1.500907058154218043e-01,-2.942857251233131632e-03
8.758621449103898282e-01,3.075935357552853633e-01,-1.900114638183389437e-03
1.022946570909223141e+00,3.454385675986623716e-01,1.122766656078697661e-02
9.310435915998235279e-01,3.442376285893615773e-01,1.312002395847210873e-02
9.491982172613664392e-01,1.717703724064736925e-01,-6.110243557745573262e-04
9.108876470485082200e-01,3.620875192726966119e-02,-8.320683748664292612e-03
9.651116123120583312e-01,3.564975716982642373e-01,3.163403259615595042e-03
8.621874415781566325e-01,1.273459150935069562e-01,4.509467352973035859e-03
1.011789426350732102e+00,3.457820699563824429e-01,1.191923572322032415e-02
9.345822667569597675e-01,9.186358406097938634e-02,2.835527389522522757e-03
9.916812419590440575e-01,1.811539838808494951e-01,-6.331842139542034897e-03
9.150899267338353793e-01,2.009901129780194973e-01,1.587504287041956175e-03
8.981272229089339865e-01,3.515031443625810659e-01,1.732115038490932013e-03
9.258128683227471178e-01,1.785442799690221266e-02,3.340507062077481548e-03
9.467045484315542714e-01,2.299011435962707295e-01,3.577985201681239957e-03
9.265041552319609464e-01,3.475156109245605002e-02,2.781135629988003288e-03
9.459054958140064029e-01,9.127486234283484212e-02,-7.438660639637939553e-03
9.378514607895183097e-01,6.901863705207376964e-02,7.105296387458708007e-03
9.682248775485078340e-01,1.623242282335515124e-02,1.268449214070683367e-02
8.640066114771515204e-01,3.346627235771260089e-01,2.146398627840102186e-02
9.470502893635891484e-01,5.673782731029618220e-02,-1.175680342521627508e-03
9.221585016332073392e-01,3.369212924589857217e-01,1.152174830819641810e-02
9.279627887913238782e-01,2.514594564237527807e-01,-3.084172310759761282e-04
8.913247855114440066e-01,6.511242885087437093e-02,-8.405875528817968734e-03
9.036415014872014595e-01,1.489597035600330743e-01,1.276310670765584687e-03
9.315563248457636725e-01,2.501677292537923258e-01,-4.710114150230301777e-04
9.402694899925206906e-01,3.117108735096222327e-01,-1.363392513024641595e-04
9.111659591903470412e-01,1.102831175096879723e-01,-2.120622044165347553e-03
8.889226479516542101e-01,8.039549365276249526e-02,-1.441538965423105195e-02
9.209881002645975423e-01,7.184661557520186093e-02,4.824272390062535332e-03
9.228682505717544782e-01,3.093645188322799999e-01,-1.192261096998523812e-02
9.525218834397514156e-01,3.409706455912188683e-01,2.391113242852324627e-02
9.140983565727135440e-01,8.876086861854909360e-02,1.041673443838848911e-02
9.285528228224800840e-01,9.022887419371634909e-02,2.382072310137046955e-03
8.702006646662758804e-01,1.339672278861516741e-01,-5.815273789750129152e-03
9.138653798589128074e-01,1.653993097392933154e-01,-8.390136636275351278e-03
9.109792926451925066e-01,4.220836357413734197e-01,9.634795207654901772e-03
8.714175574161968640e-01,1.228054739349435931e-01,-1.094857614860569178e-02
9.782730509914839834e-01,1.687680683809897886e-01,-2.259830351389567615e-03
9.133851668031817139e-01,9.184146688037604644e-02,1.129480327382480914e-02
8.902990223687966553e-01,4.683596713707727233e-02,1.586646646994635534e-03
9.065748817738542575e-01,1.679321173311282278e-01,-1.808224323464606431e-03
9.587568154657221120e-01,7.075862930737325529e-02,4.036789070929754086e-03
9.865989470848318676e-01,4.085942866207773611e-02,1.028307223413069821e-02
9.017988735675458445e-01,4.953372520832602932e-01,3.486325771637384385e-03
9.216136693071264041e-01,2.058748561298193169e-01,1.162020926089094019e-04
9.466263187581333005e-01,4.898432976000291483e-02,-3.439942581294562485e-03
8.331104864776860408e-01,1.789587576780053979e-01,1.986550017007431695e-02
8.752782280126033543e-01,1.284947651432146176e-01,-5.643314430909783519e-03
9.107387487578839647e-01,1.139524814373018557e-01,-4.919618892753073458e-03
9.366874358912565812e-01,2.737360156285139623e-01,2.269417507198924489e-03
9.389235386942971218e-01,4.121689498101478027e-02,5.767748597152615175e-03
9.534012127679177828e-01,1.359230041989812621e-01,-8.606473190212647617e-03
9.029638195536832113e-01,6.691213804262564901e-02,-9.399590628419232652e-04
9.729610964373535120e-01,5.439864761619962047e-02,-9.423492275068001689e-05
9.001810917240704590e-01,5.528413865056938659e-02,-1.403070369328664191e-03
9.508111775198417881e-01,2.299127439200271961e-01,-1.139605249239829948e-02
9.084027336600588587e-01,1.312898578784858772e-01,-3.516552393801199161e-03
8.771316037642261643e-01,4.484802430794374017e-02,-4.462054922251372513e-03
8.770301516815826037e-01,2.336822472399801010e-01,-9.778052926851250881e-03
9.257714349986059243e-01,2.711735027817810395e-01,4.574417698043342639e-04
8.954846967844499739e-01,3.954485245661524817e-01,-1.258165926673759233e-02
9.275041153660893434e-01,3.363460845355762535e-02,-3.233410578966845750e-03
9.772913431328951184e-01,3.713852453141341381e-01,-1.789965735628305799e-03
9.232620170328689202e-01,3.342014433793144557e-03,-6.611684323783104111e-04
8.804478334642874549e-01,1.643896635485962432e-01,1.847496440931621631e-04
9.130212496878830075e-01,2.868185478528098020e-01,1.843271755478007035e-03
9.363613315105651091e-01,9.923375161703439085e-02,-5.199651446431627355e-04
8.858761010019169380e-01,1.508298516088972807e-01,-1.742744876911068996e-03
9.019992210448256609e-01,1.615451805449322209e-01,9.999838977735597823e-04
8.737670203946180658e-01,1.262674658466995392e-01,-4.763277602977032676e-03
9.052299862633528260e-01,6.461349593907551869e-02,-6.469832835209306243e-03
9.785577791134585368e-01,1.457636700156284271e-01,2.126085405853059274e-03
9.193438465981724761e-01,1.226083001834455122e-01,2.583137570010482498e-04
8.988900221577209582e-01,9.009564956833396310e-02,-6.985093026157136731e-03
9.135633705740603405e-01,1.259041257458864138e-01,-1.420009070969417697e-03
9.034697167450914668e-01,7.827645509113295708e-02,-4.120367636657414068e-03
9.398353160164051312e-01,1.373798523429049512e-01,5.161054494388118974e-03
9.060608278156081496e-01,1.334606816545929886e-01,-6.137267661923108408e-03
1.002506902099657093e+00,3.416866103946569200e-01,7.780958912401443606e-03
9.120108451655766224e-01,2.143346316256642403e-01,-1.440398208083440434e-02
9.387147481122590786e-01,2.166368701369501826e-01,1.562009175152435231e-02
9.274335960960372605e-01,1.766220953937864269e-01,4.778485985511907175e-04
9.032506559912696353e-01,2.197336837125294373e-01,1.576380520194622242e-03
9.565613863712593146e-01,3.289579921101315474e-02,4.537075279088573221e-03
9.153233482354292683e-01,3.763276202469728049e-01,-6.377766101834596302e-03
9.381659323057209843e-01,1.110763876020822161e-01,8.266146382929287495e-04
9.115081036442128637e-01,7.466175828368194767e-02,4.035209127988693967e-03
8.899981014677699198e-01,5.161499109411749747e-02,1.594451574116747400e-03
9.267007438449795798e-01,3.841180156239620835e-02,7.343100594503999823e-03
8.976883300167636248e-01,4.053244253005422459e-02,-2.122186119142464855e-03
9.256954334568621157e-01,1.675029773702959301e-01,-1.573328999877422751e-03
9.737483510877852355e-01,8.119030364566531821e-02,-6.490485689199937402e-05
9.310435915998235279e-01,3.442376285893615773e-01,1.312002395847210873e-02
9.583574470451013960e-01,4.631363826921261473e-01,1.913111692404989572e-03
8.918872320943147525e-01,3.269869905219837114e-01,-9.258785674851444103e-03
9.262766753846471968e-01,1.513943480799200825e-01,-3.634057515044718245e-03
9.155488470478106988e-01,1.518729442460402812e-01,-7.651845029709440638e-03
8.820980167104176539e-01,1.444866401470150108e-01,-8.639137022777333696e-03
8.640066114771515204e-01,3.346627235771260089e-01,2.146398627840102186e-02
9.314417159621740661e-01,2.305642642341257376e-01,-1.227982887510261495e-02
9.702651427701870501e-01,3.070803984631079869e-02,1.743817088775655166e-03
1.013510635134058813e+00,1.739320853906312775e-02,-1.154371208581411040e-02
9.146394630659935299e-01,8.666300263320228514e-02,-1.118258540750576707e-02
9.068973033153614471e-01,3.713390195071121225e-01,-3.042914908966153076e-03
8.670082037717168344e-01,3.291561103290467916e-01,1.940797246177662638e-03
9.202626274043297361e-01,6.799381998864281740e-02,8.044248388517177134e-03
8.890554873894562782e-01,1.726379885005998455e-02,-1.653542457760483197e-03
8.975261006407985187e-01,7.246127587394859959e-02,1.714632594313557357e-03
8.574376181524557827e-01,2.395181121094096532e-01,-1.102118803678017039e-02
9.538621066400986281e-01,9.293804809314160087e-03,3.884712555227175235e-03
9.576774068236141302e-01,3.139591009754293949e-01,6.253981406101546958e-04
9.519163298199245782e-01,1.445533800679719427e-01,3.056972088552718791e-03
9.370066618215976417e-01,8.044434811805481478e-02,-4.568662793698587132e-03
9.688079614580110688e-01,3.752046798869296956e-02,-2.974664529577071559e-03
9.490973826933440938e-01,2.727533460227910544e-01,-3.175829655677385455e-03
9.017457369654299226e-01,5.518342756268106858e-02,-6.086531097873999763e-03
9.244518815858174809e-01,6.800478380327347194e-01,-2.193553406420405139e-03
9.025265388062996275e-01,3.400010152046393785e-01,1.445091673865901011e-02
8.512282563106590150e-01,2.562609058349419322e-01,6.269635790278130227e-05
9.873012842640059850e-01,1.628839915761603196e-01,4.741720042521331557e-03
8.178080901505145883e-01,3.410441424864557036e-01,1.384441396656573009e-02
8.011731172804131829e-01,1.313301251472404063e-01,1.231033416221214566e-02
8.771478507013527048e-01,6.097611961453026225e-02,6.591907081080934649e-03
8.458558106175709801e-01,1.389337739068660371e-01,-2.353427443768686678e-03
9.338989168217990411e-01,6.931887091421062852e-02,1.427347151649153989e-03
8.468302956479447641e-01,2.597511509906941241e-01,-4.456754908436576235e-03
8.970395691701632535e-01,9.442198303680382487e-02,-1.493240418200961900e-02
9.527161236993267890e-01,2.553401828873081425e-01,-7.306303942202545254e-03
5.013266779425257225e-01,3.315329107793977270e-01,6.495058612424407796e-03
9.238744294586126449e-01,2.200544319418576977e-01,-5.149930956197139309e-03
9.236223764085004229e-01,2.431808912237661824e-01,6.825954057754698989e-04
9.215140807543747981e-01,5.615819066901959339e-02,-3.610632964825531005e-03
9.351272023323750071e-01,1.399830314593159819e-01,7.806486911493999703e-03
9.140968267863950336e-01,3.249227201347098526e-01,6.915127760907115173e-03
9.109869228185107914e-01,1.321160383851395226e-01,-1.361471758576766194e-02
8.127184288385479460e-01,1.794334495080687208e-01,2.134377405619054119e-02
9.777022937161552463e-01,1.861154990188347291e-01,-4.527685378871139366e-03
9.555861966679114472e-01,9.932774201448288376e-02,1.994395394989863235e-03
7.751492046701647931e-01,3.362971020040370629e-01,1.225958524788203080e-02
9.399887389531705884e-01,9.369563522303220315e-02,5.503916993308679423e-03
9.143659142520783600e-01,9.592273333631752552e-02,-8.140021653615846231e-03
9.974809286709286349e-01,2.070947938138501254e-01,1.002228861479027844e-03
8.918766456309497048e-01,1.504561049322768879e-02,5.711380247759252626e-03
9.316825619448213525e-01,1.174284305818824314e-01,-8.854375915559244137e-03
8.399338197952036511e-01,3.099986635724755191e-02,3.429343325616708571e-03
9.258510940692630253e-01,6.345148532327046231e-01,-7.211624112247454199e-03
8.429299826972055376e-01,1.857065298674173692e-01,-7.992907050241353228e-03
9.585358523278650900e-01,1.464734978089302919e-01,-1.236731109921740401e-02
8.931715508860519348e-01,6.947830857473712152e-02,-8.060911769007909899e-03
8.480511136100137293e-01,2.072689249962346159e-01,2.592486101409420540e-03
8.276530371748495041e-01,1.229484489513787970e-01,4.336996017860723224e-02
9.270334806717096532e-01,4.787585235365682257e-02,1.836057818703044908e-03
9.434563718170515534e-01,2.096483233916043853e-01,-1.640254938526201911e-03
9.063787164647626460e-01,1.921363689523030438e-01,1.787088029261309219e-02
9.189316703804140118e-01,2.111220165160607454e-01,-1.017295330455913333e-02
9.016349864723457452e-01,4.130542461199963877e-02,2.036158739823178132e-03
9.004025929381301863e-01,9.091452389698798098e-02,-3.511267015023043780e-03
9.674270209377161533e-01,1.961091250191494550e-01,8.783875417879914715e-03
9.100850089104487450e-01,8.017271511671383855e-02,-4.746678856421250592e-03
8.857405709483719969e-01,1.847702798307749861e-01,2.449233903278856539e-03
9.637837086960326927e-01,1.443577366717974098e-01,-7.228041496284524914e-03
9.135526240633002892e-01,1.788454035629441496e-02,5.385311758221440759e-03
8.968960394152305504e-01,2.230136210284192066e-01,-1.626051341041198639e-03
9.560635184376691242e-01,3.797151032946878280e-01,-4.989621077967777707e-03
9.282517205496225721e-01,3.350450581572187447e-01,-3.450062606954309996e-03
9.254226652674522047e-01,1.896013769079488986e-01,-3.666170413991309829e-03
8.891577097941193442e-01,2.914856816516141480e-01,-7.901117992864858941e-03
8.917218058071559872e-01,2.106728917752967445e-02,4.213743596337408970e-03
9.198110045168965687e-01,9.899295826520476682e-02,6.219983179270784091e-03
8.886473324439932986e-01,1.525400421820653774e-01,4.313825784472848091e-03
9.433815467039730063e-01,2.300594147879615747e-01,-1.213793385417639981e-03
9.121297717000137473e-01,2.951639971217716041e-01,7.891805053772384115e-03
9.214697779655852683e-01,2.669721416665948865e-02,7.001139580084310421e-03
9.197607321276429770e-01,6.643524110679181749e-02,3.590817269222411345e-03
8.988319693757523821e-01,2.017186375579246849e-01,2.759695659470956519e-04
8.305817504914877469e-01,1.713887216082931875e-01,-2.727283449596960840e-03
9.639631994063233567e-01,2.911413716175274141e-02,1.295587228920612455e-03
9.106385562767526087e-01,9.964422661044247675e-02,-3.593920224252554474e-03
9.518084943844474788e-01,8.023087899327810413e-02,6.206160972069475756e-03
9.092884424119345166e-01,1.706673915755183568e-01,-8.286327848424417108e-03
9.138503251617657863e-01,2.008570454560351104e-01,4.429459180705135057e-03
9.739730029081417051e-01,2.518572688075275401e-02,-6.693661854974206071e-04
9.482581179647363578e-01,5.517575723442065261e-01,-4.485956206078660358e-03
9.418702038050089653e-01,1.304622706714762270e-01,-8.554199572308393562e-04
8.762850882525289320e-01,1.667075591765466158e-01,-9.017843879366264914e-03
9.602402089890033077e-01,2.020619614301267380e-02,-7.189941559448888297e-03
8.691792700551289608e-01,5.523247893565968319e-02,4.157749140989291936e-03
9.154338369792263119e-01,9.786912915082701669e-02,-4.799545277296077272e-04
8.956084967402738739e-01,4.184477649279419453e-02,-4.102708081400043005e-03
9.671701813492981081e-01,1.062259351125071360e-01,-5.316475046109533920e-04
9.088004959815948469e-01,2.015872835291723786e-01,1.519688283249227140e-02
8.747823375622804098e-01,7.499526194583591709e-02,5.380434080336636560e-03
9.327295557216829236e-01,3.107544079516263436e-01,-1.279639754303058680e-02
9.252979436030781546e-01,1.034924525822780994e-01,-5.696529647478382197e-03
8.816038083765188604e-01,1.562423127379908849e-01,-4.848965334046502484e-03
9.151832510005296628e-01,1.979202325436694165e-01,-1.091082536539558084e-02
8.922831135395982161e-01,1.153089522778482923e-01,-3.285112384755796422e-03
9.329049431189668784e-01,1.358087836088001377e-01,-1.190476330876482497e-02
9.289049784404600496e-01,2.255492440022575096e-01,-1.051240606506639169e-02
9.500537310532398694e-01,1.181150382545063937e-01,-6.878523840195042982e-03
8.665338409034435418e-01,2.336459454737138119e-01,-1.471772461759090350e-02
5.013266779425257225e-01,3.315329107793977270e-01,6.495058612424407796e-03
9.080153312518446374e-01,1.532103605881395825e-01,-2.027949964039661712e-03
9.626424302117347898e-01,1.733121719815706174e-01,7.018161374389847440e-05
9.157543285049759563e-01,8.271662172740201768e-02,2.427925047215055698e-03
9.024800954293766830e-01,2.025505883921194933e-02,-3.846330656049910812e-03
9.349514001993207701e-01,1.382586963344014652e-01,9.855232724760923380e-04
9.191614725818039178e-01,1.223010835159741017e-01,-2.488104999236399884e-03
8.471519679206123143e-01,1.808628267394115086e-01,-1.204985089497408179e-03
9.806916026736064440e-01,2.601194344850949469e-01,-8.558720696070547251e-03
9.411129500749022547e-01,5.019096017781579100e-01,-5.071711422179034368e-03
9.668489346496365044e-01,2.671561197448403258e-01,-2.191503005080218391e-03
9.237872663186366129e-01,7.637755199284665397e-02,-2.033078541997142275e-03
9.285328438102025128e-01,8.888052254999387336e-02,-1.361329212734810334e-03
9.770371895284071240e-01,2.443519868363250303e-01,-5.121778470283187834e-03
9.486043354504403169e-01,6.583670397497665139e-02,1.241738771699606170e-03
8.245308624080672777e-01,1.477433050579460838e-01,7.583247166373444093e-02
9.211080660996515679e-01,6.635914781225026315e-01,-8.753477353753091883e-03
9.684655517956280990e-01,2.481984405254666348e-01,-3.691387025321964110e-03
9.504961503300365377e-01,2.352220856371700641e-01,-4.127339517185593665e-03
9.138604630544530094e-01,2.468305514515241605e-01,1.974496985292097107e-03
8.964893117628410790e-01,1.963697572690336346e-01,7.638362836126445093e-03
9.197005763827820202e-01,1.771364909141675548e-01,-3.893821316659287768e-03
9.224761571096117274e-01,2.538038909376764130e-01,-1.922122737373938017e-03
9.348397103170459355e-01,1.297710055887627001e-01,1.139300068184117415e-03
9.440014464026308394e-01,2.384122265215606051e-01,3.302043753964402362e-03
8.868813094978547085e-01,2.539695292880967403e-01,-1.027882011377310306e-02
9.452379055814639219e-01,3.610034073801179910e-01,-1.268463615020695018e-02
9.760517144680985746e-01,7.032405654792994731e-02,-5.692633809504014930e-03
9.215871130575316039e-01,2.941166375136541541e-02,2.960976750582822170e-03
9.502754717796285666e-01,1.747570685214013542e-01,-1.177397320668670255e-02
9.230007270147188025e-01,5.750244446800149845e-02,1.246659546722782286e-03
8.402527800052781437e-01,5.102899881665258208e-01,2.483599442185284445e-03
8.245205400856969735e-01,1.475766358764360187e-01,-4.902490991333129100e-03
9.339310327158464320e-01,1.750588705037911530e-01,2.750927304405188789e-03
9.290117916102949014e-01,2.166465825915986909e-01,-4.005638576284317742e-03
9.780524953146890743e-01,4.482303775457003453e-02,-6.281019193439894843e-03
8.550558436735180567e-01,5.723218133860106388e-02,3.127748276203837219e-04
9.125599906452923626e-01,1.175839252921888900e-01,-8.704171851930363191e-03
9.277868387895035207e-01,2.146360905515737327e-01,3.664038991020544811e-03
8.797714699045489084e-01,1.891361555873343203e-01,-1.380532650944798351e-02
8.769456646108592102e-01,5.178280215897785449e-02,1.187036367030297468e-03
9.122350821691677103e-01,1.923273393840720935e-01,9.938617308216317336e-03
9.188370352998050938e-01,3.036517812442622866e-01,-7.717802315747611386e-03
9.566248864259935258e-01,2.340044769889542686e-01,2.039855482427445355e-03
1.003987928253062822e+00,3.444652656066419794e-01,1.057805549246852023e-02
9.047746855466346494e-01,2.345956691716996889e-01,2.212424424572069503e-03
9.077174213726836305e-01,1.177912288083572678e-01,5.104066822868014164e-04
1.004607922414496590e+00,3.434261044420847675e-01,1.035743189606069120e-02
9.391461981767089684e-01,2.068659392051017676e-01,3.836429317027233166e-03
8.730104123597696164e-01,1.371324856057563879e-01,2.532450608645660239e-03
8.650849073656241561e-01,1.031514392700230709e-03,4.062317653007921359e-03
9.347827079522332827e-01,1.378119390157042656e-01,-9.467289181443579171e-03
9.539303876483783418e-01,2.806378542649375918e-01,6.091020013490155982e-03
9.513911685078174640e-01,1.636777786383094846e-01,-4.744126838884248076e-03
9.700384227634254453e-01,2.468660894104593995e-01,3.448840235485563233e-03
9.459575689671810839e-01,3.150369996699933228e-01,-5.555083318773433587e-03
9.183252481868359185e-01,1.545686469238958805e-01,-8.924810089784185330e-03
9.494832676715840858e-01,2.069930096408332393e-02,3.726927164995112729e-03
8.903246062741569933e-01,3.399508055149520758e-02,-2.271205332429561408e-03
9.849421013070233100e-01,1.132146566802567089e-01,7.117963630703778855e-03
8.399256862631138132e-01,2.381271142097198257e-01,-6.797311570065238395e-03
8.399199113094431013e-01,1.448892345474646071e-01,-7.183967136929585162e-03
9.261819684619955195e-01,2.013327739360221413e-01,-4.647523245027727901e-03
9.026352204655635481e-01,1.637461179833597791e-01,4.746259160708088398e-05
9.482012851313833535e-01,2.240560227725879872e-01,-1.202785641396130617e-02
8.755801140107332126e-01,1.924190798666441937e-01,2.305910059749609331e-03
8.921231434829012263e-01,1.548410912448922316e-01,-1.722273832376657043e-03
9.398555125894434426e-01,8.923724344389852292e-02,-5.017809215969511183e-03
9.285991948827961862e-01,9.217065752858050187e-02,5.629216875622015254e-03
8.834391470653327749e-01,7.546342325494136138e-03,6.157805590668100071e-03
8.657172492541787001e-01,9.329486511584483832e-02,1.596610213101430642e-03
8.638341429278075800e-01,4.365744830118630793e-01,-1.577830179442545749e-02
8.791254601154234738e-01,1.528247013979166236e-01,-4.513159408970068842e-04
9.680393709400301194e-01,7.381949243312643794e-02,-4.527250453028326682e-03
9.005925705295241279e-01,1.821445685024996319e-01,2.438620525065639255e-03
9.079204941577374566e-01,2.517926902335648198e-01,-8.209586847961192202e-06
8.514571354632085587e-01,2.754232907244705819e-01,1.969714666162287325e-02
9.492775556365766754e-01,1.221335429848068310e-01,-5.877755262405713610e-03
9.524170758862234853e-01,2.700404983440808371e-01,-1.463973597980137986e-03
9.409337563908609647e-01,3.101449866077380935e-01,-6.946569077127748293e-04
9.156495208231474336e-01,7.295598018851889854e-02,8.241043588822168087e-03
9.900445692618408122e-01,1.761941154038784013e-02,1.230569794748679474e-02
5.288838126873935952e-01,3.336788700278841002e-01,6.526144262337732482e-04
9.624146607946858500e-01,5.159740019243955200e-02,3.917320633138758612e-03
9.628563865039213576e-01,9.161377787332453115e-02,-4.415377028280188798e-03
8.874213234220953428e-01,1.136624558009401847e-02,-1.915125931197678155e-03
8.915944633245538320e-01,6.385564011551865538e-02,1.621876959355186831e-04
9.363656151602014477e-01,8.139295325103637624e-02,-7.930409625409792773e-04
9.634295553614479202e-01,2.781806292804006597e-01,6.165206598302393204e-03
9.306122775104451739e-01,1.441514392429622260e-01,-5.003582519213199686e-03
8.465045450504621316e-01,1.658807077531712637e-01,7.935777597470446143e-03
8.795028648099413315e-01,2.666524739702290647e-01,-9.641631314231492722e-03
8.728252695950048379e-01,1.221830373912892731e-01,-5.353787976436673313e-03
9.166698963766678476e-01,1.911815323282655132e-01,-2.978793257386640192e-03
9.176364955256937073e-01,4.071238782451692267e-02,-3.581084776644781476e-03
8.773766022705906664e-01,1.739462046080666457e-01,-4.829011333787165683e-03
8.804364710800122173e-01,2.713767977318797264e-01,3.526347283796256449e-03
9.792425088013466672e-01,1.186792854362986038e-01,-1.156234584575303870e-03
8.761846163704415380e-01,1.886418754149458143e-01,3.601528232716571382e-03
9.332899537428113179e-01,1.533246275212893361e-01,-6.250778247700129742e-03
9.085060002994710393e-01,1.035391475599196365e-01,1.101467880741214406e-02
8.134866206611318651e-01,2.851214606394019135e-01,-1.616804868160338221e-02
9.444735694263464154e-01,1.041700123411921364e-01,-9.163701364897580692e-03
9.332951928181575374e-01,2.157363989596158826e-01,3.030034480888441073e-03
9.327398282539753893e-01,9.583896661510277193e-02,-4.507782705443774685e-04
9.401305939403267198e-01,3.806659531138992247e-02,-3.834519919275518329e-03
9.086798958161547146e-01,9.019171063991324178e-02,-5.334713721585192248e-03
8.659631658190573011e-01,2.595752949656749964e-01,2.091602324213286124e-03
9.127492292209323788e-01,9.129496238793419205e-02,-1.211597105391558349e-03
9.454467147704790353e-01,2.161904996461645745e-01,3.479848550036544752e-03
8.773040538008859412e-01,1.147252596918672818e-01,-1.263577889193941844e-02
9.131523398275349646e-01,8.946707220034316732e-02,-3.362946047751731726e-03
9.240333531536993883e-01,8.798078090516500693e-02,-5.697755867282015829e-03
9.336499561120467083e-01,2.830461720906376349e-02,6.785233608792622106e-03
8.834565529145240736e-01,1.793914040586087610e-01,-6.686051755372936223e-03
9.298592210952933979e-01,6.989479037597454147e-02,5.972857740968152973e-03
8.656119313691723605e-01,9.349480395162734769e-02,9.430591935647228419e-04
9.268355565217641923e-01,2.394119821256770475e-01,-4.462227421742993860e-03
8.444441579847828949e-01,1.419509855351704097e-01,-7.837581412755909027e-04
9.107063781711899342e-01,3.258955571622873526e-02,-2.874657556878247588e-03
9.364006568051894686e-01,2.384080044474573834e-01,-2.772435829910883248e-03
8.743209995610992102e-01,3.539219645877558773e-02,5.736573702848149492e-03
9.398659597427011514e-01,1.586911710955745125e-01,4.077618530962931476e-03
9.225403945734025335e-01,2.443738872754810248e-02,3.106822150161683838e-03
9.164141936735874516e-01,1.107829486693741039e-01,-5.216229547742444461e-03
9.708058908689380928e-01,6.769921223566038870e-02,-3.656998784813590697e-03
8.283359195171164924e-01,2.046986348052486360e-01,2.687161590861773114e-02
9.519474081818749545e-01,2.734227256941421449e-02,-8.238565017304258498e-04
9.054589720824389731e-01,1.184498280455094921e-01,-2.405307585534942338e-03
9.606645213995305133e-01,3.777279727918791269e-02,-3.643015544777552378e-03
8.841380083558072478e-01,2.001711451834469191e-01,1.054899596975460152e-03
8.986055161005569447e-01,2.405469061351903914e-01,-9.659620901562790407e-04
9.177608754934071245e-01,3.669711904254417678e-02,1.135465431666350666e-03
8.783534006290810714e-01,2.156044894309582516e-01,-5.384820509429170954e-03
9.344368932426986296e-01,1.750853199724531489e-02,-4.652039429546832305e-03
9.122664262388369139e-01,9.372585927823282037e-02,-2.291221638891900725e-03
9.963069590751300053e-01,1.659709427197520459e-01,-3.585003270300000933e-03
8.280057253848823740e-01,1.198061250519678600e-01,6.759193162057371140e-03
9.333501229309527636e-01,5.217095446385856122e-02,-6.564432504062994722e-05
9.322886924516728957e-01,9.690496177434408664e-02,-1.612642553321864958e-03
9.252206743950944778e-01,9.755946871503337614e-02,-3.964314960683439082e-03
8.440134750812611220e-01,1.649697753275839451e-01,-5.021755968149778371e-03
9.200821838297456035e-01,2.463800173142923766e-01,-1.588627230649626576e-03
9.290691776798601920e-01,9.084654170526271222e-02,-1.840404168785107764e-03
9.077907015216939435e-01,2.416676550466159146e-01,5.906710212136685734e-03
9.620882237770586043e-01,7.062727743320401652e-02,-6.845758140101874945e-03
9.207115968703120101e-01,4.425245408769536842e-02,7.607360171104603219e-03
9.343306656454556380e-01,5.732021782624858730e-01,-7.270736741927380509e-03
9.514718777401832694e-01,2.183171013343372657e-02,4.068082342948177443e-03
9.215853926187983491e-01,2.100334581812885459e-01,-2.059357730932021013e-03
9.376926660845222861e-01,5.969983556457934132e-02,-4.984572957782200386e-03
9.192556804527548531e-01,2.069619472098055135e-01,-3.649161187568771003e-03
8.951947088945338971e-01,2.113664481412423635e-01,7.335572750706079170e-04
8.951320281985809535e-01,1.471180067113587314e-02,4.652973408684958623e-03
9.759938793320596107e-01,3.238574968255161224e-01,2.715456363319455890e-03
9.127417029990809727e-01,2.978428251629661738e-01,-1.065170929243710457e-02
8.484605456082464636e-01,3.223606937276466550e-02,5.343592858605299145e-03
8.696263715928712612e-01,1.302410107752732527e-01,-7.992338460881508178e-03
9.079598196662811427e-01,8.994917020248813233e-02,-4.546886719260616327e-03
8.620643016029356787e-01,2.224452984975434922e-01,-1.542124631837678284e-03
9.232763042141950427e-01,1.319434093134828345e-01,-1.975598167069034239e-04
8.469909258577638100e-01,1.722071753748520284e-01,-6.503357752341148990e-03
8.695186962150632803e-01,1.676421503586920103e-01,-1.301516385976760753e-02
8.545731456024066031e-01,5.807872523560865252e-01,-3.232311758970381199e-03
8.701381018691659586e-01,7.238635284127412084e-02,6.294780603545636899e-03
9.087866228793283208e-01,1.663027346386851679e-01,6.574721959493389639e-03
9.485517526552675882e-01,1.747736382953391787e-01,-2.230011482754409857e-03
9.564938809559943023e-01,2.116456816630069016e-01,3.739817706380980933e-03
9.419988171874011940e-01,5.848926612434901529e-01,-1.121829997976971777e-02
9.276757751927507956e-01,1.202850910411908669e-01,-2.659863422323570370e-03
9.329840504324639072e-01,1.099127863175984043e-01,6.741047975764136169e-03
9.988521434584239911e-01,5.148280837622271067e-02,1.601762830066986998e-03
9.520537449125054952e-01,2.915713341516832369e-01,3.326809671708073207e-02
8.355868208377870143e-01,1.333225039707910120e-01,-1.938872620340752195e-03
8.973001554051643902e-01,6.526289229366367961e-02,-3.778272002403236518e-03
8.588928283758817672e-01,5.369689162703975560e-01,4.353373562368152705e-03
8.639760195216105165e-01,1.914175619486512825e-01,1.864671558148128100e-02
9.755014922006053357e-01,2.557835899212129172e-01,1.184748359548612462e-04
9.261385032933487915e-01,2.273735083794051759e-01,1.561424846497593000e-03
1.003987928253062822e+00,3.444652656066419794e-01,1.057805549246852023e-02
8.445224634040535694e-01,1.402425632787955567e-01,2.463524295277636639e-02
9.020132217229844818e-01,9.573507734059436003e-02,-6.550561896433403086e-03
9.317868665705405506e-01,2.958250840325484798e-01,-4.947871589644457779e-03
9.527217168117049217e-01,1.433704366800703928e-02,3.214271181963261614e-03
9.329565306651230738e-01,5.861351113828489057e-02,2.549189452492002517e-03
9.077384509074318819e-01,3.517115885492302363e-01,-3.137344014429242767e-03
8.908513018658418270e-01,2.974104005993827293e-02,-4.628004593692842950e-03
9.173272840243892334e-01,1.745376989284342650e-01,-1.032233523039008394e-04
9.288369818701294189e-01,9.296604043570146081e-02,8.570668597959407720e-03
9.304218029142355961e-01,1.358221416767359524e-01,9.279369527551921404e-03
6.134278373304677956e-01,3.328366506268579106e-01,-8.682040275895815118e-03
9.150397003117242134e-01,2.224320266529445922e-01,-3.886661093243030940e-03
8.588499232810302697e-01,3.416276473285143056e-01,1.862941407821199630e-02
8.997059125421017489e-01,2.684615763087662144e-01,-2.021134785246340992e-03
9.570232284667660183e-01,1.968953843182401631e-01,-4.391039470107362119e-03
8.659499937427913574e-01,3.616268635776734297e-02,-6.055078864242613434e-03
9.632730618253577681e-01,1.468659594467662255e-01,1.154875769703469363e-02
9.019528307014756940e-01,2.224531523717582226e-01,-1.759633893099209201e-03
8.792620925752661076e-01,1.567086412681154284e-01,-1.212201518537283501e-02
8.271841018758396835e-01,7.319418635251637162e-02,-4.898255086028584226e-03
9.515138005580924263e-01,1.330436184585399029e-01,-2.060530982759815888e-03
9.303219116966875424e-01,1.579479321627460242e-01,2.243217219284416447e-02
9.687238445775111506e-01,3.463282049857504402e-02,2.744361957590223111e-03
9.000848750392311803e-01,3.357816149293325059e-01,-1.091194886621062871e-02
9.380626682794254156e-01,1.998936097950983898e-02,8.804918622298721353e-03
9.035954315380800850e-01,1.969085476946189350e-01,-4.584641007051651340e-04
9.966340863481041312e-01,1.074539701418140702e-01,-1.420118554498908670e-02
9.525218834397514156e-01,3.409706455912188683e-01,2.391113242852324627e-02
8.725574425091084940e-01,2.344295509140070788e-01,1.537453918441851475e-03
9.683651567816998762e-01,3.405087643384381302e-01,2.741462945624169312e-03
8.983874696994483822e-01,1.064625950328192960e-01,1.411913130727478205e-03
8.411522591914563085e-01,3.669486475134980941e-01,8.226719546421713825e-03
9.535093816782155285e-01,9.654615921634170095e-02,-8.623641589891109516e-04
9.336951929740407996e-01,2.942966437319076145e-01,-2.169601267062608307e-03
9.378767523784300453e-01,4.547194244352589093e-02,2.544285904879442506e-04
9.707284435071499296e-01,2.241890269131843194e-01,-4.032618029760508260e-03
9.503933807946979284e-01,9.528546109301122558e-02,-6.123796227762733080e-03
9.119350562863001164e-01,1.009527374640985242e-01,-4.223448604017895902e-04
9.438764063294996509e-01,1.607542580851336889e-01,-8.012844774853630780e-04
9.671987296608589579e-01,2.224776039878837708e-01,1.513252353268802752e-03
8.584304503349441395e-01,1.810855548068919518e-01,-1.206398671182472987e-02
8.994051338452976330e-01,9.143222079090787546e-02,-8.411919570340334329e-04
9.118341960920602896e-01,5.859918931378518825e-02,-2.887105621247901266e-03
9.136087842473773479e-01,1.381154235627529980e-01,-4.659100150769417137e-03
9.584520585065814391e-01,2.113343602270546517e-01,3.247962854216607242e-03
9.367486922466150556e-01,2.732453331236635030e-01,-5.357729394639250409e-03
8.178080901505145883e-01,3.410441424864557036e-01,1.384441396656573009e-02
9.121105979239575445e-01,1.760057941214122068e-01,-1.726742983716327007e-03
9.085350482533109950e-01,1.909884470270115375e-01,-2.160633556560476870e-03
9.194270925118707138e-01,1.405862611368644544e-01,2.576835529405928360e-03
8.614925720305267598e-01,3.408897427764562282e-02,8.376031512414422453e-05
9.231753168556161571e-01,2.168066481457009143e-01,4.615932615845624171e-03
5.040959323952287630e-01,3.309537284885418207e-01,-9.074108718029466614e-04
8.986708967508644230e-01,3.126458064213434307e-01,-9.636723165959780457e-03
9.063194662768027099e-01,1.005522244688078493e-01,4.607909110172295208e-04
8.609426845942479423e-01,2.809765517079254593e-01,5.288729061136428211e-03
9.348670687127438317e-01,1.226951553536947959e-01,-5.286879892679278992e-03
8.326610338944809842e-01,1.272299961509268107e-01,1.527062353689004337e-04
9.360296607910827404e-01,2.027520611361808001e-01,8.760635407301167743e-04
8.201838176538533975e-01,1.091575978408288738e-01,-5.922930265355938473e-04
8.223881806530105587e-01,1.288200523589113911e-01,1.505697031305545247e-02
8.863780867398757257e-01,7.159924713964752052e-02,4.485217801346107203e-03
9.844580136026931383e-01,5.730958890456237104e-02,1.127100761628816589e-02
8.952777764204903344e-01,2.065722471007452321e-01,-8.923415341519906618e-03
9.220003535359315716e-01,5.457452317922902724e-02,-2.524687604206751756e-03
8.476006907516752120e-01,1.574315363283276259e-01,-5.508562765316540877e-04
9.215875495942041917e-01,1.450186258813823403e-01,-1.565048824099316005e-04
9.113259128555509792e-01,2.693553703140179612e-01,-6.543835210888103437e-03
8.764065922239943074e-01,3.856992571616554288e-01,7.257505157015044228e-03
9.518074821493264226e-01,2.167072759979966068e-01,5.265867301384303395e-03
9.260920891325202797e-01,1.352658836896604710e-01,-1.212151054521084376e-02
8.711833240239276188e-01,1.462138078220188986e-01,-1.834187856986933818e-03
9.147804477569962955e-01,1.312126372392285745e-01,3.454279668488997868e-03
9.217740239113418887e-01,2.741168097722372909e-01,-4.046273557564893097e-03
9.178406796666765954e-01,9.498562564379764428e-02,1.771249492171604600e-04
9.376525981698177192e-01,1.373174475756826773e-01,2.142237751971642901e-03
8.752455819167186402e-01,4.237184421873414764e-02,5.844121238443689137e-03
9.361440346092579912e-01,6.324156762228463902e-02,2.880522859646586498e-04
8.492071734437131036e-01,2.312070947987139580e-01,-1.971586721550892818e-03
9.071640317133062847e-01,2.244303951600304659e-01,-6.956602943318394849e-03
9.315967767750169548e-01,4.686624584992995363e-02,-2.659923384463892815e-03
9.495412222732347862e-01,3.393199536892297918e-01,2.047750453191349990e-02
9.315090811205533061e-01,1.695857439028460589e-01,-3.568477738164675672e-03
9.514404552889821343e-01,1.332045941887988194e-01,-5.789528567263634018e-03
8.641975295890594877e-01,2.810842495281741238e-01,-4.872177206652623938e-03
9.757717021591297835e-01,1.381518630846786944e-02,6.071919267552579325e-03
9.136769550570581488e-01,2.535154050793894109e-01,-2.977197779149932944e-03
9.225687655590369962e-01,8.727040312267186906e-02,5.225373084694354131e-03
9.450443700590699381e-01,2.766828227048110378e-01,-6.094127531706197698e-04
9.400176471764127850e-01,2.972871122707093083e-01,-2.053087036070204430e-03
9.544409831273649170e-01,7.937562786251467495e-02,-1.177114928454646436e-03
8.269770330840028327e-01,8.425287376758694435e-02,-1.991081702682716281e-03
8.528263907089005391e-01,9.862638343774454697e-02,2.732745661062763870e-02
9.095165237355185006e-01,1.909864026515817881e-01,1.416208672347860076e-04
9.754521985348277857e-01,8.060705538440918194e-02,-8.397905640609458489e-03
9.207927616860570597e-01,8.384474148637313662e-02,-5.876459905124108152e-03
9.641187298443808507e-01,3.229104597647769470e-01,1.936286369079089076e-03
9.477604017458534091e-01,9.570196425690603859e-03,-4.577530144653188526e-03
9.124690841156221088e-01,1.780009122599598703e-01,-3.157425451421828899e-03
9.050218101873989118e-01,1.999058083407225794e-01,-1.260730162621916117e-02
9.176301703973163137e-01,1.245307768954646011e-01,5.468924260081046984e-03
9.662289121315333906e-01,8.853645576673982442e-02,-7.001662054925715528e-03
9.301509730035379953e-01,6.044135851683543614e-02,5.012277452373974096e-03
9.039423198301191897e-01,1.212494401172518610e-01,-6.176974340045097989e-03
9.558191630447031573e-01,8.925216678206998600e-02,-1.152613222004864740e-02
8.282573603090367387e-01,1.325533196623420451e-01,3.386351895817680396e-02
8.977109852780637000e-01,5.666685306506805686e-01,-1.098990213376254549e-02
9.252747302814335884e-01,6.418485700112051828e-02,1.053615996150240181e-02
9.377605512954102496e-01,2.215230044649332819e-01,-2.323850113782187365e-03
9.181129163865503484e-01,4.094734089176541719e-02,-4.847913309322569864e-03
9.543199441568613883e-01,6.105710431659759629e-02,3.118807032273608615e-03
9.242148537838316136e-01,2.964810396124293868e-01,-2.352025297289860040e-03
9.534623612049101249e-01,3.712186240533043580e-01,-4.997659964731185345e-04
9.934222621344891424e-01,3.948307990793890193e-02,3.955754841623922158e-03
9.061285555929425861e-01,1.442044458200653079e-01,-4.475481602271534631e-03
9.772254667820340357e-01,2.178881687718940002e-02,3.108995337817006821e-03
9.186976626034728532e-01,4.418046122408140763e-01,-2.110652259280542536e-02
8.632669664645590268e-01,7.116163078670415532e-01,-1.114232169296863056e-02
8.965108564479838948e-01,8.618465019617352341e-02,2.905033866538384718e-02
9.103474939545724842e-01,2.336726706546402577e-01,6.099907486543300339e-03
8.777537040214739017e-01,2.276529222283978915e-01,-1.206784986954772404e-02
9.065950095418234822e-01,6.212597650918044723e-02,-1.755648581135547948e-03
9.242367786990209888e-01,1.537278458909460410e-01,-2.383446080954303159e-03
9.334640771822625416e-01,1.883185290634772080e-01,-8.450512469210830213e-03
9.285744806711099253e-01,5.115603793618715700e-02,6.095583215904414043e-03
8.492892308636909027e-01,3.301229421349326232e-02,-1.983015369700545649e-03
1.012490207255662966e+00,1.926534301619907685e-01,-2.160261127585959284e-03
8.658075705640092545e-01,6.348373599830199610e-02,1.282097247890530423e-03
9.118018721911399505e-01,2.082721884770796228e-01,-1.214218927876442589e-02
8.140069831409090240e-01,1.239723799978977581e-01,-9.538583676710003789e-03
9.275419833241006495e-01,1.126076826261356578e-01,4.834725512834668615e-03
9.293665814674985093e-01,9.370741537550064670e-02,2.790914483205904351e-03
8.950286957915168928e-01,2.188063118505052529e-01,-8.540615590429144477e-03
9.297825929886028851e-01,2.008593245606648814e-01,1.139917116020692373e-02
8.403708602513098036e-01,7.923890100239144862e-02,-1.194625577309212094e-03
9.462834166719823470e-01,1.557538953879915866e-01,-3.297713335693105985e-04
9.172737336430273336e-01,4.009026569432420917e-02,1.253656276936660624e-02
8.928790151602066238e-01,9.637710381431491280e-02,6.442545499205157289e-04
8.869689918862242450e-01,1.088380963044862926e-01,1.816617279346185304e-02
9.755754284753391792e-01,2.625511578344605912e-01,-7.696591400816951700e-04
8.891140128837563550e-01,1.655403480761898360e-01,3.274232101002964856e-03
8.931185156225178723e-01,1.996305451087234117e-01,-4.256035781779320126e-03
9.179313130518216290e-01,2.712731363616243119e-01,-6.236807286192573574e-03
8.437895264247917693e-01,1.592383719877273618e-01,-7.500149406165772248e-03
8.330651956168133587e-01,3.018929173544391414e-02,-4.727132267190174708e-03
9.005212789487725411e-01,8.641758831100848637e-02,-1.634008905600491807e-02
9.236012489557846594e-01,3.553347208665622037e-02,2.724588165587522870e-03
9.168316336759163576e-01,6.145855865778206140e-02,-3.686193508069986191e-04
9.319732430353773189e-01,1.769166021068985239e-01,6.391306016462552919e-04
9.622615833857323109e-01,7.491879180933934401e-02,8.432126336555163804e-03
9.435753849290443585e-01,1.552084365924501774e-01,-6.315467922054777972e-03
9.803293975502652691e-01,4.364994378744998516e-01,-7.330603279111912174e-03
8.903259370512736082e-01,1.418543783764494581e-01,-8.559162960254163011e-03
8.837943893740884960e-01,6.434715069405255727e-02,4.373963259161312012e-03
9.243069207436147572e-01,4.138020102240401732e-01,-3.930854187714508119e-03
9.270092055521049756e-01,2.929707330155557621e-01,2.557186140212240610e-03
8.887391182918426003e-01,1.163845557270971331e-01,-5.849879114832708116e-03
9.130488720818497050e-01,6.210643617595525967e-01,8.596310680597497866e-03
9.274102727602879792e-01,4.932587809851325666e-02,2.558830226733300323e-03
8.791994975942862833e-01,1.206278061974949967e-01,3.029615118436697341e-03
9.486330978751852383e-01,2.140155473631048105e-02,1.116882963498904563e-02
8.508843084474689844e-01,2.380721427753413610e-01,-8.678915519252906885e-03
9.414141888762689314e-01,1.230378541432373685e-01,-1.013891136805527421e-02
9.143119559452189682e-01,6.091555097160890331e-02,-2.153946255431839207e-03
9.055534544664954888e-01,4.570711788943984111e-01,-6.750271863317704180e-03
9.146670303788198009e-01,1.472479287611949961e-01,-1.493554598230586311e-02
8.871394665775395039e-01,1.504920695846704848e-01,-1.716445363939549107e-03
9.351287753728407814e-01,2.440092772599290194e-01,-7.002149064099648379e-03
9.556647059163194680e-01,2.094959285161898666e-01,3.602484603055462753e-03
9.734604120165021302e-01,1.400886438620851104e-01,1.056377860112605455e-02
9.525755281403470720e-01,1.188911601557251507e-01,4.773621850746104234e-04
9.168269198086832494e-01,3.296420685075651669e-02,-3.545418547946307952e-04
9.836984370705316172e-01,2.037963173452216337e-01,1.603848142713910213e-02
8.716492633848286209e-01,5.302762347431204393e-02,-1.219496538337756786e-03
8.816908583640420405e-01,9.184998947692403493e-02,-4.037093234669407449e-03
8.931369259530306248e-01,4.107686693097578057e-01,1.750088126065602739e-03
9.076910856335845823e-01,9.121384613099364769e-02,1.003613291431830479e-03
8.734211193265323248e-01,1.038348941734059394e-01,-6.516677041497824507e-03
8.981140258134995280e-01,2.204642215066354022e-02,1.339719911664349200e-02
8.721246115961310830e-01,1.321909693489850268e-01,-5.311764906273087894e-03
5.040959323952287630e-01,3.309537284885418207e-01,-9.074108718029466614e-04
9.316880476137708866e-01,1.637498150615798731e-01,-9.476908333226827241e-04
9.343428678369150031e-01,4.884755303958299849e-02,8.306362094914206129e-03
9.344427168663899108e-01,7.038418212607158719e-02,-4.823977443860233416e-03
8.852227731362206642e-01,1.296087019485619996e-01,3.467356921264083680e-03
8.769721131849844697e-01,9.819835339061643020e-02,2.279510632720006813e-03
9.137500037862136271e-01,1.434512436661426471e-01,-6.066009128846854004e-03
9.268551051467154300e-01,1.704850893873488538e-01,8.562882403272339960e-04
9.692541091220259197e-01,6.464418213583696116e-02,-6.449027698589827884e-03
8.952197993235414542e-01,2.471496072435293567e-01,-6.618384976434583955e-03
9.069124492047622166e-01,1.081231131032046600e-01,-6.823398370452420092e-03
9.302041331218123821e-01,1.561310720508707062e-01,-6.076365792703833368e-04
9.955197125828457727e-01,2.738539326143048513e-01,-6.974158998633288309e-03
8.727777255258728495e-01,1.520163658621163649e-01,-3.386994419260901112e-03
9.326641237461095191e-01,2.234669417984565809e-01,-2.394140803870119238e-03
8.930524400571328014e-01,1.714148120714965029e-01,9.355430029796968361e-04
8.907274982340165348e-01,2.194223634037115733e-01,3.252600716681340598e-03
8.911041531696102247e-01,1.078547661276804404e-01,5.840219487420479638e-03
9.752098298846056945e-01,1.787477409297684172e-01,-3.806979146021509386e-03
9.394308457684209523e-01,3.338749665164461589e-02,1.692455798059572247e-03
8.269918386096887231e-01,3.656634318011932616e-01,3.820524633274403198e-02
9.661509152481680962e-01,3.866006736426536028e-01,-5.648427172338578439e-03
3.326715689888737892e-01,3.191378308120876861e-01,7.618580333504966495e-03
9.266368483753112395e-01,1.886846474965942488e-01,-8.564469414400525948e-03
9.726482260652410394e-01,2.058609364300186539e-01,-6.502007275785912088e-04
9.340779705742526806e-01,1.699987974441191374e-01,1.577501690198865325e-03
8.881048735416420259e-01,1.514593010338276813e-01,3.363169995423194447e-03
9.550252880380369902e-01,2.542621835440938005e-01,6.332077477880060368e-03
9.642567968646779120e-01,2.331282031085755158e-01,-5.199114421851717960e-03
8.558430381863796343e-01,4.567241407679363541e-02,-3.804390860434853083e-03
8.968387268838458048e-01,1.669835173579122256e-01,2.209627268569359926e-03
9.599598194487071190e-01,4.060324308451503106e-02,4.333241084684032185e-03
7.704723324572446685e-01,1.485443195027065233e-01,3.460179869109262368e-02
9.105976688685281095e-01,1.639711680384989545e-01,-4.739448307173599328e-03
9.303724852361879849e-01,8.221445151295758702e-02,3.274514970193743990e-03
9.341533535513405484e-01,1.271658989831806752e-01,-6.307761290573268842e-04
8.584140957026338281e-01,1.541190936852741278e-01,-4.857809522020452297e-03
9.000459106604626891e-01,3.398352934685124893e-01,8.906582778659286048e-03
9.327226615627276507e-01,5.785379081607986557e-02,-2.679174231034881642e-03
9.175053371024487481e-01,1.298226268455442145e-01,-4.161157698556162965e-03
9.795155394273903360e-01,5.610110478647027665e-02,-8.330460908333656156e-04
9.247646885028760755e-01,2.000735269639954406e-01,-8.462450486952308171e-04
9.068392526109917418e-01,8.442611523289365871e-02,-2.813262384116090031e-03
9.657682760492118934e-01,2.840735218150322594e-01,-7.298263747822351932e-03
9.152282011178271004e-01,2.625159646528297808e-01,-3.482302563890253555e-03
8.439750430399124426e-01,1.411032640957259887e-01,4.645683127187189010e-03
8.910884746777928411e-01,2.494363924344976668e-01,2.854981502112351188e-03
9.074468777318697166e-01,4.579050813880903292e-01,-7.658791666472063164e-03
9.132185106942257713e-01,1.031467191881060563e-01,-6.938043619071791734e-03
9.058130509199989744e-01,4.699013658869555243e-02,-1.738890774614719470e-03
9.600686491012205837e-01,4.251810331683098659e-02,-5.916005290195723576e-03
9.388406082634043193e-01,1.890334083319780978e-01,-7.182975970458894965e-03
9.110200854411003579e-01,1.561336668723365406e-01,5.090711048453482046e-03
9.134624077777955264e-01,1.718209889976844429e-01,-8.568661707425380414e-03
9.412900608616244780e-01,1.789486988266899281e-01,-2.834573394402094271e-03
9.140356713623778440e-01,1.029727519774390476e-01,-8.499691648372255381e-03
9.586525670152821199e-01,3.257429120570566328e-01,-3.304368569464886940e-03
8.924411706389495658e-01,5.044427217455327295e-02,-6.153389734032933822e-03
8.885493152110789383e-01,8.919344280299632000e-02,7.552959899076415462e-04
9.674883571829140383e-01,1.556065655164252937e-01,-4.393244997301308519e-03
9.109198530324127407e-01,7.525459274711823743e-02,-5.025817164344047183e-03
8.899009440564316087e-01,1.626767234567571829e-01,-4.742565255403584368e-03
9.468927021747999273e-01,2.186032904391405907e-01,2.759844987106005454e-04
8.973637676770259697e-01,5.986633393683069709e-02,-4.115145521609013535e-03
8.787616996523156532e-01,2.385783053396811904e-01,2.504411646931051921e-03
8.712824834846788491e-01,1.185010241953423638e-01,1.201895960025657628e-03
9.528675131097118500e-01,3.463466473844767357e-02,5.817771326589456227e-03
9.461406021468000693e-01,5.987325480652559706e-02,-7.840334390952073684e-03
8.832917825118301591e-01,1.370709816038689077e-01,-5.655466791271157589e-03
9.603912602152572253e-01,3.590957433384506792e-01,4.245278734612230320e-03
9.381966210212305812e-01,1.324868828939712029e-01,-4.092024808990749052e-04
8.504958527338447594e-01,1.012943346420925039e-01,-3.610668606475513076e-03
9.304673740671624005e-01,1.300542961289325172e-01,-5.509192007573930627e-03
8.473021428192269999e-01,1.151597670489625247e-01,-4.595201061020577626e-03
9.644750385638900525e-01,2.350759018484957774e-01,-8.106658119332414703e-03
8.870034100179724490e-01,1.950710628765449650e-01,-7.761203971108764088e-03
9.393136730855520256e-01,1.504150605434866617e-01,6.323403603042745957e-04
9.409949121715802667e-01,5.076589427655046893e-02,-2.682583804963147023e-03
9.273126641591347141e-01,1.245339063598528140e-01,-1.578558063921802618e-02
8.955475854123381430e-01,1.041834041312687531e-01,2.284542789393780027e-03
9.632623252902520194e-01,1.910052056181052449e-01,-4.837014982522487572e-03
9.552852127345259348e-01,6.825441190824142745e-02,1.834659383633537033e-03
9.079394469886837848e-01,1.049117868114340379e-01,1.978154576259556763e-03
9.245829188597023407e-01,1.502831788422433201e-01,2.622374208124979289e-03
8.707333786132886999e-01,5.723002545820755904e-02,-5.981697231686768090e-03
9.322466865438731043e-01,9.827417841672922427e-02,-1.312935019133480707e-03
8.696921375894789419e-01,1.439386651677470874e-01,-8.597672076582241196e-03
9.794139571814489686e-01,2.460427958704256013e-01,-4.654517693715241877e-03
9.221037269628128419e-01,6.381729197051652647e-02,1.886051990147054325e-03
9.253008016685200232e-01,2.100416324026046222e-01,-1.186999529096142980e-03
9.256980206308803583e-01,1.913848553754049220e-01,-8.082514107466763631e-03
9.446291244153471878e-01,1.142925915372737244e-01,-9.307999528436021464e-03
8.908127083654419076e-01,2.445459217515502381e-01,-5.852153584631612782e-03
8.972362559511410929e-01,8.906074333078253802e-02,-5.151382990888797586e-03
9.874737894152113560e-01,2.991158682148533504e-02,2.995647958156717749e-03
8.736788524440693982e-01,5.690755307699582599e-02,-1.223470823713403155e-02
9.479299472935046600e-01,6.928465864026740750e-02,5.808546168299712209e-03
8.882112797223257195e-01,1.914654749130084710e-01,-2.378963763753981497e-03
1.011789426350732102e+00,3.457820699563824429e-01,1.191923572322032415e-02
9.222605748907937162e-01,8.661454625531693485e-02,5.492964470919958764e-03
9.260336003339754152e-01,4.042138845980067230e-01,-9.274810949880536726e-03
9.094714272876953665e-01,8.831598155749946499e-02,-1.914315739767850910e-03
9.084785862130222434e-01,1.951529652535944348e-01,4.850724333867593996e-03
9.048305772337575936e-01,2.174524244736038003e-01,-1.152865270658656044e-02
8.766584819888209035e-01,8.716634595831601606e-02,-4.777602756115405247e-03
9.207431643468416693e-01,2.201819706212186922e-01,1.062427506944149669e-02
9.617504168567696521e-01,1.421649490334711274e-01,-9.929184580800033688e-03
9.117449672636731561e-01,2.694465659768112142e-01,2.479965512111291515e-04
8.915513107313598473e-01,3.532201567191241010e-01,-6.082391375180067061e-03
8.917667150669903453e-01,6.337094780580927733e-02,-1.272637503902336598e-03
9.742428865229035839e-01,4.824318278993285775e-02,-3.010993556677769856e-03
9.502600447272520068e-01,2.101187078578103107e-01,-8.008500688803855960e-03
9.330994965879967351e-01,4.081148463179692376e-01,-5.620532599450951683e-03
9.632754995361118011e-01,1.407871917538338624e-01,2.279290769498211466e-03
9.240502281618949709e-01,1.231031245264646301e-01,-7.111503012753837838e-03
9.461003744327621812e-01,2.405548603852302736e-01,2.512049695554616213e-04
8.589442948468045680e-01,1.020229865132763758e-01,6.806581697795237307e-03
9.632489616548559619e-01,2.275371496133927751e-01,-5.431574325317801988e-03
9.700347358332732650e-01,1.150800521010324901e-02,-4.038698244154169392e-03
9.304923713693515896e-01,3.906451688480578888e-01,2.404903999250286584e-03
9.569877827889466948e-01,3.438691662751723888e-01,1.228060861466313131e-02
9.502741857320357033e-01,1.872039602194345564e-01,-9.414634463485192784e-03
9.515494451341653948e-01,2.675658771733641639e-01,2.293283894863450828e-03
8.828426361864109007e-01,2.041681940478600188e-01,-1.050146553854457154e-03
8.863068056566200115e-01,1.713692568878660005e-01,-4.087136539307263672e-03
9.499613673012606840e-01,1.717550368373888525e-01,-7.031940153251502179e-03
8.950218616065478416e-01,3.533712264787594037e-01,-7.894399717959126039e-03
9.360823084505869307e-01,1.388504029664024975e-01,-9.858460095443492832e-03
9.837864734243796372e-01,2.225207816179601283e-01,-6.856594361434036056e-03
9.133830234962243555e-01,2.812291113377331508e-01,-1.104227877691565940e-02
9.336950560346948258e-01,1.847836822152063851e-01,-8.390283345980027729e-03
8.851333627927093772e-01,3.217757937467153884e-01,-1.619208244996003104e-02
9.281745731453273640e-01,1.449922289659680286e-01,-4.973607913556409021e-03
9.153405538696787191e-01,9.936271515263200849e-02,2.413864097345709558e-03
8.414734288179425148e-01,2.360021749027016447e-02,1.502696430550530537e-03
9.253370408126088131e-01,4.610204456833483233e-01,-1.735493195547107431e-02
9.442378298015587923e-01,1.535692262321611268e-01,2.098396680359611299e-03
8.849637012816465864e-01,3.197420841916353007e-01,1.009153474792066213e-02
9.333967920190434642e-01,3.385799657534924179e-01,-4.534613904370057846e-03
9.007470556715918564e-01,1.574821129539626940e-01,-5.316064716944395030e-03
9.435605181159271160e-01,5.789218101409157602e-02,3.915757918217591116e-04
9.328491643509243536e-01,1.175705467851379527e-01,2.926834136322477298e-03
8.489581680504548755e-01,2.464359903120282302e-01,-1.307864875094371521e-02
9.165615253817549490e-01,3.482511359838914577e-01,-7.315676180204795653e-03
9.302359137780680243e-01,2.296063905356898194e-01,-4.260682477517027666e-03
8.737004035163239424e-01,1.830733506017628159e-02,1.012618535329341818e-02
8.873795822786900711e-01,5.706533122855256268e-02,-2.585491573903135609e-03
8.731277043277494432e-01,6.707877582991081944e-01,3.317627583208672404e-03
9.182635364081299656e-01,2.251179471228262063e-01,-4.835998157353443849e-03
9.004453624863728578e-01,3.443268161099340835e-02,-4.661861943972764322e-04
8.797068552336069214e-01,6.089938321457622622e-02,1.329925514750925075e-03
9.250510526368705966e-01,6.893200674513445814e-02,4.538840246146806645e-03
9.167917226449365797e-01,2.275820157475834382e-02,-5.771291423024987877e-04
9.947629191263213100e-01,2.759153229586406852e-01,-2.164280289499047327e-03
9.088350162936448262e-01,1.450953908279307703e-01,-1.914785833760888900e-03
8.937319455240892996e-01,1.605258172042720588e-01,6.018729015268460547e-03
8.978432306819056352e-01,1.371108434604119408e-01,-9.965728824106165340e-03
9.112153400385715196e-01,1.670462766739630456e-01,-4.715625163111795970e-03
7.754949413657511448e-01,1.578566924037925479e-01,-1.313008787874498512e-02
9.104154562121306027e-01,3.974805015390197593e-01,3.696793349356082559e-03
9.705427621017471695e-01,3.519378845569454128e-02,-2.040228319960687986e-03
9.804243834833415994e-01,3.736823238282455106e-02,-2.026568972655629075e-03
8.997025447967531564e-01,6.918004008013392547e-02,1.892840690539666915e-03
9.521764772213419104e-01,3.130735227090292727e-01,-4.023629724467049640e-03
8.663854400141265399e-01,1.072321242361330695e-02,1.226225171446893025e-02
9.706001866622890883e-01,2.075560208920431693e-01,-7.927216177257383201e-03
9.611703509871433182e-01,2.212148643190064434e-01,-6.427869643247520470e-03
8.988463168492789590e-01,1.557131466114427820e-01,8.707596522070391865e-03
9.743337547982975355e-01,5.162709089949777536e-02,7.860686520323990900e-03
9.225815848732921154e-01,1.175966876338569445e-01,2.895406557935430170e-03
9.917816536876312705e-01,2.789265535003636609e-01,-1.359756763878665342e-03
8.913771143962613275e-01,4.867691164567504725e-01,6.934191764426219512e-03
9.093955218545982655e-01,6.786169468372319491e-01,2.141010681895393064e-03
9.200355217828884991e-01,1.095453238031875443e-01,1.470249903886902687e-04
9.789007654506527434e-01,3.405857286936847528e-01,2.278048047961693523e-02
9.272210920810292079e-01,8.702889816268397083e-02,5.735062863839089642e-03
9.118629588306654821e-01,2.844937606262092356e-01,-2.617270272289404232e-03
8.868518506651738020e-01,7.064209868431435557e-02,1.787763424891052749e-02
9.166611013590628687e-01,5.121734922816134628e-01,4.904884594505339035e-03
9.543022844010340400e-01,3.433344290496307960e-01,-1.550299885282174078e-02
9.061443119940177926e-01,1.303938621502293838e-01,1.977321498538998912e-03
7.478789506997329806e-01,3.483446512719091254e-02,-1.717297161454541671e-02
9.386444386651927596e-01,3.909584372167757005e-02,4.941119023645718089e-03
9.384073393579140943e-01,5.316037055063953937e-02,7.821154664956905811e-03
8.254561579972907737e-01,8.967802291082083155e-02,-7.933006016789083403e-03
9.352913038205074026e-01,2.343627333135457902e-01,-2.090474069375632127e-03
8.515414306966336833e-01,1.085828017230061893e-01,-5.252233798417986488e-03
7.751492046701647931e-01,3.362971020040370629e-01,1.225958524788203080e-02
8.777036781694856904e-01,2.790009309479798971e-01,-6.966948969381291101e-03
8.423795214450260360e-01,1.514362383396499478e-01,-5.562423078646835939e-04
8.987277195629340687e-01,1.986496615822934131e-01,2.194793433999615156e-02
9.311065938071246828e-01,8.761711036413780129e-02,-4.569620409827612750e-03
9.315739562995716261e-01,1.807269925039503289e-01,1.319225038675567868e-02
9.593163736539830344e-01,2.976788512452903102e-01,-2.170488580732259087e-03
8.916220208268440528e-01,1.644778401576821314e-01,-2.667189092074286061e-03
8.714799522707331603e-01,2.638503940591644531e-02,8.816691726071523849e-04
7.768617854852286619e-01,5.503869633544866691e-01,-3.749563127103540394e-03
9.173807709968357926e-01,4.317249970642536572e-01,-8.482347476897793281e-03
9.266843840723585357e-01,2.431228898223913304e-01,-7.184890765066377638e-03
8.650471736930201994e-01,2.214760148850564159e-01,7.937300309984136881e-03
9.475529302431423551e-01,2.659619179189666172e-01,1.622870437228716989e-03
9.083391307382384650e-01,5.742935999941190667e-02,6.374613759164496352e-04
9.535676450405474736e-01,3.427936483886428326e-02,4.707841934275886625e-03
9.395470982805683713e-01,3.988745664496755050e-01,-3.237012307521016513e-03
8.159967275766836226e-01,3.366214768874295493e-02,-5.279583624497367900e-03
9.134978600827488027e-01,2.232004336468332573e-01,-4.393206828251290663e-03
8.551569199078257189e-01,2.358687983211124328e-01,-1.382944089790930087e-02
9.176007246594529709e-01,1.960484321067217928e-01,-5.572754232117602124e-03
9.462296619015063692e-01,6.723335829741781955e-02,1.057664216379681360e-03
9.017583078756007398e-01,4.532608229692794422e-02,-5.299871113884670193e-03
9.476678848530799559e-01,1.781208546280416138e-01,-9.717933996540577268e-03
9.070362021441029654e-01,8.282552209909410657e-02,7.528079280433370990e-03
9.651081833390725562e-01,4.297832088067801148e-01,1.311820735267716503e-02
9.454416008907801094e-01,3.132055384101667395e-01,-3.458580006885439428e-04
8.549260932215880793e-01,1.481041266055118100e-01,2.256689218610483105e-03
9.004021789718837931e-01,1.304484563535575903e-01,-1.178196604488145061e-02
9.541347531504309476e-01,1.606968470100858526e-01,-3.167757463979771482e-03
9.787825988840971325e-01,2.588378489300623975e-01,1.076494137773227611e-03
9.248984179795650684e-01,1.110374982905539681e-02,1.785957122910415695e-03
9.192583769716190512e-01,1.039483081095653183e-01,5.290769199303158032e-04
9.221782103132032393e-01,3.151520830732620210e-02,-3.024447485823193726e-03
1.011789426350732102e+00,3.457820699563824429e-01,1.191923572322032415e-02
9.330430305138631697e-01,9.157851098133874823e-02,-1.689852772667886638e-03
8.876421462891858072e-01,7.739771815555610002e-02,-2.837745492298697492e-03
9.429795048858018447e-01,4.422618827076064130e-01,-5.959445090352864793e-03
8.997930707833460273e-01,6.035707579119180960e-02,3.240377679598033245e-03
9.694770064720645841e-01,2.645211070886968607e-01,-3.619925427459667888e-03
9.291754151627551472e-01,2.204250684259552728e-01,-3.092145986330827045e-04
9.611167933554739529e-01,5.270628669304051883e-02,8.657375818512308419e-03
8.472584344795230926e-01,3.635935379485639302e-02,-8.090055851043762014e-04
8.404109696847220645e-01,2.251635401306008866e-01,1.012044728067131721e-02
9.200071829932010559e-01,1.356728070253893359e-01,-5.451283349209370965e-03
9.499205910734280778e-01,9.066292044773657105e-03,4.855916756201818230e-03
9.770359206222025694e-01,5.645920814451440423e-02,-3.830218852583971989e-03
8.820550214974748338e-01,1.805379597763643873e-01,-7.496443643706822424e-03
