2.115367902055453608e-01,2.239415753389202655e+04,-6.797722887348869869e-02
2.087333591239519115e-01,1.793284316669309555e+04,2.689879373322391284e-02
2.041438596377267434e-01,3.012812176175829882e+04,-4.247801715238472969e-02
1.933334650808210264e-01,4.129288493625415140e+04,-2.819698452041597206e-02
2.060949649260201411e-01,2.179728992399374692e+04,-7.506129247336215671e-02
2.045057245641286880e-01,3.766351692626139265e+04,-2.762994992531196681e-02
2.104793947615044292e-01,1.950998132444373550e+04,-4.173105319984481837e-02
2.146227441704364192e-01,1.873066545820193278e+04,-1.471907859230344243e-02
2.076683847301989683e-01,5.862964201172454341e+04,-6.453955559535368147e-02
2.048574577379613237e-01,2.183607454275644341e+04,-4.023640038609654912e-02
2.101375161117731150e-01,3.808939895662546041e+04,-2.144660966049351247e-02
2.117274858437795670e-01,2.034307592792530704e+04,-2.560382102710877586e-02
2.125339526083433461e-01,3.056922951316876424e+04,-5.318695851261134172e-02
2.110562058036695166e-01,2.357744289032109737e+04,-6.067045396912087996e-02
2.075551249641723883e-01,3.288681732356427528e+04,-2.072662906595386292e-03
2.020027532392678904e-01,3.247765658463826912e+04,-5.857041699594978112e-02
2.095707519746513869e-01,2.082592017763682816e+04,-4.865230987105458038e-02
1.911310043969089989e-01,5.923414938528406492e+04,-6.457044335036539462e-02
1.956757575934673643e-01,2.132799362780970114e+04,-3.041796463387563126e-02
1.986521980708773061e-01,4.376478539013167756e+04,-3.974120113834049561e-02
1.980695538839023773e-01,3.720320299788146804e+04,-5.636523114120532002e-02
2.039748966852622525e-01,2.679355924858897197e+04,-6.101079776433466356e-02
1.908208615032546684e-01,3.007912719986639058e+04,-9.655072545471413137e-02
2.051511347193687995e-01,2.784821586611503153e+04,-2.815534108557180698e-02
2.029339700124266066e-01,3.263515484134604776e+04,-1.686562014640945184e-02
1.941974517801711153e-01,1.917344824080510443e+04,-2.122737681743568083e-02
2.103856854489293549e-01,2.201043039756870348e+04,-3.962623396649943980e-02
2.092761458636176186e-01,3.115396589375031181e+04,-2.186135100224956274e-02
2.084618172009285453e-01,2.497665816658191034e+04,-3.289469685872909582e-02
2.008516012850636856e-01,3.340811981575439859e+04,2.305135783236134800e-02
2.121082959163758941e-01,6.136072132765864080e+04,-4.168867442830994502e-02
1.893355857003888865e-01,3.952209008824139892e+04,-1.325519250824679605e-02
1.954225520526930160e-01,3.217657914472223274e+04,-9.352174584620870368e-02
2.013293782093025230e-01,2.286553771305470582e+04,-6.758448106119754883e-02
2.121879378723489640e-01,3.394919285601747106e+04,-4.802023956622186729e-02
2.203597576682186088e-01,2.317722346191812539e+04,-4.722461948777498947e-02
1.994240939369730514e-01,2.419556758523258759e+04,-3.025601344135845847e-02
2.115621760594488532e-01,1.844985564157978661e+04,-2.836469489890161913e-02
2.050749698976743196e-01,1.878285383431539594e+04,-5.097007382193597530e-02
2.030500406823417814e-01,3.103251899859163677e+04,-4.059174264318839848e-02
2.113591294255142417e-01,2.191011039225891363e+04,-5.077404635884465167e-02
2.045528982806098794e-01,2.823036768007369756e+04,-4.073150877981369933e-02
2.032522181818062490e-01,4.798031488664542849e+04,-5.263149574464642821e-02
2.054623189995160026e-01,3.986801464222482900e+04,-7.197864289618739753e-02
2.011542383902690523e-01,2.565438984328230435e+04,-4.184608630039175770e-02
2.012853641485279343e-01,3.892430247395262995e+04,-4.265702920229659523e-02
2.108206969873975267e-01,1.989496708668024075e+04,-2.244449164813006742e-02
2.005933819723236256e-01,3.610129668115862296e+04,-3.886096137498801922e-02
1.914600746233238726e-01,3.361123557870149671e+04,-6.592428530764445072e-02
2.235884859491752419e-01,1.669786531039689726e+04,-4.122472474170252310e-02
1.940191186888458597e-01,4.172030890873115277e+04,-4.841547962130372112e-02
2.042386015986951686e-01,2.557323131025953626e+04,-2.535881106865531948e-02
1.888053310038970423e-01,4.488304711915781081e+04,1.081747194787024691e-01
2.025999462854338462e-01,9.123227509782314883e+04,-8.274459536173084384e-02
2.013404303599507228e-01,1.561584513440247065e+04,-3.604487673014061117e-02
2.010080325019272529e-01,3.572034500627300440e+04,-3.972159939063085732e-02
2.071171982207395124e-01,3.564823742737110297e+04,-5.707547610863737512e-04
1.894136734834355740e-01,4.231314451596490107e+04,-8.356752214997335837e-02
2.006563165054393028e-01,4.320348420917418844e+04,-6.192237267046401400e-02
2.008636241948366929e-01,2.082729487154364688e+04,-4.007448371139017348e-03
2.061540769569387144e-01,3.845946848929554835e+04,-2.467766192115822960e-02
1.889071397720690770e-01,5.498568966314823774e+04,-4.258205742355328921e-02
2.040476233428797359e-01,4.254995014422100940e+04,-3.009660806317491014e-02
1.915384800711650015e-01,4.203793865071921027e+04,-5.434191583206373494e-02
2.110575606460991793e-01,1.785052515620001577e+04,-5.476745387634485152e-02
1.994008435304213400e-01,4.646361480901663890e+04,-6.076040796675164640e-02
2.089403918320667797e-01,3.511853744874247059e+04,-4.597520504969750121e-02
1.600257574097755098e-01,3.810194517037043988e+04,-2.281674163785081186e-02
1.750563994649307620e-01,7.667905368329038902e+04,-2.461550988162258119e-02
2.165659615005743333e-01,1.855565246610046597e+04,-2.125663921229453690e-02
1.978166540161312437e-01,3.346564052167026966e+04,-1.158268140368447219e-01
1.876813206906197962e-01,2.712220813346129580e+04,-6.764747336272308731e-02
2.056051074410958912e-01,2.703007309487974999e+04,7.688493840673174540e-03
2.037539085525690019e-01,3.393593056486776914e+04,6.025548577688452992e-03
2.033650112678131172e-01,2.887722762181978032e+04,-5.979403354308859830e-02
2.186244224621020915e-01,1.635550278078770680e+04,-5.868044649505818611e-02
2.003062529540303449e-01,3.970005585598459584e+04,-2.194763829819424902e-02
2.173791375755832755e-01,1.734630630192857643e+04,6.221766604905780299e-04
2.047351695000410587e-01,3.881919980535108334e+04,6.224264579105876286e-03
2.063967163854740494e-01,5.756181902484514285e+04,-4.308791439848357052e-02
1.968836174091906366e-01,4.850759126812774048e+04,-2.245978849582531620e-02
1.921180930086104910e-01,2.916217022490855743e+04,-1.472948514168145699e-02
2.093766538635504215e-01,4.351927632228890434e+04,-3.903997877828009611e-02
1.968111976558899745e-01,1.738146674254980826e+04,-2.767806264204490316e-02
1.995556528530122997e-01,2.136591844119258894e+04,-6.056541167449190632e-02
1.985233708000025965e-01,4.033644513488631492e+04,1.382696888336230542e-02
2.078187717520022515e-01,3.379912219595405622e+04,-6.617720418945806544e-03
2.122154575737309479e-01,3.464558598903641541e+04,-2.055284778803595849e-02
1.911140202550861145e-01,6.937063059496396454e+04,-9.916847951013323115e-02
1.883161430291821481e-01,2.840964428225256415e+04,-7.434470942496665402e-02
1.989246523681818257e-01,4.179535726513068948e+04,-2.871640720552524895e-02
2.010682204672940010e-01,2.675728797707406920e+04,-4.567990936144545634e-03
2.037088287391766728e-01,3.263951077655353220e+04,-3.790461598731936083e-02
2.056993455732634979e-01,3.297602592153981095e+04,-3.558949737854526230e-02
1.916747985102084662e-01,2.534571566938636533e+04,-6.839613722839354981e-02
1.942992934361571500e-01,9.065882873930425558e+04,-9.866498668297614752e-03
2.051172169069229445e-01,2.120655875133647351e+04,-3.103965120510891740e-02
1.981112833386503846e-01,2.009603505630783184e+04,-4.233459097751803013e-02
1.954438981630283456e-01,2.613163454224675297e+04,-4.645053753923959403e-03
2.181306092317817080e-01,2.142204276844796550e+04,-1.340506874002701972e-02
1.998865947291504075e-01,2.577528373304375418e+04,-4.576014661859498234e-02
2.210938732396885709e-01,2.084957961294368579e+04,-4.304516617701106829e-02
2.130102642401822677e-01,3.109041011056161369e+04,-6.934733699384067369e-03
2.004938083753566580e-01,3.432765374481401523e+04,-3.345619119888454396e-02
2.050656476972175513e-01,4.202720123955996678e+04,-3.700492174372634925e-03
2.052245040967382306e-01,1.703698524104295211e+04,9.601130042125215203e-02
2.137395994092818607e-01,2.748568125298211089e+04,1.937282845172095744e-03
1.948124338536611488e-01,1.848460829917139199e+04,-3.414211521896373669e-02
2.055592673016086724e-01,6.981040296887050499e+04,-3.533822395741668954e-02
2.153465167767354138e-01,2.146345927905629651e+04,-2.588874111146724499e-02
2.157296624908980331e-01,1.704703882743232316e+04,-1.162685268282077494e-01
2.204007939114407955e-01,2.258704951635135149e+04,-5.601022677923427756e-02
1.950523998536216885e-01,4.227764840600339812e+04,-1.019485208208107396e-01
1.992091936414847053e-01,1.790990160749746428e+04,-4.108242147816540402e-02
1.946564698449829156e-01,3.052923034462688884e+04,-1.235121223210441932e-01
2.031937328524742181e-01,2.585020439477357286e+04,-6.512355574632025523e-02
2.132628798596501452e-01,1.814167247829167536e+04,-5.209633970430960215e-02
2.035298749918513228e-01,1.939704474136553472e+04,-9.733624698015046206e-02
2.083564733610634157e-01,1.466929239795643662e+04,3.800583485290228575e-02
1.883040357924658237e-01,3.511770863991788065e+04,-9.309822455689904797e-02
2.058635392604401815e-01,3.715538921243361256e+04,-5.053789852128668519e-02
2.053113565551383524e-01,1.872489557366714507e+04,-1.456110193604399396e-02
2.063092312457253663e-01,2.607959157780040550e+04,-3.096493782081090329e-02
2.074250535323834410e-01,2.609002908624613337e+04,-1.046677828535858348e-02
2.095351473969548350e-01,3.700132072763598990e+04,-6.032715427758890718e-04
2.088502693531600618e-01,3.383365378700151632e+04,-4.659926754780249064e-02
2.113405326342567558e-01,2.004561636893996547e+04,-5.275838069374786526e-02
1.972012228802633715e-01,2.308726229365679319e+04,-7.356594810654802641e-02
1.828770430832866445e-01,5.604151588106212148e+04,7.190377399408641457e-02
1.876495258617116024e-01,1.679340683420765708e+04,-9.559820234663699012e-02
2.044957105601820924e-01,3.024675763537078456e+04,-4.826263205040391691e-02
2.045403098097616224e-01,2.851182601031735248e+04,-2.507504529328465764e-02
1.847811586515527293e-01,7.135652422025898704e+04,-9.235331907314524302e-02
1.991804096410955682e-01,4.056342584243880992e+04,-3.387718664250085471e-02
2.084661615438181403e-01,3.325057752087998961e+04,-3.695269399903971380e-02
2.044162689444710690e-01,3.351724319792672759e+04,2.061680901230639185e-02
1.999826737601930471e-01,3.260477001205459601e+04,-5.743793740545537208e-02
2.048794272101142344e-01,2.747017646473599598e+04,-4.613241137241130135e-02
1.970072875270904300e-01,4.042316239858068002e+04,-3.385102234603930282e-02
2.016355914547208750e-01,3.471493137204147934e+04,-3.390835066762741198e-03
1.832439856193036065e-01,4.446744345518430055e+04,1.415879157341716141e-02
1.908433177537610936e-01,3.436440824398486438e+04,-9.983905866519325600e-02
1.970300437773965796e-01,1.740488082336593652e+04,-3.254164355047777565e-03
1.896494537443126904e-01,2.316040064138951129e+04,-6.700544885176429322e-02
2.007179140693736430e-01,5.375967908794163668e+04,-1.096332993524754273e-01
2.044087527867348431e-01,3.823046103377603868e+04,-8.332018611001425212e-02
2.128828207274396367e-01,2.487818246351290873e+04,-1.689059989458958910e-02
2.009209373720193259e-01,2.805957233398583776e+04,-6.896044504059008207e-02
1.980949321663146023e-01,3.615230218570337456e+04,3.552070139550662919e-02
2.032758390565137518e-01,3.393349479962223995e+04,-6.216558736320265677e-02
2.028126737319307649e-01,3.997690090551319736e+04,-1.962815568836426619e-02
2.133208757935007860e-01,1.511669947791080631e+04,1.228921962526080894e-02
2.084668829091229081e-01,4.074131605658910121e+04,-5.174542990187189911e-02
2.015015351004448563e-01,3.781594290455922601e+04,-2.168415983015949122e-02
1.838945410084096010e-01,3.414955344203926506e+04,-7.932365673352102797e-02
2.040523645914731898e-01,2.291390164275326606e+04,-1.097862699616912636e-02
2.110749937734454629e-01,3.066567788082262268e+04,-8.321872885400319331e-02
1.982742253177864344e-01,2.236805661956320546e+04,-1.971921758745389525e-02
2.020084017159550216e-01,3.860534512934015947e+04,8.943502115008748060e-03
2.124964873478445149e-01,2.021664325924729201e+04,-1.212690393446480726e-02
2.012054206625382147e-01,1.745490494978514471e+04,-8.191640763397957381e-02
1.949862958233415933e-01,2.266320595608238364e+04,-1.394431250712720562e-03
2.100113479000814687e-01,1.562945048576120644e+04,-7.124065447216562652e-02
2.101460313040997285e-01,1.837407032804277696e+04,-2.231539156929262732e-02
2.119034642521249456e-01,2.059576637138432852e+04,1.606927990190169797e-02
1.939699622796466350e-01,2.838784935813841730e+04,-1.119927722512402829e-01
2.131997299388423417e-01,2.404726438436642638e+04,-3.301529564726377042e-02
2.021752468840465888e-01,3.518471841383394349e+04,-4.223746734769411731e-02
2.106922962353003637e-01,2.824870713496475219e+04,1.398030020842086496e-02
2.081170780101272155e-01,3.941914681993720296e+04,-1.960908737677007074e-02
2.074621582035647838e-01,4.082319473892208771e+04,-9.015987442693320850e-03
2.024255059791522926e-01,3.686058839725449798e+04,-1.519912542848398176e-02
1.974842528618551418e-01,2.099234997614752501e+04,-9.598323861473348484e-02
2.029724605572970075e-01,3.672683798245476646e+04,-1.380670436762901354e-02
2.011377066802696179e-01,1.779523627673453666e+04,-4.719382244868965820e-02
2.205467994175813740e-01,1.809099037065181619e+04,-3.440623774610243601e-02
2.162820062143077926e-01,4.489331254845173680e+04,-1.054396680544178629e-02
2.061295319201884579e-01,3.532045932748858468e+04,-7.938422066589410518e-04
1.975368997648738745e-01,6.782917796670222015e+04,-1.176167453808411312e-01
2.011608297529811074e-01,2.573998370238193456e+04,-6.558129093101941476e-02
1.984070046099240259e-01,4.125644688323896844e+04,7.039805362845822506e-03
1.844892081822091801e-01,2.396057195498773217e+04,-9.270219373069893409e-02
2.008230894644307818e-01,2.415760592501390784e+04,-4.250188765463978197e-02
2.104316530594158297e-01,2.974692074147190579e+04,-2.630921771078252938e-03
2.054947842090203425e-01,3.443400217909454659e+04,-1.120289238763041290e-01
2.046561556179477270e-01,2.419838696615997833e+04,-4.016501835586525071e-02
2.017658393791667837e-01,2.539811207783271311e+04,-2.533447663934915509e-02
1.922324536356766755e-01,2.481371003656352696e+04,-8.111515652787944231e-02
2.070618642782121044e-01,3.319492629974920419e+04,-5.855227212879055010e-02
2.210357169060824245e-01,2.084609427492418399e+04,-8.655900593903455287e-03
2.202271420843623928e-01,2.134750713349588477e+04,-3.161185534537554187e-02
2.164701921719455191e-01,1.869808604585344438e+04,-1.073746291852557128e-02
2.007826541836985057e-01,2.381026993471417518e+04,-3.178245807114390975e-02
1.960087642508284156e-01,5.154864538442977937e+04,-7.196990463336608301e-02
2.144815616068788677e-01,2.225152132777567749e+04,6.699286441996598436e-04
2.129580327331199174e-01,5.103437366401702457e+04,-5.750518392885162894e-02
2.073388358372277029e-01,3.759949644351756433e+04,-4.506234111555719457e-02
2.076479689607212964e-01,2.700069149424594070e+04,5.746384038491860954e-03
2.056473925779686018e-01,3.829616397383475851e+04,-4.958579606350486946e-02
1.791593914365984530e-01,2.725334702919427218e+04,1.859439698165183952e-01
1.978424682291484160e-01,3.192294770071541643e+04,-5.313648341996173030e-02
2.151923693379658165e-01,2.703779018346218800e+04,2.043227969170217928e-02
2.020221815580246216e-01,2.651604154452694274e+04,-5.459274449100815635e-02
2.062279839540129278e-01,3.107839709505058636e+04,-4.185942502308751673e-03
1.949111838161480537e-01,2.741541539043022931e+04,2.436238386066750389e-02
2.013506560326049633e-01,2.320096217709936900e+04,-2.819344117449000889e-02
2.064042173396735402e-01,4.080130437245621579e+04,-3.251600787869640685e-02
2.110677323833426988e-01,1.938990440101773493e+04,-3.355493192018320359e-02
2.118464315564521361e-01,2.391630524228521244e+04,-3.840641391802690485e-02
2.133987240926060458e-01,2.385630928914117248e+04,-3.413387362712377165e-02
2.033511765126256032e-01,3.657488037990375597e+04,-1.664088476443324055e-02
1.609561548900868555e-01,2.879939287375712956e+04,-6.878298852306465039e-02
1.939748677993080594e-01,2.555023136700010946e+04,-6.176454958689300140e-02
2.017733205186615641e-01,3.569822218604150839e+04,-1.221400221961969727e-02
2.287047946326946912e-01,1.670430862090959272e+04,7.366918448824416946e-03
1.912266523945304608e-01,2.723989699544724499e+04,-3.812894913278712383e-02
2.122412111686927394e-01,2.868315898620117150e+04,-5.733835725267599076e-02
2.084478297009995929e-01,4.595043518175271311e+04,-3.406969902772900155e-02
2.043001099964216194e-01,4.944580131383033586e+04,-2.538937072613266233e-02
1.891194818487110241e-01,3.930927184061145817e+04,-5.440397581694361023e-02
2.164158592656998947e-01,1.941259720621140150e+04,-7.898732611360084754e-02
2.069322841851786998e-01,2.239360404643456422e+04,-5.596018617723620692e-02
1.796878927986661767e-01,9.082511114629005897e+04,-1.189861048489925244e-01
2.088437811684673850e-01,4.219600303642338258e+04,-1.304540819715527267e-02
2.006700475833298192e-01,5.069316590075113345e+04,-1.832651588125676356e-02
2.027539845934623886e-01,4.996844117456406821e+04,-4.920856572932062745e-02
1.954123704023931207e-01,3.728729930300716660e+04,-8.477355733971853047e-02
1.870212770145645298e-01,3.992204025659639592e+04,1.409626034067682221e-01
2.048195527523272719e-01,2.874164091475351961e+04,2.702658881804677338e-02
2.004051186775700211e-01,2.704866386496143969e+04,-4.140739385490872088e-02
1.939659590216131768e-01,3.744146228751387389e+04,-1.260253842476561636e-01
2.034889439881513440e-01,2.757302633953991608e+04,-2.889265312912361883e-02
2.080771397190812888e-01,3.354345670817721111e+04,-3.200567755635773393e-02
2.141815281727989240e-01,3.393635160201867984e+04,3.884557714523585552e-03
1.790281600955612729e-01,5.572397449974236952e+04,-4.644199729346165650e-02
2.125527929606372823e-01,1.699141226831039603e+04,-8.388448833639881863e-02
2.057756374190563564e-01,2.552010451115224714e+04,-3.143092932795879535e-02
2.004752589248253170e-01,2.328153490437349683e+04,-1.948768695994371886e-02
2.018825667797448375e-01,2.815930338186463268e+04,-6.084628601727944119e-02
1.986663847627656299e-01,2.874909722465264349e+04,-5.677208466186427910e-02
1.999402000314805528e-01,4.714848090545387822e+04,-1.993702135843011466e-02
1.993016562458205243e-01,4.335691918333931244e+04,-5.697749421713102589e-04
2.028790271909096665e-01,2.867758341864426984e+04,7.120439664089341092e-02
2.008482128988819670e-01,3.865261592218934675e+04,-1.542424253671197294e-02
1.950620982998280128e-01,3.499006794898196677e+04,-8.010768223980831160e-02
1.982212295846766115e-01,3.297736842246991000e+04,-7.666378530093356791e-02
1.951613069284148516e-01,3.362635269976611016e+04,-7.375254087166842332e-02
1.986721454798436315e-01,2.341955038570895704e+04,-4.987795524887481124e-02
2.005958562242161070e-01,3.261794158942912691e+04,-8.716031423577513815e-02
1.900652104099108952e-01,3.251592399321032281e+04,-8.320540374541548351e-03
2.117036226772812668e-01,1.518828908603735363e+04,-4.581315547309763175e-02
1.922482615759260050e-01,4.225174017683338025e+04,-7.439630262668531224e-02
2.125511685008716900e-01,3.831840043734521169e+04,-5.548159718426774051e-02
2.054828431011783418e-01,3.629829533237961004e+04,-2.852278090444174824e-02
2.093175976258927762e-01,7.574440619655199407e+04,-4.079436970455167094e-02
1.882363690061543415e-01,5.118534980720176827e+04,6.247466658870241829e-02
1.880852230836657646e-01,5.749354979902516061e+04,9.383423489401204742e-02
2.071948909374540793e-01,2.486664373966206404e+04,-4.142588168516611602e-02
2.012780464303350336e-01,4.205877005786674272e+04,-4.444291806663746604e-03
2.039766695730348134e-01,1.669024457270367930e+04,-9.597479072301198788e-02
1.917471338891718613e-01,6.754027407317384495e+04,-1.340731309446555330e-01
2.080972777960050368e-01,2.825567445626583867e+04,2.218116646763194921e-02
2.151030720256530138e-01,1.709119455412242678e+04,-4.141356498260325564e-02
2.150739680265525144e-01,2.690623730779137259e+04,-4.270021049083577713e-02
2.099494283146611517e-01,2.125101840738292231e+04,-9.566031410644982441e-03
2.134850193776498262e-01,2.890329323187999762e+04,-1.059782423137512267e-02
1.801711276786085725e-01,8.608900247659755405e+04,-4.357979751075196501e-02
1.944955411661234701e-01,2.371583894289778982e+04,-9.748582156821390676e-02
2.056132162891661508e-01,2.872869932586542927e+04,-5.037107955137753307e-02
2.006636780429540690e-01,3.018363204620268516e+04,-7.703508373109949070e-02
2.055160242180411045e-01,2.074862254994160321e+04,-1.758617151696404909e-02
1.947235478620092664e-01,3.342616234482944128e+04,7.062907828184505910e-02
2.161918444241703041e-01,1.510827094073722583e+04,-4.700167053314048549e-02
2.091145241093175233e-01,2.507447540578513144e+04,-5.769517472776653638e-02
1.978186239432017102e-01,2.368276786176930909e+04,-8.259815375809245047e-03
2.043072624974593965e-01,2.318584217797919337e+04,8.329798406467379956e-03
1.759799040368382472e-01,7.962999378279193479e+04,-9.217648739385585210e-02
1.927296668322822093e-01,4.091592833299880294e+04,-5.949313898630659986e-02
1.764073913344139377e-01,1.058227088564741571e+05,-1.574912823136248030e-01
1.953623168066021543e-01,4.578311871834242629e+04,6.289750718825058706e-02
1.980405919843537255e-01,2.526494454604403290e+04,-5.035892612365361343e-02
2.084877094069781389e-01,1.739746952860933743e+04,2.814391049771680642e-02
2.088966870346435356e-01,2.926452130198514351e+04,-2.433753975486354498e-02
2.004094200698550987e-01,2.754375492318324905e+04,-2.724441432408156519e-02
2.096589163911464215e-01,2.331932612488698578e+04,-5.014617360368252980e-02
1.959970443871061618e-01,2.972299357625886842e+04,1.485401918025578034e-02
1.982056366481255993e-01,1.762231755266705295e+04,-6.831760404838604916e-02
2.064283633826170528e-01,2.815070273283305869e+04,1.584417703478190401e-02
2.025984485261102808e-01,3.947869976184441475e+04,1.891466362803506662e-02
2.028469087365029622e-01,3.078896804103449540e+04,-5.835510531494064734e-02
2.157768448159323726e-01,1.943689841975556919e+04,-6.312440795845671027e-02
2.093085865752000174e-01,2.937052691301981395e+04,-5.828214947638012122e-02
2.150571765473288932e-01,1.784497611711972058e+04,-4.049347485035879185e-02
2.121910136613275322e-01,2.557293305668509129e+04,9.899836571048716526e-04
1.852900936716195823e-01,1.589311327508654722e+04,-5.986131682822846967e-02
1.883794465042197830e-01,4.642573465018672869e+04,-6.636616130988005902e-02
2.029920508200973028e-01,3.835772245014163491e+04,-3.646426878818130601e-02
2.012669938550654680e-01,3.724024560799227038e+04,8.619726528177266978e-03
1.983769800466975153e-01,3.821831834550235362e+04,-5.310270562109677822e-02
2.075421721693637422e-01,1.576037698540981182e+04,-3.900547530314323746e-02
2.027295245353839537e-01,2.613976526400571674e+04,-7.452227348037988863e-02
1.853011369642428297e-01,2.573449283760782782e+04,-7.817497382196657296e-02
1.935726301378384029e-01,2.084653962545512695e+04,-1.974236516989012064e-02
2.085957844091606561e-01,1.845434481109647822e+04,-8.395424795660096084e-02
1.967182002421425102e-01,4.174434718666928529e+04,-7.271618965573618809e-02
2.027010977771219746e-01,2.508672974722632716e+04,4.875918332188198742e-03
2.079874746837149790e-01,3.966281654677950428e+04,2.045462931737860538e-03
2.067034581206750044e-01,6.726832038801495219e+04,-1.110771695446200087e-02
1.957940060202457977e-01,4.574177309176576091e+04,-5.762498158440564761e-02
2.045116037542284437e-01,3.051649089538232511e+04,-2.280648964296018444e-04
2.016646023385404163e-01,3.157692175442968073e+04,-3.000751192580743479e-02
2.072866909761699739e-01,2.276478895178674429e+04,-5.322586505680795832e-02
2.132943602816031181e-01,1.821582019182717340e+04,-2.444178044844327879e-03
1.983524046411976050e-01,3.952680514596209105e+04,1.942994602848175864e-02
2.093478997582872425e-01,3.309698500158738170e+04,-3.120593427097744649e-02
2.095453426134191444e-01,3.934597539328131825e+04,-2.370327716392714099e-02
1.869887503269801465e-01,5.034252676536673971e+04,-4.348806942296157968e-02
2.009171574166350172e-01,2.171219855432757322e+04,-1.022177686618361697e-01
1.988754788556162389e-01,2.944643976393012781e+04,7.720609704742270596e-02
2.116747679967448392e-01,1.935959231345658191e+04,-8.323806278742569564e-02
1.890986273834401599e-01,2.362015051062426573e+04,-3.219540849684835847e-04
1.950177952247481028e-01,4.098289025094488170e+04,7.933190932728087508e-02
2.001445786985230624e-01,3.630694560839149199e+04,-3.973316904232443436e-02
1.950446795592371552e-01,3.444057594334556779e+04,3.202864939597187960e-02
1.981916356753471442e-01,3.317364553126744431e+04,8.369758940848327777e-03
2.003062179050913161e-01,2.632848154336463995e+04,-4.277871132807194859e-02
1.907419595143488855e-01,2.478379712337833917e+04,-1.059015238071935594e-01
2.051865240224386433e-01,4.034239309729383967e+04,-4.132535359174479422e-02
1.946135344169650228e-01,3.641574495352134545e+04,-2.317129406399614372e-02
1.942352195686617988e-01,4.361620063415095501e+04,-4.305572673301499322e-03
2.059529009737372796e-01,3.062280778175990054e+04,-4.439611700336583422e-02
2.052690883711931202e-01,2.728442537970701596e+04,-6.108392540870065390e-02
1.941332998492105721e-01,1.498527871017066354e+04,-6.313299911453858215e-02
1.915675585585234486e-01,3.493050896263890900e+04,-1.532016605070771025e-02
1.912905846360670736e-01,3.200271953882615344e+04,-7.752255368451492490e-02
1.972861927818773120e-01,3.523853361726576986e+04,2.340275755602996138e-03
1.912344655934562487e-01,2.746913397968586651e+04,-9.385507546170746007e-02
2.076240055092429260e-01,3.330048281697802304e+04,-7.294640057735997385e-02
2.067748948105040951e-01,2.807855083579665734e+04,-5.077518544162618053e-02
2.068149677966731881e-01,2.922762519144173712e+04,-8.367807184411418797e-02
2.096659381296798186e-01,3.370989912446775998e+04,-1.326918875617219204e-02
2.109330396587184853e-01,4.526739423057186650e+04,-6.780146163039105223e-02
2.076438778847260191e-01,2.907591347967603724e+04,-2.385363458396668607e-02
1.966696831670340373e-01,4.618808047987367172e+04,1.417946753953007177e-01
2.082503585797140511e-01,3.990076847524024197e+04,1.628347144656962578e-02
2.103223631960537687e-01,3.135680786266016730e+04,-6.308154917227912217e-02
2.042054658133992118e-01,3.242471581786599199e+04,-1.254606781703923287e-04
2.013230309430782405e-01,2.888896893367987286e+04,-3.079578209723158808e-02
2.227311832731475039e-01,1.755832034274417310e+04,-5.730401016490262178e-02
1.863636307958048133e-01,3.914341970775421942e+04,2.293214919544006580e-02
1.930638207029392039e-01,3.382673412293374713e+04,-1.168084272386234329e-01
2.046532923278121530e-01,3.290809069984436792e+04,5.352398601163090843e-04
1.908584149152570686e-01,5.238182984006966581e+04,-4.189475191291415490e-02
2.209905380322112201e-01,1.989476055874660960e+04,-4.973912495624072810e-02
2.064055767943789865e-01,3.881942459427034191e+04,-3.710737620506021628e-02
2.185679722021348637e-01,1.886076807614411518e+04,-7.587466395571219879e-02
1.899525164215505879e-01,3.470143613044105587e+04,-6.642538967691458129e-02
2.002272136672719471e-01,2.182975385706089946e+04,-1.060598396629710283e-01
1.675999433098098457e-01,5.279328503601589182e+04,-3.900221413323492776e-03
1.941412951188890568e-01,3.400468391991996032e+04,-4.977375595894028421e-02
2.051606654937045970e-01,1.889566572230417660e+04,-7.150801297997025352e-02
2.092205127923832675e-01,2.815283308538236088e+04,-1.985910910381083472e-02
2.115365351813993655e-01,6.389107971707159595e+04,-3.718757237415137168e-02
1.912026930606595676e-01,5.105112260267075908e+04,1.845487471198233864e-01
1.929855967458549704e-01,3.856081558568189939e+04,-6.653840149682184457e-02
2.176515362810529652e-01,1.674906458084645055e+04,-3.948577840262916527e-02
2.006283576165131532e-01,3.715165034436994756e+04,-2.364185224216540371e-02
1.997788570472120440e-01,3.733347463876847905e+04,-8.099181844207088699e-02
2.024205297365301581e-01,3.093802307934248165e+04,-3.625824994493575398e-02
2.038909325178565601e-01,1.961599396278884524e+04,-7.426192559814003002e-02
2.101595763552847884e-01,2.151839792569623751e+04,-7.188140462515290804e-03
2.053975788406932068e-01,4.212491328414389864e+04,-4.089789431119620483e-02
2.070923539767319799e-01,3.790558159072761191e+04,2.428886489302989338e-02
2.063774209927380088e-01,3.241852377656320095e+04,-3.102934649811415688e-02
2.058058582118010571e-01,1.672432208771409933e+04,-9.281896355554258848e-02
1.938386515870575144e-01,7.095239131833854481e+04,-7.871557546804600070e-02
2.124775933431404529e-01,3.561787760110777162e+04,-2.554596583756683220e-02
2.001177344467498509e-01,4.727360886969054991e+04,-6.553383113789094938e-02
2.157399721665869130e-01,2.225956048916072177e+04,-3.329195171835116346e-02
2.072900150715092371e-01,3.303014034960725257e+04,-7.601419847458214599e-03
1.984633212389099732e-01,3.641808207526314800e+04,2.331555125390252781e-02
2.047847155008414022e-01,2.505626516601979529e+04,-3.475541261586247849e-02
2.104436152379353109e-01,2.080966070160758682e+04,-3.876486924671478790e-02
2.076078447208184186e-01,4.912916565215239825e+04,-2.552665801531863593e-02
1.977444896638950733e-01,2.321050310790698859e+04,-2.639831358841482692e-02
2.125497556895269147e-01,1.768184304658513065e+04,-8.301504989634593545e-02
1.939809299914972696e-01,2.435796323311755259e+04,-4.518701566931369873e-02
2.067080376269254116e-01,3.839993319560406962e+04,-2.680555639839652879e-02
1.918455710488506938e-01,1.870739505723673210e+04,-4.972379103777197634e-02
2.001967272508729523e-01,3.372404058714870189e+04,1.058763166208962804e-02
2.003821714122198117e-01,4.562105875501384435e+04,-3.862564006704416464e-02
1.896338056583020959e-01,2.619666553867308539e+04,-8.421506404987652572e-02
1.934409349523277810e-01,3.109261134131340805e+04,-2.999618194246455108e-02
1.857398175594218992e-01,2.526821848535179743e+04,-1.052112407718016895e-01
1.963479661111735275e-01,2.572321315096985199e+04,-5.648588575137693073e-03
1.908660143934947095e-01,3.053880661352032985e+04,-9.591637633994859469e-02
2.075962381228120823e-01,2.342729071408716118e+04,-3.943137564928782778e-03
1.962953946944412664e-01,1.914400061241502408e+04,-1.896342451189792985e-02
1.960265422039524918e-01,5.688976694551453693e+04,-6.345180134967012830e-02
1.900265388456366111e-01,4.175919621431667474e+04,9.254630904732832897e-02
2.072058918192335730e-01,2.530681852588702895e+04,-6.305269023222523361e-02
2.129423067014799276e-01,1.826285544743727223e+04,-5.561151299375147183e-02
2.019914691115731464e-01,4.513013502582540968e+04,1.402329120763058136e-02
1.986665641051005571e-01,2.888235150157609678e+04,2.072592456470240610e-02
2.151258113001868477e-01,1.555314145776184887e+04,-2.263072197167350502e-02
1.940340452159598494e-01,6.002502048014284810e+04,-2.835922383753365292e-02
1.896405690029666358e-01,4.431343977147976693e+04,1.704299987739073541e-01
2.136973148150885238e-01,2.662821539369595121e+04,3.300473537058713769e-02
2.064282143334346120e-01,2.900371167055694241e+04,-6.075052536858296243e-02
2.054407097968184992e-01,4.170236023082550673e+04,-5.319975046632018090e-02
2.100530218998045706e-01,3.161042692791102672e+04,-2.731626185984844038e-02
2.003522982899686999e-01,2.139405778391050626e+04,-7.757668446241466897e-02
2.086974889924093635e-01,2.911687049631660193e+04,-1.739017582364467407e-02
2.019917736413660569e-01,2.615234703065539361e+04,-1.766771722704887221e-02
2.134105133748749883e-01,2.055592327190518699e+04,-4.907067100803264026e-02
2.036180051734886309e-01,3.193188817005224337e+04,-6.529144625251837031e-02
2.096124474543711036e-01,1.796553426426006263e+04,-4.752483065179637090e-02
2.041102982944760225e-01,2.005380836292836102e+04,-5.375259726239621505e-02
1.888129484552311110e-01,1.809904196974492879e+04,-5.856384096449352566e-02
1.962600855827146829e-01,2.244767326171986497e+04,-5.629770478266753891e-02
1.973436180378068672e-01,3.273804373346026478e+04,5.523935159863159819e-03
2.102449539698257874e-01,2.775516453961808293e+04,2.424318621866886070e-03
2.024843795221613063e-01,5.140261945960046432e+04,-1.195734899780996098e-02
1.868143912788756411e-01,3.124928700523709631e+04,-9.853071215348523093e-02
1.915101622402138604e-01,6.685929275596963998e+04,-3.101081446237653055e-02
2.074328275458514337e-01,2.032858908064717252e+04,-5.537547665806143854e-02
1.819176438281334407e-01,3.454753339820628753e+04,-9.304444833093775125e-02
1.858747666458790415e-01,4.771758067440011655e+04,4.900109922349166897e-02
1.996059298624526246e-01,3.434979769241237955e+04,-7.326327979936226448e-03
2.010997289803527766e-01,3.135612956183824281e+04,-3.339678856364224069e-02
2.008660142878638810e-01,3.872474988201523956e+04,-9.812582681099359105e-02
2.232805364916941593e-01,2.118857126663615418e+04,-3.344477795022501865e-02
2.035388251147500216e-01,2.705811923840277450e+04,-2.224917637792273029e-02
2.184478516331791464e-01,2.578229377943380678e+04,-1.912062115110140653e-02
2.031720821763684237e-01,2.255299648382660962e+04,-5.495146309733092704e-02
2.185608904546995634e-01,1.870183982894577639e+04,-1.131234285599117331e-02
1.959173239570183578e-01,2.524922563245904166e+04,-2.458289755821361014e-02
2.000525420430696033e-01,5.702660504622200096e+04,-5.843474292105119150e-02
1.986084760835580554e-01,3.954644874899496062e+04,-1.326880045881662779e-02
1.991636258496070067e-01,2.790879019647073437e+04,-2.592603266299454284e-02
2.079932393031644067e-01,3.744313164833789051e+04,-6.220718746557348661e-02
1.924640870673421378e-01,4.375405453148075321e+04,-3.075838572422323614e-02
2.149213456128994670e-01,4.057081262350952602e+04,-4.219212225591053439e-02
1.942210201298020800e-01,1.662955473217802501e+04,-1.155990143921823143e-01
2.068642978942202559e-01,2.434562884759141525e+04,-4.993663888758451130e-02
2.149624524035392004e-01,1.496920350312749542e+04,-2.327189456475015072e-02
1.918251585107428880e-01,2.854349323263989936e+04,-2.650538518628725235e-02
1.889659414394224690e-01,2.399947730130609125e+04,-3.537975313121335258e-02
2.086968096486214452e-01,3.146374708556260885e+04,8.451343560705032801e-03
2.020270637263679447e-01,2.499484208016480261e+04,-4.858838173418796730e-02
2.011528268642196748e-01,3.820348582158517092e+04,-4.580092308725054739e-02
2.108969776015362507e-01,2.437672876471757991e+04,-2.945976172271079496e-02
1.854260919369279392e-01,3.765560042967014306e+04,-6.731411144545922098e-02
1.999701580955771107e-01,2.430800788289403135e+04,-6.506618306345191005e-02
2.040961756642979685e-01,3.147185790990799433e+04,-9.181750672754569742e-02
2.126321557060056877e-01,5.436028624388536264e+04,-5.389658252377513975e-02
1.940497391221167323e-01,5.033713026510503551e+04,-9.760357628188155721e-02
1.857124003488987707e-01,2.299667686679165490e+04,-5.512997627964634495e-02
2.007484047114224401e-01,2.407456178900337181e+04,1.346620349263275875e-02
2.049939351424876488e-01,4.911075075922819087e+04,-1.720484581828093593e-02
2.077577808468403509e-01,2.507807862527405086e+04,-1.845812027470510736e-02
2.073588006278087592e-01,4.060019750983963604e+04,-8.434089366766109319e-02
1.914155830544740367e-01,1.878928245296300156e+04,-8.461273771337309013e-02
2.080750717046775389e-01,7.026682667359606421e+04,-1.248819988067572523e-01
1.964642873938874379e-01,3.232520678875432350e+04,3.859447695868629263e-02
1.997941890799808107e-01,3.224061608214650551e+04,-3.177234424734328572e-02
1.983495965949370610e-01,2.847526335033810392e+04,-3.719380842367388945e-03
1.978366260526363829e-01,2.648626636294621494e+04,9.241000053290466740e-03
2.062646416793772197e-01,2.264797453394308104e+04,-3.843696649454014097e-02
2.112250896165956404e-01,4.461497533339616348e+04,-6.051095010185528200e-02
1.965804960119888478e-01,1.953805760153956362e+04,1.724848644287109434e-02
2.036723110325181774e-01,3.921330163202403492e+04,-4.051869172782898709e-02
2.192449616704298665e-01,2.403609840519366844e+04,-3.359931482832907018e-02
2.124591196041061836e-01,3.327033324936454301e+04,1.756101431858063736e-02
2.013246523211124628e-01,5.764818278247224225e+04,-1.148667000293720694e-02
2.014386557857578419e-01,5.031018021251542086e+04,-7.600111343310571310e-02
2.050273906425782999e-01,4.736715795657054696e+04,-2.760271448848174852e-02
1.907154866453950603e-01,3.019650158176158584e+04,3.039674687748447623e-02
2.070805217551288935e-01,2.956496935516885060e+04,-4.546343915348717568e-02
2.050419036978016196e-01,7.219086232538895274e+04,-6.824872963455339003e-03
1.983443620615268077e-01,3.740322989172783127e+04,-5.415582243756317943e-02
2.092279640399620222e-01,2.436536993820382122e+04,-3.215583577174338428e-03
1.998896587512386525e-01,2.273408762365315488e+04,2.065193380757431550e-03
2.031503673331110371e-01,3.035807417506898855e+04,-8.083851752495616050e-02
1.982155431411090907e-01,3.601037429545621853e+04,-6.696062815133436985e-02
2.011906371972012608e-01,2.074796451023247209e+04,-1.809163807868064550e-02
2.045140331447192206e-01,2.505615428246810188e+04,-3.331893323416539043e-02
2.095610670026799294e-01,1.824021980732060183e+04,-1.758513177075062689e-02
2.053082905124682389e-01,6.251039667933575402e+04,-2.515336048533232602e-02
1.956010763865219659e-01,4.389634196501095721e+04,-4.672930808349710224e-02
1.766456659709839949e-01,4.602502864795095957e+04,2.558153152217391701e-01
2.088673662504014483e-01,3.882767930896276084e+04,1.570878469491481313e-02
2.051738181029423569e-01,2.533787380831269547e+04,-6.963171742771998018e-02
2.045838569657982831e-01,2.376633633286517579e+04,6.415384045113124711e-03
2.021670897932187627e-01,2.819929905464183685e+04,-1.154795936046285922e-02
2.048352640896982935e-01,3.707302224076956918e+04,-1.022563711092286665e-01
1.966829657638828333e-01,4.888028461643621267e+04,-4.732160812921508419e-02
1.954052519773822882e-01,5.549443178693382652e+04,-7.641893290321875865e-02
2.004941302875742626e-01,3.098658175802806363e+04,-4.055676260319233256e-02
2.019288568375635085e-01,2.429431479122072778e+04,-4.654743221126792646e-02
2.080096232642425214e-01,3.844537251461909182e+04,6.222043763388332600e-03
2.207380054529136104e-01,2.090363678853356760e+04,-5.438087830269720813e-02
2.014804900825832579e-01,3.138730941035193246e+04,-3.784219860837684940e-02
2.070812951397202339e-01,1.953230488309686189e+04,-2.777023830293946088e-02
2.089095284537975383e-01,2.474387756097037345e+04,-3.918424769122545032e-02
1.963289432857790728e-01,3.831571965116660431e+04,-4.846957317739515603e-02
1.937513465628818710e-01,2.378467142374879768e+04,-5.991680230367416038e-02
2.001270834428366674e-01,4.983421131675370270e+04,-4.812084693140807057e-02
1.733651033340603831e-01,3.441904393707742565e+04,2.583147563102749511e-01
2.019155978760253933e-01,1.994779269442849909e+04,-6.496644102227221163e-02
1.985799984742050717e-01,3.381108646828196652e+04,1.179852507829676905e-02
2.047030860626982973e-01,3.948287913146062056e+04,-3.768747923196347910e-02
2.058871574006379823e-01,1.656610316815317128e+04,-4.365987024504372482e-02
2.125056523314498846e-01,1.437585057866867646e+04,-1.457857760686724347e-01
1.966052279764627375e-01,3.759171218764001969e+04,-6.599707120401007709e-02
2.093598126790960634e-01,2.270228839838618296e+04,-3.251345557267835973e-02
1.915087354852189894e-01,2.441642158470152935e+04,-1.127274281433249814e-01
2.175508740567499710e-01,2.373366454498963139e+04,-2.736795541161383960e-02
2.053162692332080042e-01,1.704549095986405518e+04,-9.794458444182427628e-03
2.072529004445911038e-01,3.273302693928812732e+04,8.417497018331247458e-03
2.108965466344522588e-01,3.137785199861747242e+04,1.619833951476574649e-02
1.979777334392739674e-01,2.433462876496746685e+04,1.880917561681888853e-02
2.072622808926495031e-01,2.708770924519875553e+04,-4.272172363853428412e-02
2.094632131353365567e-01,2.489606997420830521e+04,5.394407021232971479e-03
2.070298715172162740e-01,1.859796015057570548e+04,-2.137607115505901767e-02
1.959078905077149269e-01,3.181765962945679348e+04,1.973190175670302970e-01
2.092112233243152430e-01,3.056007895434575767e+04,-6.888888080794180503e-03
1.970797528837140433e-01,4.284643457619858964e+04,-1.023171976487725759e-01
2.052430426788777462e-01,4.246442216985611594e+04,-1.442658108080801908e-02
2.082910905047570260e-01,1.744137425995261947e+04,-6.006801164867538179e-02
2.045827676255130012e-01,1.981014891821438505e+04,-4.026099719517960834e-02
2.158150807082221401e-01,3.154087903125802404e+04,2.430250738851118947e-02
1.841306302450617938e-01,5.443949115167463606e+04,6.866649988611044217e-04
1.947567726235962249e-01,3.887088431161348126e+04,-3.740049083253898371e-02
1.905802748847126582e-01,3.912141447266956675e+04,-6.827659283683580604e-02
1.922778321183421790e-01,3.016334825756779537e+04,-5.030884234832695007e-02
1.881880211640513945e-01,3.922729152133416210e+04,1.043339015504534187e-02
2.092336242764226417e-01,4.311576765448128572e+04,-5.149414186506509616e-03
1.950803138368288059e-01,2.637118347176667157e+04,5.711333838349151246e-03
1.949757930111276905e-01,3.590026979265849513e+04,8.012268269536626519e-02
1.837093595080770969e-01,3.142219068802667243e+04,2.200561687246421760e-01
1.962990020373084898e-01,4.103390616211848101e+04,-7.642043639000485611e-03
2.147225011849892007e-01,1.660183178459159535e+04,-4.447452352754038829e-02
2.140084973575724636e-01,3.418101673870217928e+04,-5.237524386396949505e-02
2.001633601688616593e-01,2.473627931265996813e+04,-9.413832258714624479e-02
1.922473954054109979e-01,3.191507429191559277e+04,-4.195827458134523957e-02
2.121928438396366579e-01,1.841712204561269755e+04,-4.469827283396028694e-02
1.786101690113297003e-01,5.737192192465564585e+04,8.273696725875745450e-02
2.135101799919969789e-01,1.505920912373109604e+04,-9.794211518848189302e-02
2.125281131079313768e-01,2.748857192231366935e+04,-3.192023195641633532e-02
2.065861112109027287e-01,2.345018021267843869e+04,1.656623300246681113e-02
2.047922395159098852e-01,1.717759365868052919e+04,-8.766108312118785217e-02
1.971518330395491403e-01,3.681458528526290320e+04,7.477012305548308424e-02
1.931229693146555570e-01,3.466130646485005855e+04,-5.278355327059910951e-02
2.066083884824122807e-01,1.807285581451229518e+04,-9.187841843601377012e-02
2.205478965727226126e-01,1.572713150300000962e+04,-2.513187244072782531e-02
1.987404887616826821e-01,1.808145490605542000e+04,-4.088724762826488786e-03
1.735720110804305216e-01,6.862981256773622590e+04,-1.137538884079606211e-01
1.940764956328629720e-01,1.834098761993351945e+04,-1.325635886827456200e-01
2.024692322562249291e-01,5.941358728874014923e+04,-5.448666363542804814e-02
2.053814420881842906e-01,2.787797886273689801e+04,-4.884195419111121705e-02
2.192280157010187414e-01,1.915555007514850149e+04,-7.961119045460559804e-03
2.048736252648236111e-01,3.071386263012504060e+04,9.591152647157735744e-03
2.084645316840155194e-01,1.859136074323705907e+04,-5.714026372161475076e-02
1.982021707093542806e-01,1.795597052616493966e+04,-5.224103313406768673e-02
2.069604678956246113e-01,2.648834496535224389e+04,-2.909525969265757891e-02
1.955885555759374894e-01,3.027733883959138620e+04,-8.021612580996059783e-02
2.057134241817504539e-01,2.915652231940001002e+04,2.990516352145200073e-03
1.861023335430977699e-01,7.676011097306646116e+04,-7.656553533161514213e-02
1.912326951935747754e-01,3.238787557776387621e+04,-7.667488665084282173e-02
2.025729090834613444e-01,4.487794400092486467e+04,-4.321908749126106286e-02
2.059758903050721845e-01,1.965260109807117988e+04,-9.736920772470705754e-02
2.074852219920181318e-01,3.753842076776668546e+04,4.679883093418131870e-03
2.124303123944848992e-01,1.936632334957232160e+04,-5.740097264865495763e-02
1.918796315821170717e-01,3.793570596610655048e+04,-1.438193356088846193e-02
2.053362547005045946e-01,4.696086011170297570e+04,-2.665472730121178774e-02
2.072081147430203385e-01,3.015249011084544327e+04,-1.048696204335848765e-02
1.642159758990806850e-01,7.515061150056090264e+04,-8.189668833304532269e-02
2.051197371958912996e-01,3.099566988103005133e+04,-1.162272992400128907e-01
2.159828515414186911e-01,2.347947945795052510e+04,-5.095184505790389257e-02
5.495368601872572256e-01,1.142603463427831448e+05,2.893179957127237412e+00
2.142151770339064676e-01,6.429107231185432465e+04,8.666306003612169739e-01
2.058750642177203105e-01,2.417362214205691271e+04,-6.170539538388587070e-02
2.076129221093336308e-01,2.541796350171253289e+04,-1.857378272045656295e-02
2.066587025270124889e-01,3.170323485384338346e+04,-3.473468403087914130e-02
1.916064768181596212e-01,4.114953471705832635e+04,-4.073573470477612202e-02
1.970731901571977918e-01,3.263069514431982680e+04,-7.285820100494816431e-02
2.070405614099471714e-01,1.900699802408256437e+04,-7.340267983264778251e-02
1.945217952968804065e-01,9.100427895262656966e+04,-1.776942784337276872e-03
1.863310712794604695e-01,5.593402972429807414e+04,1.564002767354580603e-01
2.018029390309671323e-01,3.285065549315647513e+04,-6.286701409071780711e-02
1.943090368900583231e-01,3.682427284251898527e+04,-7.243696235035503028e-02
1.980582057527929263e-01,5.221380805907872855e+04,-7.426688317093460556e-02
2.147057581617462241e-01,1.776044387156121957e+04,-3.308942514083829806e-02
1.965130337665662863e-01,2.229936594233961659e+04,-4.685830719692032909e-02
2.083199038381311763e-01,2.417051772299123695e+04,-1.679639773199695374e-02
2.088269560483576870e-01,2.823674699228654208e+04,-4.591374902079069925e-02
2.192118873503112464e-01,1.869896846486920549e+04,-1.528882963671056479e-02
2.031106794883485722e-01,3.163203430846857373e+04,-7.353099004521976290e-02
2.004580285630857550e-01,4.280569064803684887e+04,-1.954127315402851787e-03
2.030950098486195565e-01,3.658935426816082327e+04,3.179195455543994825e-02
1.987734029310634642e-01,2.763521502210712424e+04,4.035027414477361345e-03
2.125768494124943842e-01,4.055285940265311365e+04,-3.956419019890738964e-02
2.096229637387087841e-01,2.309736159034918091e+04,-5.530454883685352943e-03
2.021363893579950499e-01,3.413385074010695098e+04,-2.402921275784801122e-02
2.125303894118689696e-01,3.338098452312823065e+04,-4.569036252175933538e-02
1.981975908537268460e-01,5.228194273052141943e+04,-5.480896376374877477e-02
2.101520152283890552e-01,1.902751009872284703e+04,-6.650407163435504386e-03
1.942077801867249376e-01,4.664696956349538232e+04,-5.414865240966986598e-02
1.921647454256481258e-01,2.472587399940510659e+04,-6.268323367325270845e-02
2.272344214418634545e-01,1.453891619989686842e+04,-4.282360730335083021e-02
1.935745572087627653e-01,1.710382312761145295e+04,5.989234001526770601e-02
2.033204611872587442e-01,4.658900839604456269e+04,-4.468420251319777520e-02
1.899555913448278122e-01,3.484142159165922203e+04,-8.718335476094891956e-02
1.932493103754187036e-01,4.291430231399803597e+04,1.257377880241546987e-02
2.001790788619300099e-01,3.815411491859136731e+04,-1.457456574641885216e-01
2.043818305185418627e-01,3.420366105131484801e+04,-6.221058217658565620e-02
2.250819355787236631e-01,1.545543276014225739e+04,-2.444629332617274248e-02
1.949013220759807374e-01,6.037489743098479812e+04,-3.709630524236719878e-02
1.975486846610196301e-01,2.420630260426798122e+04,-5.182539257186032783e-02
2.003791507261429017e-01,3.812490472087460512e+04,-6.625829972538953283e-02
1.943767128183795934e-01,2.190632934690164984e+04,-4.078220999291128079e-02
1.878800074697495048e-01,6.998837161577283405e+04,-6.976220791835519019e-02
1.920089288587713272e-01,4.205222543824047170e+04,1.378096584516741718e-01
2.120420237313820622e-01,1.792681227401709111e+04,-8.343353280406201611e-02
2.148064226942424659e-01,2.629293673132316326e+04,-1.739540090556335183e-02
1.914802842380037007e-01,3.127550112752782661e+04,-9.899323298187791276e-02
2.155352001531582740e-01,1.753460446028644947e+04,-4.850797088945001112e-02
2.077833606274687162e-01,1.611669922286051042e+04,-3.190317823996637048e-02
2.083520955232978922e-01,4.675099848502430541e+04,-5.632207471447532240e-03
2.139621785135001897e-01,1.914829315775304713e+04,-4.292605082713626952e-02
2.038154188846292569e-01,2.202796015881259882e+04,-5.651313163474746409e-02
2.134099243465605034e-01,3.897773265468867612e+04,-4.807754828592480240e-02
2.112297718496536358e-01,2.018573393381376809e+04,-2.069522627995376562e-02
1.957509811127893240e-01,2.445701045061778132e+04,-2.772907290758598944e-02
2.094557090342931693e-01,2.700673061496173250e+04,-3.817356082113995686e-02
1.919253910152571851e-01,5.868351815787711530e+04,-1.013879908040295208e-01
1.978554847330410149e-01,3.258452316772529957e+04,-7.424166887846032903e-02
2.032219555101954511e-01,3.120949094655824592e+04,-7.020997413625373884e-02
1.995547063159922030e-01,2.610329088746313937e+04,-3.600707287624513309e-02
2.176599401552700153e-01,1.976624088935280815e+04,-4.591453600449032363e-02
2.160664340575454423e-01,2.848192527427960522e+04,-2.420178508886149799e-02
2.102998604685724637e-01,1.699093440438352263e+04,-6.654454500446860266e-02
2.076277165511196676e-01,4.828374439364405407e+04,-2.748260614106242880e-02
1.892287883064197596e-01,2.393132904173987481e+04,6.611908836002247658e-02
1.945139000562627063e-01,3.574160354184824973e+04,-7.749291255645955612e-02
2.045076386184223327e-01,4.410482002551825281e+04,-3.495963399212829309e-02
2.164619767785843085e-01,1.818855527832630469e+04,-5.882927755074344317e-02
1.863232271226950565e-01,3.741283373099379969e+04,-1.227275877059746251e-02
1.970189617439829233e-01,3.335891270235787670e+04,-3.951219352525378418e-03
1.989040127256535562e-01,4.693787647064468183e+04,-4.667963197395381958e-02
2.108065970938860501e-01,2.195656904782537458e+04,-2.257532924513747791e-02
2.097549274827960608e-01,3.382859147168378695e+04,1.902154607880421344e-02
2.046046718644244089e-01,2.624528166943007091e+04,2.102883741330719217e-02
1.955915578985247816e-01,3.021738605064483272e+04,1.415633121209346722e-02
2.041465974235086578e-01,2.214369663844235765e+04,-3.772983100644588389e-02
2.057667652104059053e-01,1.628888043028819084e+04,-4.182099759149804363e-02
1.886319088683287015e-01,2.999345156779091121e+04,-1.101709317960733875e-01
1.977831607189953766e-01,2.876802021174932452e+04,-4.594298472803885758e-02
2.050378262980083188e-01,2.269321185776636412e+04,1.065859029611954528e-01
2.055898604831370713e-01,2.572054960261735687e+04,-4.347014965478126353e-02
1.970943126922574395e-01,2.484956160649949015e+04,-1.109281587267468838e-02
1.798945871096603311e-01,2.203619437404481869e+04,-1.965413937051224691e-02
2.113914439163864234e-01,2.953755065405519781e+04,-1.559363536835794463e-02
2.007463342850135390e-01,5.721040273384434113e+04,-2.846421238153265879e-02
1.967698520172095344e-01,2.893890033139798106e+04,-9.972817744493686631e-02
1.984444875947487530e-01,3.438740471250771952e+04,-2.535552507482936868e-02
1.971475177792863520e-01,3.261316245135344798e+04,-7.815135042401179233e-02
2.143817544141446430e-01,1.582696090661380003e+04,-4.767702269831858297e-02
2.002748404495911794e-01,4.076413424327770917e+04,-5.947124262341008799e-02
1.912133422780877279e-01,2.615316431097726309e+04,-4.585304946577389157e-02
1.959280974765879590e-01,7.827545733995833143e+04,-3.390131619792181861e-02
1.831223603149137735e-01,5.342650390498265915e+04,-1.576182976747597664e-02
2.053288624704883714e-01,4.627731425809481880e+04,-2.999399916885761574e-02
1.993929862043095913e-01,3.851666885350676603e+04,-8.490540667823374965e-02
2.064844103126806107e-01,3.619367086676746840e+04,-3.321825634833568824e-02
2.122037439683086557e-01,2.000565226059233100e+04,5.239402527923458196e-03
2.017491765729653441e-01,4.016804114923421730e+04,-1.797780748791374603e-02
1.870508788802289768e-01,3.051871363602669226e+04,-1.019844397712521694e-01
1.953538772921730726e-01,3.839416791989895864e+04,-3.769610442446678922e-02
1.979784589871159961e-01,4.354452851826105325e+04,-5.147500006013836643e-02
2.058426928267921285e-01,2.379317063141051040e+04,-1.013579326132272168e-01
1.911678401573659314e-01,3.737464513915377029e+04,7.699082274049687258e-02
2.075905077363770224e-01,3.156462727748568068e+04,-6.174888758301724269e-03
2.124598727541037457e-01,3.018629519810774218e+04,-6.315206799426668384e-03
1.896531465668831462e-01,5.696225982816351461e+04,-1.001336150847273176e-01
2.048383403418494453e-01,2.854538622908286925e+04,2.739577266267847686e-02
2.126403457445523171e-01,3.223226043997193119e+04,5.342776454602331075e-03
1.992649439829092262e-01,2.947056255952438369e+04,-6.006192076349058107e-02
1.895180692866591798e-01,5.127010550244683691e+04,-7.387439019414304697e-02
2.016157332003916669e-01,3.135703280017192083e+04,-1.832192860878061394e-02
1.934268078379757227e-01,4.056689679093485756e+04,-3.531310933498287008e-02
2.114264325783009879e-01,3.790093333068751963e+04,-1.961821614071854528e-02
1.924974931058381633e-01,3.322967029799851298e+04,-1.061930732984140147e-01
2.077976070216884241e-01,2.238086338573246030e+04,-4.365047153278454883e-02
1.929206156409476736e-01,3.805555101443265448e+04,-7.909754905249571921e-02
2.024329240974594157e-01,2.965869254626702241e+04,-4.672070613705219672e-02
1.879807087611507221e-01,4.323280623652515351e+04,7.107438606475498244e-02
1.920236033511646678e-01,5.112392351864671218e+04,-2.907756984877709130e-02
2.103801460662405309e-01,4.086224826721357385e+04,-4.040317338333897917e-02
1.978083776782893488e-01,2.945944542721564358e+04,-4.629124844698853658e-02
1.846807397038727760e-01,5.578855117380571028e+04,1.094655036989510555e-01
1.930497382374751769e-01,1.925968802830406639e+04,-6.054552733650361146e-02
2.057041150962344300e-01,2.609245667000061439e+04,-5.400955715218565961e-02
1.903759368943675201e-01,2.969124607426558941e+04,-2.097872429529089311e-02
2.034332869341755889e-01,7.817140941972953442e+04,-1.414698462023428471e-01
1.863793252609340090e-01,6.683438462812469515e+04,-4.079423031394290716e-02
2.153241365879145219e-01,2.209438586530993052e+04,-4.513096217117724962e-02
1.781103548988676177e-01,7.817711558598853298e+04,-3.157614590395479981e-02
1.876129200842306943e-01,2.213567467446248338e+04,7.716659617723710569e-03
2.032340246457680633e-01,4.570730740755542502e+04,-9.175365651770650555e-02
1.989311907728090190e-01,2.783892916711296857e+04,-7.301480129506406416e-03
2.078655956844666086e-01,3.203674615969486331e+04,-3.170901347301943035e-02
2.120117518685699920e-01,3.572256584828639461e+04,-1.223015970234369622e-02
2.029803776962177952e-01,3.613437109022766526e+04,-3.853212140759639665e-02
1.872806519918335244e-01,5.666411662740504835e+04,-1.315750728634579036e-01
2.005878723228441407e-01,3.222072622188455716e+04,4.542230765362940959e-02
2.136181500317048676e-01,3.541279470027409843e+04,-2.563904247065069975e-02
1.808957011196476172e-01,8.705986600148280559e+04,-6.132406455842020349e-02
2.047240577172702580e-01,2.022310821498059522e+04,-1.054497579213713732e-01
1.963362722305432850e-01,3.901431389204481820e+04,-6.043910361918590490e-02
2.096473361572364080e-01,1.657251697823286668e+04,-5.457166815832671658e-02
2.005761321875342840e-01,2.159285738118098016e+04,4.575099494734867663e-03
2.102430400521730636e-01,2.319144275277355337e+04,-2.954559239254374303e-02
1.996221964599002585e-01,2.718484884825126574e+04,-3.089564479921853846e-02
2.063661717701907872e-01,3.798182735742878140e+04,-1.103332819061489216e-02
2.041983663468771304e-01,2.541368886581603147e+04,4.604136094984654683e-03
1.990965447827618973e-01,3.975889382370735984e+04,-2.396384927184385533e-02
2.009305408523321679e-01,2.564945802809606903e+04,-4.382888823284687013e-02
2.054328500551171055e-01,4.639587947477681155e+04,-4.614226710008802884e-02
2.131448486638538309e-01,5.719146967945976940e+04,-5.899460682804504724e-02
2.087803132726184507e-01,1.949541702867851200e+04,-2.623196365738891464e-02
2.015464102749496278e-01,5.459870307840961323e+04,1.452906625720564726e-01
2.023738227556254321e-01,3.538056020218315825e+04,-6.085412226043444145e-02
2.081583080981836975e-01,4.558972793602893944e+04,-2.847129353773374463e-02
2.030214111588978521e-01,2.121020642918938393e+04,2.235756987490982242e-02
2.064827545311672397e-01,2.881632869948996085e+04,-6.713301349674211105e-03
2.135219530456515802e-01,1.717605573075945722e+04,-3.160469628486692328e-02
2.034068929715133756e-01,2.003926517843538022e+04,-6.546664791747980328e-02
2.020950455120755496e-01,1.842676063573576539e+04,-2.426669596214466734e-02
2.129863431131281959e-01,3.053599456665804246e+04,-3.013842393101789571e-02
2.020653991086258372e-01,3.355027122379418142e+04,-3.488628573370418373e-02
1.844491850338426941e-01,3.728506877373298630e+04,2.506027862830780828e-01
1.964862375952482754e-01,6.787321239669162605e+04,-1.281485103592968668e-02
1.880174871094913713e-01,9.407019708153320244e+04,-6.958547649904940624e-02
2.057385074712036188e-01,2.784343266056699940e+04,-3.116900710485953629e-02
2.008178282865692166e-01,2.017172572686127387e+04,-6.299691219793716879e-02
2.026443996243485202e-01,2.543823526361628319e+04,-5.196301129235413735e-02
1.923402446461746351e-01,4.700315943882236024e+04,-2.620058559421547043e-02
1.907644976095741463e-01,4.099644134525559639e+04,-9.725323903066261655e-02
2.096485880023854775e-01,1.774459831264006425e+04,3.543937832739474381e-02
2.154507633932453148e-01,1.645101830324174080e+04,-4.368997427366166225e-02
2.072119459150031651e-01,9.088322670375708549e+04,-8.605511690083260390e-02
1.830249032869284698e-01,3.545335965641835355e+04,-4.901659612369554941e-02
1.849087934752431939e-01,4.155536028144878219e+04,-5.536142197907101270e-02
2.087884976663723635e-01,1.661907053286525115e+04,-1.161532091081812247e-02
1.959598031811761176e-01,5.769751487929931318e+04,-1.270585219758979256e-01
2.047838403716334688e-01,2.883870537514936586e+04,-3.408606641294954775e-02
2.121613041005709910e-01,4.405627810775894613e+04,-6.400414017226382923e-02
1.962641271413035349e-01,2.660422981482230898e+04,-2.009075291617228986e-03
2.105044445593782787e-01,1.679906707272298809e+04,-6.495294597019250771e-02
1.980420962796620721e-01,3.164886386331988251e+04,-4.795176364641499239e-02
1.922957537830377595e-01,3.058716030155563203e+04,9.372257933443575197e-04
2.013800925188821145e-01,2.529529114165564533e+04,3.063541742313257918e-02
1.960906847629159677e-01,3.854912635220136144e+04,-2.775856084209758767e-02
2.092773147331707384e-01,1.755044788288964628e+04,-8.861229729890639228e-02
2.075380804012398883e-01,2.877927383637640014e+04,-2.903836696455147984e-02
1.907083048814665338e-01,6.532083625492773717e+04,-1.418856469602608646e-02
1.926200938775229077e-01,2.445221602859940322e+04,-4.737548317797555392e-02
1.922197032947601247e-01,4.657041844956397836e+04,-7.458519689219741955e-02
2.025477577842720589e-01,2.180094798040739261e+04,-4.115014305590291438e-02
2.033065678999711468e-01,2.390095335020015773e+04,-2.811772258623185944e-02
2.035545863934601629e-01,2.474942788431295048e+04,-5.535432051813632404e-02
2.034742979543407437e-01,3.724932464742880256e+04,-4.602751176632131208e-02
1.991994525519459602e-01,2.450764792541076895e+04,-5.233818599435645542e-03
1.959094508531054046e-01,2.707152357418478641e+04,-6.837243647637616072e-03
1.979230582119480830e-01,1.098332129563208437e+05,-7.695660666222201018e-02
2.076757258880553569e-01,4.900864530524461588e+04,-2.839561913636217544e-02
2.038954081811979180e-01,1.615532314088274325e+04,1.215163360493113319e-02
2.010310546799281839e-01,2.538662248581725726e+04,-4.877407858996748134e-03
1.641598177508993284e-01,1.074898946013877430e+05,-9.315848873672888386e-02
1.926640864027480970e-01,3.298233904461280326e+04,-2.615443738141547125e-02
1.901222502046053531e-01,4.457608566238803905e+04,-6.931566147112204479e-02
2.112723965192316589e-01,1.646982782877839054e+04,-9.138811861806687975e-02
2.079711497914522589e-01,2.520054848885432875e+04,7.025696571556425997e-03
2.019869376133678340e-01,3.299448413999802142e+04,-8.076598610857342597e-02
2.040889922342453699e-01,4.370757458863063221e+04,-6.519868118015394176e-02
2.132594396863034536e-01,2.911940015772437619e+04,-1.348314382148062263e-02
2.128181255041186881e-01,3.622787586531709530e+04,-3.672388553868590616e-02
1.773547294307019351e-01,7.593643774822591513e+04,-2.686522203726971966e-02
2.083336170423630007e-01,1.797457310937789225e+04,-6.274423275216906015e-03
1.981286397650981468e-01,3.401065957010891725e+04,-1.550837647750405446e-02
1.904559492797859022e-01,4.684362248361246020e+04,-4.851628775448280084e-02
1.830693315584990266e-01,3.212848206277215650e+04,1.693307280744960897e-01
2.025808306030193184e-01,2.257945144733155030e+04,-2.613211790131085913e-02
1.957591095939990034e-01,1.598860710500600726e+04,1.641715529450313293e-02
2.046388594095912006e-01,4.454773542529918632e+04,-7.421278796134289646e-02
2.069993406003123038e-01,3.939422648817462323e+04,-1.314681154393051651e-02
2.016216464000032127e-01,4.637888259055945673e+04,5.664803621598473587e-03
1.966632855389578161e-01,3.292800919799342955e+04,8.645806640734975124e-02
2.047500525098779889e-01,3.517272832516718336e+04,-1.339683205990506443e-02
2.085313433793930249e-01,3.799570389719882223e+04,-6.415766271071136895e-02
1.969369810951894506e-01,3.808450794189130829e+04,-6.671981737747417762e-02
2.131301222745064228e-01,6.278486686658505641e+04,-5.211564386951877265e-02
1.990254910407733557e-01,3.748006434724976134e+04,-1.179460038995915755e-01
1.973181310252715703e-01,3.498442062469898519e+04,-7.813211373440696883e-02
2.013946141920109623e-01,2.002354813267861027e+04,-2.729307450654925790e-02
1.966893174921009735e-01,2.960206058329703956e+04,1.875269324534491883e-02
2.109569541186784858e-01,3.589224693450857740e+04,-2.020468077497864640e-02
1.999381025195429706e-01,2.543374942102329078e+04,-2.184619845821125089e-02
2.008119700293836685e-01,3.371701320175727597e+04,-4.400813666548910458e-02
1.898043695456659852e-01,4.465724657593043230e+04,-4.021209820291271608e-02
2.125050451776291094e-01,2.702207757503705943e+04,2.013485112083202022e-02
2.011928944661327823e-01,3.889702430881554028e+04,-1.554793963542010216e-02
1.988346885455770929e-01,2.606853574056989601e+04,1.814794103605621434e-02
2.079309137859327583e-01,8.388121788365319662e+04,-7.386354411122154906e-02
2.182046893754241157e-01,2.226265589366459972e+04,-4.834780685554922186e-02
1.925047977506648689e-01,1.979719329054109767e+04,-9.160244064634685823e-02
2.248465331692862945e-01,1.526129222986422246e+04,-8.263340515309310075e-02
2.103113200731430432e-01,4.033395682883945847e+04,-4.353035988496744418e-02
2.127526423382193888e-01,3.554858259732386796e+04,-1.614440517361953598e-02
2.011065411984799822e-01,5.240457040252494335e+04,3.723907792223829505e-02
1.894320349110167612e-01,6.440865214462573931e+04,-1.275464429577735370e-01
2.072673276867582626e-01,4.235699957197050389e+04,1.495051672111315753e-02
2.028666474833633326e-01,3.300833702059616189e+04,-7.040445342248984051e-02
2.110212324851582222e-01,1.992341919119581144e+04,-5.071229582449456735e-02
1.979831954245695191e-01,6.019058866268119891e+04,-5.451845533652321940e-02
2.036371128502729999e-01,3.990831198593159934e+04,-9.733618291917560394e-02
2.057147695790674802e-01,2.098498363832684117e+04,1.762353727132508208e-02
2.272067575075581436e-01,2.005144564400344098e+04,-1.879145829253786940e-02
2.125302130820715951e-01,2.228285278062883299e+04,1.214363890978698013e-02
2.115558566389431350e-01,1.990329899605685205e+04,-3.918050716163286318e-02
2.042300404543962722e-01,2.871283669354113226e+04,-1.496466775537605778e-02
1.946270275967548202e-01,3.158548593864779832e+04,-5.390028599516322183e-02
2.008398891090426297e-01,3.471219148180908815e+04,-4.152534458452587091e-02
2.137003818057132687e-01,1.699595826599813518e+04,-1.895820265714898492e-02
2.056091462214524046e-01,4.551284517265061731e+04,-2.660966461393365901e-02
2.176106888325625988e-01,1.773711805786358673e+04,2.564936310249222445e-03
2.000862582578452065e-01,4.918688943573761208e+04,-6.752689171144096725e-02
2.133153892287384112e-01,1.886724683109127727e+04,-7.459994972869814223e-02
2.070773576555159923e-01,6.711877194247460284e+04,-8.287974461442726426e-02
1.990603203728217585e-01,3.559429565234050096e+04,-5.841054777725193659e-02
2.111990680898780670e-01,2.705636068704507124e+04,-4.110251680104400063e-02
1.971679470896854636e-01,3.383917427765621687e+04,8.094409891441449456e-02
1.975938903885651465e-01,4.253997810798308637e+04,4.004073191372341939e-02
1.896388944129000220e-01,3.007566388687826111e+04,2.094271303447530971e-02
2.026251374051083187e-01,3.798796459343143215e+04,-4.168462903626563715e-02
2.098071033149290499e-01,1.906533205647211435e+04,-7.053891779464485645e-02
2.070896335240350605e-01,1.756633094438532135e+04,-9.148467649443523669e-03
2.076953607503467247e-01,2.669314037910536717e+04,-1.772779602375661179e-02
2.104275986224050932e-01,3.530646236005087849e+04,1.782299670165617828e-02
2.052766214851868831e-01,3.131267352950248460e+04,-1.175853966321721393e-02
2.059341981541907840e-01,3.787186736145161558e+04,-3.233364361007846216e-02
2.029094596610516166e-01,2.735611557866299336e+04,-6.868588163798027002e-02
2.110153412009011797e-01,1.602515739161678175e+04,-2.625134941789672438e-02
2.001440364967305707e-01,3.478440946154838457e+04,-4.665161482367486540e-02
2.034294971166754618e-01,3.970042623383593309e+04,3.139973179640326989e-02
1.931235781820136166e-01,4.966463348311219306e+04,-3.140177252085377818e-02
2.032266240962117276e-01,4.244749005460577609e+04,-1.640638132669032176e-02
2.008556426522058458e-01,2.795765283967736468e+04,-1.134700677735541591e-01
1.764283683008205927e-01,7.212730406116406084e+04,1.865630677050342592e-02
2.115156067759520475e-01,1.717145725236073122e+04,-2.540951752407369715e-02
2.147619294954977720e-01,3.358443961920934089e+04,-9.199727031757323975e-04
2.043587641843332414e-01,4.404704997697819636e+04,-2.734675660427602836e-02
2.083112440734297688e-01,3.320167769855322695e+04,-2.162519814532630827e-02
2.000337704516773063e-01,3.431615378376250737e+04,-4.553432696143444591e-02
1.964559034951230687e-01,1.987163737226128433e+04,-9.015332528362254849e-02
1.974480973288045837e-01,3.633019794985724729e+04,-3.300556909775598929e-02
2.053351434020949384e-01,2.945063548089555843e+04,-6.239873569573561179e-02
2.037156176878366087e-01,3.259305935415855856e+04,-5.103933323495656732e-02
1.965464902114750223e-01,6.514936583915483789e+04,-3.274642893402036903e-02
1.968655752748894039e-01,4.505326920033239003e+04,-4.442565664003783610e-02
2.029139395661668788e-01,2.964081547963407502e+04,2.995182292023556431e-02
2.039848282707190652e-01,1.692357769674563315e+04,8.056056954590832620e-04
2.053427563322954563e-01,4.146481582712368981e+04,-4.228898717036772004e-02
1.931349973554960797e-01,2.852134661613223943e+04,-8.896901314767850788e-02
1.837174771467486867e-01,1.786757204565632856e+04,5.455571159279076245e-03
2.063074786618923906e-01,3.437396397194344900e+04,-4.511742800288966182e-02
1.982999059519667262e-01,3.809132440919130750e+04,-5.412669023732525481e-02
2.086216785972860310e-01,2.293170643774385826e+04,-1.783849103363788907e-02
2.089997998591091588e-01,3.916877196534029645e+04,2.192946299918883610e-02
1.912610887183126829e-01,2.707203119907496512e+04,-7.680794254996989312e-02
2.063638995725460279e-01,2.561695902138530801e+04,-2.666604401016646822e-02
2.002639422968802985e-01,4.924636858682581806e+04,-1.834346099575063019e-02
1.928554226808855132e-01,3.878812712663024286e+04,-4.385901643570964958e-02
1.971475022680357903e-01,3.300269234369352489e+04,-2.422490345818964150e-02
2.102568517493972611e-01,2.496908829382816111e+04,-4.112985528256425660e-02
1.987215623827735533e-01,4.228862055462527496e+04,-3.626714055641104550e-02
1.923290938545346995e-01,4.305490571991523757e+04,-1.011930558325325191e-01
1.891532390348884818e-01,1.723368099509550666e+04,-1.501280316780574491e-02
2.065878618072259643e-01,2.351798799903255713e+04,4.543270627543425505e-03
2.141223495231775464e-01,2.274032150800133240e+04,-4.339702535236850817e-02
1.929053823728189010e-01,4.323068870918494213e+04,-8.949855946896677350e-02
1.988779273581726681e-01,3.084543744256680293e+04,-3.418145156880438018e-02
1.959118873283278994e-01,2.938081064100299409e+04,-7.454750403652656010e-02
2.105561784804547143e-01,1.746269307974972980e+04,-1.021248128765092078e-01
2.034209470429265698e-01,2.791022984655299661e+04,-6.578487580931276224e-02
1.874633723060669388e-01,1.592691716558751250e+04,-1.768493372836503763e-01
1.702743732699818491e-01,7.239781623154124827e+04,1.066662232819162379e-02
2.037508139424305531e-01,2.301072905032744529e+04,-5.915370494100823801e-02
2.117399033840973721e-01,1.885195768623988624e+04,2.300868029439617768e-02
2.001603022365185947e-01,2.832647362819623959e+04,-5.091197274602103640e-02
1.975991379642955681e-01,4.426994051600634702e+04,-4.787544231621937429e-02
2.062054413085701310e-01,2.432987679158860192e+04,-9.290730935674101215e-03
1.953677629616978328e-01,3.941699451440728444e+04,-6.471945552450608652e-02
2.097356982862653152e-01,2.539017001033967972e+04,-1.742085308759407786e-02
2.162072421805221745e-01,2.110130555465884754e+04,-5.144158248858408944e-02
1.986323747228000147e-01,3.930601327428931836e+04,4.110243315084247812e-02
2.117262461998120626e-01,3.032785741937005878e+04,-4.558321232086532532e-02
2.028165050807303194e-01,1.729562435737394844e+04,-6.424243547737916449e-02
1.938668316798358993e-01,3.169367501943533352e+04,-9.793839394567803447e-02
2.002005407489360067e-01,4.178894849086293834e+04,-4.914213115947164284e-02
2.029828505725672916e-01,2.027683112019777764e+04,-2.321471803843409842e-02
1.975048359213742166e-01,3.773807260883619892e+04,-7.323287021137586672e-02
1.840049535495995037e-01,9.486909732961039117e+04,1.253725163188545641e-02
2.035818850168856498e-01,3.046385654498833901e+04,-5.546947214508017587e-02
2.060531552587596404e-01,3.826736443436700210e+04,-1.152922476314276017e-02
2.137818626795714438e-01,2.175066474409155489e+04,1.445219536189182655e-02
2.023672738717333386e-01,4.143167047097528121e+04,-3.714355758888764764e-02
2.049764411354607629e-01,3.559502196001354605e+04,-2.288759641092984187e-02
1.884002987810317609e-01,4.716585770117459469e+04,-8.308386798448703925e-02
1.979695921555293114e-01,2.279498863067630009e+04,9.583869988129999767e-03
1.844453650116535948e-01,2.164859187940348784e+04,2.211271142501760323e-01
1.985212622300865370e-01,3.579162942358727742e+04,-3.777618264124128766e-02
2.062806593461911087e-01,2.624092322577186133e+04,-5.460111249494943933e-03
2.079477558067916731e-01,2.080655205289826336e+04,2.706430966441103481e-03
1.768752241962439353e-01,9.142135508782468969e+04,-2.243236813833117682e-01
2.045132871867726410e-01,1.610186839270812561e+04,-1.219511028980510281e-01
1.953004686354399277e-01,3.500094686451184680e+04,-4.952402097122392960e-02
2.108225431634204450e-01,2.168806323968402648e+04,8.251054885789298535e-03
1.904959976584221781e-01,3.719740253141650464e+04,-6.662210441334828759e-02
1.933379115012594240e-01,4.693739076332877448e+04,-7.980996406529257403e-02
2.138143236543497971e-01,3.317682742606544343e+04,-2.954262215911706430e-02
1.911427946320510551e-01,3.291608879929856630e+04,-4.644749376768549792e-02
2.037993748560312235e-01,3.269891249247045198e+04,-8.096938048954512024e-02
2.013452945799841798e-01,2.013443999119607906e+04,-1.035952970136236329e-01
2.010338740274146274e-01,2.221202519996019691e+04,-4.485634750595735021e-02
2.028086396519698797e-01,3.945241675290458807e+04,4.029702884968898099e-03
1.927129789167732754e-01,3.945864533920752001e+04,-2.857744401473923807e-02
2.003867930056967839e-01,3.517911042930447729e+04,-3.223245389516934956e-02
2.019218321587370468e-01,1.835185722917780731e+04,-1.055690825956954459e-01
2.145968523313296350e-01,3.868883368217489624e+04,-1.199681572164994908e-02
1.955446521861824438e-01,4.374031784164305282e+04,-5.519240852237940892e-02
2.135484472096140229e-01,1.632326273301723268e+04,-6.481318467328966992e-03
2.026260757313765315e-01,1.924921098660125062e+04,3.271813880993632039e-04
2.194890265894185732e-01,1.770914908759612445e+04,-8.681009927690826189e-02
2.042201009332009487e-01,1.755935176159896582e+04,-6.778611605993033196e-02
2.064135509906057653e-01,3.254160173196601681e+04,-1.553852319226367400e-02
1.962694270370259619e-01,3.260063037737051854e+04,-3.515224192666640407e-02
2.101390238741709104e-01,4.064776219544348714e+04,-1.900696563753052166e-03
2.022178284071390886e-01,2.552892832680740685e+04,-6.920631034150016847e-02
1.983112218082900280e-01,4.903330586448938993e+04,-4.577537368279313568e-02
2.043685649988233322e-01,3.868543538322477252e+04,-6.498123903999362960e-02
2.056849426473373599e-01,4.158761903516875464e+04,-1.030325159458643225e-01
2.097047181845730079e-01,1.983798057078535203e+04,-4.395275707222047468e-02
2.047436635508015634e-01,2.558945023656389458e+04,-6.979337010349489015e-03
2.119604974564917033e-01,1.877367336328780220e+04,-1.914903704732289630e-02
2.027872403618982688e-01,3.005091527777536976e+04,-6.550870757058625815e-02
1.901390355258098797e-01,4.092762209115052246e+04,-6.520430149879820336e-02
2.025130060218489070e-01,3.014020376613917324e+04,-4.149502698985979565e-02
1.922859012206115104e-01,5.071218756865084288e+04,-6.941535503680533459e-02
2.127013598185050758e-01,1.963416130771765529e+04,7.011307211404593960e-03
2.157890069453810844e-01,1.477574829642985605e+04,-1.158309413529767379e-01
1.976830915717649184e-01,2.746998297638676013e+04,-5.022499349271053459e-02
2.063157575654066822e-01,5.005814847813858069e+04,-2.305134674494224364e-02
2.115069816287581950e-01,3.297543606259222724e+04,-2.847593372654169327e-02
1.906608064881690490e-01,3.894154385074047605e+04,-1.194673408995709785e-01
1.956910471934761586e-01,4.617256655337443226e+04,-1.024377089772653127e-01
2.150411615503368956e-01,1.677150026195141982e+04,-3.484654573873505190e-02
2.083617637195316896e-01,3.595263738237386133e+04,-2.941209521970745630e-02
2.178908010685082219e-01,1.773172993498092910e+04,-3.698106350038079387e-02
2.103752047454421070e-01,1.850374315939910957e+04,-1.487974385484945594e-02
1.953144944831421981e-01,3.555892822613972385e+04,-1.047922391563389233e-01
2.032407622372793266e-01,7.665389654546482780e+04,-6.270096858562342057e-02
2.017937338690425908e-01,6.781760680520167807e+04,-2.429476437595232130e-02
2.181309906801270626e-01,1.732917493015080981e+04,-5.725349015751809989e-02
1.975408975752520890e-01,2.599893091584013018e+04,-3.475434820590100893e-02
1.994259818856987387e-01,3.353490042272696155e+04,-4.109963896647024495e-02
2.027276662981276067e-01,7.940189177590314648e+04,-4.020148004967821764e-02
2.125282614163619133e-01,4.126274963124951319e+04,-1.911780644713985400e-02
2.064406419942011184e-01,3.876364808233389340e+04,-1.049905796692902731e-02
2.004829915085765413e-01,4.857501816388563020e+04,6.829659289419911725e-03
1.945121479674456477e-01,4.449324545098061208e+04,-5.153216706776334727e-02
2.143190874409124647e-01,2.138725345146158361e+04,2.105145641683452140e-02
2.045718400954658067e-01,3.623414567737064499e+04,-6.411499404162894489e-02
2.019973253986465100e-01,1.756407774147294185e+04,-7.672651209396377792e-02
1.939855292355273653e-01,3.483700241859556991e+04,-7.093239198072685825e-02
2.053827128473049990e-01,5.001132515654011513e+04,-4.464211459121485148e-02
1.989240810639270607e-01,2.626999315624225346e+04,7.534826059822692657e-02
1.942123917402696354e-01,2.114004831696831388e+04,-7.026286379290906658e-02
2.068394464377888153e-01,3.698220657502354879e+04,-3.136374865092386721e-02
1.994014987427451258e-01,2.174135871013198630e+04,-9.160423485931512566e-02
2.053971468360525632e-01,1.929404015239143700e+04,-6.986898264120676438e-02
2.084436251128959083e-01,3.641132153685556841e+04,-2.806216510262250774e-02
1.963762715480862620e-01,4.426096643069923448e+04,-2.892343710122693284e-02
2.105365233146082038e-01,3.121367225128633800e+04,-3.975841134726426987e-03
2.041705197530565008e-01,4.084623092570954759e+04,-5.954531122796989043e-04
1.980977728613524391e-01,3.630308109362589312e+04,6.829161771548566962e-02
1.953125265092326701e-01,2.467600832653699035e+04,-6.675544224306960428e-02
2.124859362239165661e-01,4.828117808315063303e+04,-1.301722966468425204e-02
2.139779446403732577e-01,1.881815103891502804e+04,-4.498493413091047416e-02
2.141538837178224020e-01,2.639270276551520510e+04,-9.955913028078142504e-03
2.000979956481452049e-01,2.009445927720950567e+04,-5.885584183264438302e-02
2.143695779536489432e-01,2.079356714864848618e+04,-5.239461648054382498e-02
2.042391101692560273e-01,5.542618096993237850e+04,-9.089888070115507979e-02
1.901510622625343372e-01,2.990857252340876585e+04,-9.702573517573398476e-02
1.979965989531336790e-01,2.498445812247260619e+04,-5.754001823479337058e-02
2.134806710774228289e-01,3.342023797267565533e+04,-3.234338856951656654e-02
2.114236721973098976e-01,1.865583325923381199e+04,1.622684452514713480e-02
1.897083832775437739e-01,4.731761974353228288e+04,-6.555591953451164744e-02
2.022412699080710641e-01,2.761578395030500542e+04,-7.566942367754188326e-02
2.152656281027428287e-01,1.976320348210532393e+04,-2.592030882714823486e-02
1.964751845166777255e-01,2.450266578233538166e+04,-3.467972906718252285e-02
1.970786154421090564e-01,3.036753228557020702e+04,-5.994734599685616616e-02
1.922731835928628841e-01,4.502811827813395212e+04,1.459651114471060829e-01
1.876360776020180032e-01,5.291037698645636556e+04,-6.411590111081784393e-03
2.147578420756524609e-01,1.717266691115693538e+04,-4.603990792341643851e-02
1.926745419649699975e-01,4.364214932981519087e+04,-5.168312088270171634e-02
1.922277919724008910e-01,3.783347300968142372e+04,-1.014681666712435176e-01
2.159191891267150665e-01,2.578945766700478634e+04,-1.844320109358278670e-02
2.023569199226146476e-01,2.836531897713785293e+04,-5.255077437571574472e-02
2.065397293078607144e-01,3.085262359437716805e+04,-6.585572895031183149e-02
1.986620270342735195e-01,2.748083461708697359e+04,1.729120128189437500e-02
2.023926853673390092e-01,1.670538836568049737e+04,-8.674272827215420700e-02
2.003526550260144312e-01,3.961340438073620317e+04,-3.437591246190172672e-02
2.073039543922862715e-01,2.035186548308553029e+04,-4.253737049839730056e-02
2.153113030083276258e-01,2.478604561833555636e+04,1.585044926302677654e-02
1.920313158068444603e-01,2.562507397719352593e+04,-3.609113976648942873e-02
1.885453609882688786e-01,4.795331198570159904e+04,-2.289423376466987251e-02
2.146353062879609863e-01,1.929461885737085686e+04,-4.008275480334474311e-02
2.147060555967202633e-01,3.421261123200911970e+04,-2.294629897318737830e-02
2.043243019419647422e-01,3.255307789361672258e+04,-1.177082510827592160e-02
1.920926870014468546e-01,3.035743050172106814e+04,-4.337426572590712126e-02
2.089894127659992495e-01,7.984039250952738803e+04,-6.024174743094499324e-02
2.036785457740431515e-01,7.862536056621457101e+04,-7.515364753373547646e-02
1.982797186381879129e-01,2.957922969317043680e+04,-4.078544168379407558e-02
2.074968809844854878e-01,5.232217491869050718e+04,-3.366359217229881323e-02
2.044629479599643640e-01,2.061042966898334635e+04,-5.527870994089250506e-02
1.991304915806414444e-01,2.966944667613610363e+04,-5.005012265783202047e-02
2.069743674274567014e-01,2.065088697512722865e+04,-4.671987946468321440e-02
2.104213159295020008e-01,2.887071263374843693e+04,-5.443582642609575556e-03
2.187581610475212157e-01,2.309191503852393726e+04,-3.687189916820806518e-02
1.870915158690305558e-01,5.201940382413493353e+04,-8.874469012510867449e-02
2.026260255167691426e-01,2.956854019588810479e+04,-6.081868236829468533e-02
2.129162382374200080e-01,1.694410307308305710e+04,-2.759145771381881981e-02
2.007447175629100133e-01,2.956989638607213419e+04,-1.991268091434835255e-02
2.001874066890102499e-01,2.856548969807535468e+04,-4.261231358047487539e-02
2.127277843442990368e-01,2.253023542813520908e+04,-6.409248782988148652e-02
1.887113257580663450e-01,3.497925964625264169e+04,-8.528697310262799147e-02
1.999995337806737550e-01,2.504680364395594734e+04,-4.650671489658220192e-02
1.945771382435478036e-01,2.956395531173270865e+04,-1.187860551999766513e-02
2.045364970867916410e-01,3.576042276837374084e+04,-1.813425533966416675e-02
2.083711772833760079e-01,2.890624640191806975e+04,-1.531983688488122199e-02
2.064023718606742830e-01,4.126407089712694869e+04,-3.656371586811590912e-02
1.958531059395046958e-01,2.993617250040960789e+04,-8.619897642237603352e-02
2.071873997271057311e-01,2.414456591160414246e+04,-4.850847181823497722e-02
2.103556532660688649e-01,3.489476310893658956e+04,-1.647138218451105543e-02
1.953139211893090421e-01,2.059336557699839250e+04,-3.163910630955344555e-02
1.950593902122079171e-01,1.877822613968682344e+04,-4.343961912186018737e-02
1.924775787060928334e-01,3.444367077615584276e+04,-9.073325299006514133e-03
2.051303738118553099e-01,2.924241384055805247e+04,-8.089433891264359577e-02
1.996402745948391566e-01,2.528199440291460269e+04,-3.357252391695381144e-02
2.052692933888418392e-01,2.198936603465634471e+04,-2.581160518902606005e-02
2.083191151741546898e-01,1.820470223886585518e+04,-2.561256763526170016e-02
1.902861154018093692e-01,6.760170343536059954e+04,-6.097430877398269528e-02
2.039106261098390660e-01,5.857278991223964840e+04,5.431088368561822269e-03
2.104940547112676974e-01,3.477502338687036536e+04,4.642007337108696938e-03
1.999734930768349017e-01,3.487094522773822973e+04,2.338117921859432773e-03
1.998692100731939147e-01,3.742328220269289159e+04,-5.792822054281416416e-02
2.074687595508001303e-01,2.139253070617408230e+04,-4.650455521469858827e-02
2.016747290186490793e-01,7.598236412119281886e+04,-8.033257530161572180e-02
2.072045221716234398e-01,2.805528130894541027e+04,-3.586980078638146718e-02
2.028002109641169337e-01,5.042244766646060452e+04,-5.146798742476267619e-02
1.974309520349046831e-01,3.542596312224327994e+04,-4.280757811497545168e-02
1.844167965817413435e-01,1.697379125543325063e+04,-8.798337284117374590e-02
1.956247258924456722e-01,3.886033224983533728e+04,-5.139971211017197589e-02
2.046539825876809437e-01,1.767476320261795263e+04,-6.445754496850732151e-02
2.068148788195485199e-01,3.782247357057954650e+04,-3.985904233261253204e-02
2.055879169510113902e-01,3.739602340954568353e+04,-3.221432144413291856e-03
1.960071009700421474e-01,5.163060022955224849e+04,-4.595758300559336235e-02
2.145430269163426107e-01,2.832035465623550772e+04,-5.980278007237162241e-02
2.105860529564710371e-01,1.403822925205016691e+04,-7.713675084153705230e-02
1.963113248523004062e-01,4.296143353419408231e+04,-6.882920035823054949e-02
2.118804737066150301e-01,3.206863074946005509e+04,-2.222826987794790030e-02
2.066699689751086422e-01,4.271541122968010313e+04,-3.865997736919366684e-02
1.956020258108235044e-01,2.143170105751013762e+04,-5.744109126126711179e-02
2.097076573918116582e-01,1.961616911346564666e+04,-2.661048730436119114e-02
1.819835662485234651e-01,2.406457810768112540e+04,-4.600121978159454894e-02
2.066299878835360648e-01,1.576590462806440155e+04,-1.157010288569624290e-01
1.964155266252250176e-01,2.962951676569387928e+04,-1.787334237914696769e-02
1.904489727503407281e-01,3.341291281775401148e+04,-1.289984023240649605e-02
2.069515496542544686e-01,4.038757477245210612e+04,-8.863539220684560349e-02
1.995181883753343322e-01,2.822485576089234382e+04,-7.166276580094386658e-03
2.033053636572615952e-01,2.504063137833770816e+04,2.806697930769870824e-03
2.094113218371425333e-01,3.755030997223616578e+04,-1.558453508430326061e-02
2.164283495536126201e-01,1.509132890035211130e+04,-1.307618771582922668e-01
2.079220061571506184e-01,2.217429856859027859e+04,-2.066235919200540283e-02
2.262843210026616592e-01,1.453857956359409036e+04,-6.210659300049651416e-02
1.972265078707059471e-01,2.583464067325149517e+04,1.945746635685935422e-02
2.109498104622366255e-01,2.151456358158507646e+04,-3.776876152613690973e-02
1.958804005288148353e-01,3.556246997663361253e+04,-5.325868708103270732e-02
1.932288148697581531e-01,2.679119691224746202e+04,-1.307598341626240168e-01
1.977145428883752554e-01,3.757846599351396435e+04,-6.548655741241522776e-02
2.124962572927696358e-01,2.258248586577874812e+04,4.802737598876446329e-03
2.082221387773383059e-01,3.270026937386099598e+04,-4.407970801397122218e-02
1.974796112389071157e-01,5.200313328717449622e+04,1.959829990407245190e-02
1.980322600705115288e-01,3.278352909468905273e+04,-4.866783078741122870e-02
1.995617032970109228e-01,2.122391724386327405e+04,-8.553245651997234966e-02
2.072001218131396816e-01,3.165302213490916984e+04,-5.252246083207119665e-02
1.866647364704112078e-01,3.649534793461564550e+04,-1.397610388461080488e-01
2.099257783231925079e-01,2.264716820467622165e+04,-2.736019704449968448e-02
1.897132560492635900e-01,2.791458441411948661e+04,-1.194699435646419811e-01
2.024606934754655529e-01,4.788772483100972022e+04,-1.970678157846766053e-03
1.960555719961578625e-01,3.558377336492793984e+04,-6.925149652811649070e-02
2.017624170100269232e-01,2.388091951202708879e+04,-5.252510172747548028e-02
2.126248205736495644e-01,3.479675511142620962e+04,2.101223973968178234e-04
1.900628807357523653e-01,2.826707212821049689e+04,-1.098973924434778759e-01
1.793155529479248389e-01,3.017013642208359670e+04,2.824306429385805006e-01
2.027903519029819468e-01,3.545357376541919803e+04,-7.391780444362315572e-02
2.069416983935661869e-01,2.169232021967798210e+04,-2.175392026644534099e-02
2.006005080228759618e-01,3.378809036390017718e+04,-7.137350631983404615e-03
1.771886409742992052e-01,5.018759224257235473e+04,3.309255916876351900e-01
2.070436618261320416e-01,3.622073210592630494e+04,-6.821001120157406394e-02
1.993929461441651674e-01,4.959811796910755220e+04,-3.978048573155305856e-02
2.067793481964917135e-01,1.917214201471787965e+04,-5.190858653444881121e-02
2.190680309007567994e-01,1.934127042329304822e+04,-6.843672137001298450e-02
1.899921411155069406e-01,3.205642654262370343e+04,-9.689907801186535552e-02
2.055483113396379402e-01,3.532606786330723844e+04,-3.503716013307484750e-02
2.084768918326937448e-01,2.725855649786060530e+04,-5.608129594791783773e-02
1.880297338404228469e-01,3.398493074116436765e+04,-8.396211013760462860e-02
2.135549838385873422e-01,2.319445206074543239e+04,-1.392055788779173169e-03
1.997647313022899163e-01,3.880280062351682864e+04,2.269668885331024843e-02
2.037399629749144514e-01,3.231719069710049007e+04,-5.850723493264674280e-02
2.137754550882983717e-01,3.574640170378284529e+04,5.128822568532270636e-03
2.131423278324963977e-01,2.571780669589636454e+04,-7.086260939857463859e-02
2.009343406462288095e-01,3.047011130940328076e+04,-5.517173721672568448e-02
2.094169001781998884e-01,2.533395464650403301e+04,-5.593929485583292588e-02
1.991977426728991640e-01,4.051232345372098644e+04,1.178915069858657051e-02
2.068695379885968633e-01,4.151585269681105274e+04,1.104659216701165195e-02
